digraph Tree {
node [shape=box, style="filled, rounded", color="black", fontname="helvetica"] ;
edge [fontname="helvetica"] ;
0 [label=<Online boarding &le; 3.5<br/>gini = 0.491<br/>samples = 103594<br/>value = [58697, 44897]<br/>class = disatisfied>, fillcolor="#f9e1d0"] ;
1 [label=<Inflight wifi service &le; 0.5<br/>gini = 0.253<br/>samples = 52271<br/>value = [44487, 7784]<br/>class = disatisfied>, fillcolor="#ea975c"] ;
0 -> 1 [labeldistance=2.5, labelangle=45, headlabel="True"] ;
2 [label=<Cleanliness &le; 0.5<br/>gini = 0.009<br/>samples = 1764<br/>value = [8, 1756]<br/>class = satisfied>, fillcolor="#3a9de5"] ;
1 -> 2 ;
3 [label=<gini = 0.0<br/>samples = 8<br/>value = [8, 0]<br/>class = disatisfied>, fillcolor="#e58139"] ;
2 -> 3 ;
4 [label=<gini = 0.0<br/>samples = 1756<br/>value = [0, 1756]<br/>class = satisfied>, fillcolor="#399de5"] ;
2 -> 4 ;
5 [label=<Inflight wifi service &le; 3.5<br/>gini = 0.21<br/>samples = 50507<br/>value = [44479, 6028]<br/>class = disatisfied>, fillcolor="#e99254"] ;
1 -> 5 ;
6 [label=<Class &le; 1.5<br/>gini = 0.121<br/>samples = 45789<br/>value = [42817.0, 2972.0]<br/>class = disatisfied>, fillcolor="#e78a47"] ;
5 -> 6 ;
7 [label=<Inflight entertainment &le; 3.5<br/>gini = 0.252<br/>samples = 17103<br/>value = [14573, 2530]<br/>class = disatisfied>, fillcolor="#ea975b"] ;
6 -> 7 ;
8 [label=<Cleanliness &le; 4.5<br/>gini = 0.118<br/>samples = 12034<br/>value = [11277, 757]<br/>class = disatisfied>, fillcolor="#e78946"] ;
7 -> 8 ;
9 [label=<Gate location &le; 3.5<br/>gini = 0.111<br/>samples = 11933<br/>value = [11230, 703]<br/>class = disatisfied>, fillcolor="#e78945"] ;
8 -> 9 ;
10 [label=<Inflight entertainment &le; 1.5<br/>gini = 0.153<br/>samples = 7737<br/>value = [7092, 645]<br/>class = disatisfied>, fillcolor="#e78c4b"] ;
9 -> 10 ;
11 [label=<Arrival Delay in Minutes &le; 134.5<br/>gini = 0.031<br/>samples = 1951<br/>value = [1920.0, 31.0]<br/>class = disatisfied>, fillcolor="#e5833c"] ;
10 -> 11 ;
12 [label=<Inflight wifi service &le; 1.5<br/>gini = 0.027<br/>samples = 1897<br/>value = [1871, 26]<br/>class = disatisfied>, fillcolor="#e5833c"] ;
11 -> 12 ;
13 [label=<Flight Distance &le; 3642.0<br/>gini = 0.009<br/>samples = 1114<br/>value = [1109, 5]<br/>class = disatisfied>, fillcolor="#e5823a"] ;
12 -> 13 ;
14 [label=<On-board service &le; 4.5<br/>gini = 0.006<br/>samples = 1069<br/>value = [1066, 3]<br/>class = disatisfied>, fillcolor="#e5813a"] ;
13 -> 14 ;
15 [label=<Age &le; 58.5<br/>gini = 0.004<br/>samples = 1025<br/>value = [1023, 2]<br/>class = disatisfied>, fillcolor="#e58139"] ;
14 -> 15 ;
16 [label=<Class &le; 0.5<br/>gini = 0.002<br/>samples = 902<br/>value = [901, 1]<br/>class = disatisfied>, fillcolor="#e58139"] ;
15 -> 16 ;
17 [label=<Baggage handling &le; 1.5<br/>gini = 0.009<br/>samples = 212<br/>value = [211, 1]<br/>class = disatisfied>, fillcolor="#e5823a"] ;
16 -> 17 ;
18 [label=<Age &le; 39.0<br/>gini = 0.071<br/>samples = 27<br/>value = [26, 1]<br/>class = disatisfied>, fillcolor="#e68641"] ;
17 -> 18 ;
19 [label=<Flight Distance &le; 777.5<br/>gini = 0.444<br/>samples = 3<br/>value = [2, 1]<br/>class = disatisfied>, fillcolor="#f2c09c"] ;
18 -> 19 ;
20 [label=<gini = 0.0<br/>samples = 2<br/>value = [2, 0]<br/>class = disatisfied>, fillcolor="#e58139"] ;
19 -> 20 ;
21 [label=<gini = 0.0<br/>samples = 1<br/>value = [0, 1]<br/>class = satisfied>, fillcolor="#399de5"] ;
19 -> 21 ;
22 [label=<gini = 0.0<br/>samples = 24<br/>value = [24, 0]<br/>class = disatisfied>, fillcolor="#e58139"] ;
18 -> 22 ;
23 [label=<gini = 0.0<br/>samples = 185<br/>value = [185, 0]<br/>class = disatisfied>, fillcolor="#e58139"] ;
17 -> 23 ;
24 [label=<gini = 0.0<br/>samples = 690<br/>value = [690, 0]<br/>class = disatisfied>, fillcolor="#e58139"] ;
16 -> 24 ;
25 [label=<Age &le; 59.5<br/>gini = 0.016<br/>samples = 123<br/>value = [122, 1]<br/>class = disatisfied>, fillcolor="#e5823b"] ;
15 -> 25 ;
26 [label=<Checkin service &le; 1.5<br/>gini = 0.124<br/>samples = 15<br/>value = [14, 1]<br/>class = disatisfied>, fillcolor="#e78a47"] ;
25 -> 26 ;
27 [label=<Baggage handling &le; 2.0<br/>gini = 0.444<br/>samples = 3<br/>value = [2, 1]<br/>class = disatisfied>, fillcolor="#f2c09c"] ;
26 -> 27 ;
28 [label=<gini = 0.0<br/>samples = 1<br/>value = [0, 1]<br/>class = satisfied>, fillcolor="#399de5"] ;
27 -> 28 ;
29 [label=<gini = 0.0<br/>samples = 2<br/>value = [2, 0]<br/>class = disatisfied>, fillcolor="#e58139"] ;
27 -> 29 ;
30 [label=<gini = 0.0<br/>samples = 12<br/>value = [12, 0]<br/>class = disatisfied>, fillcolor="#e58139"] ;
26 -> 30 ;
31 [label=<gini = 0.0<br/>samples = 108<br/>value = [108, 0]<br/>class = disatisfied>, fillcolor="#e58139"] ;
25 -> 31 ;
32 [label=<Online boarding &le; 1.5<br/>gini = 0.044<br/>samples = 44<br/>value = [43, 1]<br/>class = disatisfied>, fillcolor="#e6843e"] ;
14 -> 32 ;
33 [label=<gini = 0.0<br/>samples = 42<br/>value = [42, 0]<br/>class = disatisfied>, fillcolor="#e58139"] ;
32 -> 33 ;
34 [label=<Ease of Online booking &le; 1.5<br/>gini = 0.5<br/>samples = 2<br/>value = [1, 1]<br/>class = disatisfied>, fillcolor="#ffffff"] ;
32 -> 34 ;
35 [label=<gini = 0.0<br/>samples = 1<br/>value = [0, 1]<br/>class = satisfied>, fillcolor="#399de5"] ;
34 -> 35 ;
36 [label=<gini = 0.0<br/>samples = 1<br/>value = [1, 0]<br/>class = disatisfied>, fillcolor="#e58139"] ;
34 -> 36 ;
37 [label=<Flight Distance &le; 3661.0<br/>gini = 0.085<br/>samples = 45<br/>value = [43, 2]<br/>class = disatisfied>, fillcolor="#e68742"] ;
13 -> 37 ;
38 [label=<Online boarding &le; 1.0<br/>gini = 0.444<br/>samples = 3<br/>value = [1, 2]<br/>class = satisfied>, fillcolor="#9ccef2"] ;
37 -> 38 ;
39 [label=<gini = 0.0<br/>samples = 1<br/>value = [1, 0]<br/>class = disatisfied>, fillcolor="#e58139"] ;
38 -> 39 ;
40 [label=<gini = 0.0<br/>samples = 2<br/>value = [0, 2]<br/>class = satisfied>, fillcolor="#399de5"] ;
38 -> 40 ;
41 [label=<gini = 0.0<br/>samples = 42<br/>value = [42, 0]<br/>class = disatisfied>, fillcolor="#e58139"] ;
37 -> 41 ;
42 [label=<Type of Travel &le; 0.5<br/>gini = 0.052<br/>samples = 783<br/>value = [762, 21]<br/>class = disatisfied>, fillcolor="#e6843e"] ;
12 -> 42 ;
43 [label=<gini = 0.0<br/>samples = 304<br/>value = [304, 0]<br/>class = disatisfied>, fillcolor="#e58139"] ;
42 -> 43 ;
44 [label=<Baggage handling &le; 1.5<br/>gini = 0.084<br/>samples = 479<br/>value = [458, 21]<br/>class = disatisfied>, fillcolor="#e68742"] ;
42 -> 44 ;
45 [label=<Customer Type &le; 0.5<br/>gini = 0.363<br/>samples = 21<br/>value = [16, 5]<br/>class = disatisfied>, fillcolor="#eda877"] ;
44 -> 45 ;
46 [label=<Ease of Online booking &le; 1.5<br/>gini = 0.408<br/>samples = 7<br/>value = [2, 5]<br/>class = satisfied>, fillcolor="#88c4ef"] ;
45 -> 46 ;
47 [label=<gini = 0.0<br/>samples = 2<br/>value = [2, 0]<br/>class = disatisfied>, fillcolor="#e58139"] ;
46 -> 47 ;
48 [label=<gini = 0.0<br/>samples = 5<br/>value = [0, 5]<br/>class = satisfied>, fillcolor="#399de5"] ;
46 -> 48 ;
49 [label=<gini = 0.0<br/>samples = 14<br/>value = [14, 0]<br/>class = disatisfied>, fillcolor="#e58139"] ;
45 -> 49 ;
50 [label=<Age &le; 40.5<br/>gini = 0.067<br/>samples = 458<br/>value = [442, 16]<br/>class = disatisfied>, fillcolor="#e68640"] ;
44 -> 50 ;
51 [label=<Customer Type &le; 0.5<br/>gini = 0.04<br/>samples = 342<br/>value = [335, 7]<br/>class = disatisfied>, fillcolor="#e6843d"] ;
50 -> 51 ;
52 [label=<Seat comfort &le; 1.5<br/>gini = 0.193<br/>samples = 37<br/>value = [33, 4]<br/>class = disatisfied>, fillcolor="#e89051"] ;
51 -> 52 ;
53 [label=<gini = 0.0<br/>samples = 3<br/>value = [0, 3]<br/>class = satisfied>, fillcolor="#399de5"] ;
52 -> 53 ;
54 [label=<Leg room service &le; 4.5<br/>gini = 0.057<br/>samples = 34<br/>value = [33, 1]<br/>class = disatisfied>, fillcolor="#e6853f"] ;
52 -> 54 ;
55 [label=<gini = 0.0<br/>samples = 27<br/>value = [27, 0]<br/>class = disatisfied>, fillcolor="#e58139"] ;
54 -> 55 ;
56 [label=<Online boarding &le; 2.5<br/>gini = 0.245<br/>samples = 7<br/>value = [6, 1]<br/>class = disatisfied>, fillcolor="#e9965a"] ;
54 -> 56 ;
57 [label=<gini = 0.0<br/>samples = 6<br/>value = [6, 0]<br/>class = disatisfied>, fillcolor="#e58139"] ;
56 -> 57 ;
58 [label=<gini = 0.0<br/>samples = 1<br/>value = [0, 1]<br/>class = satisfied>, fillcolor="#399de5"] ;
56 -> 58 ;
59 [label=<Age &le; 36.5<br/>gini = 0.019<br/>samples = 305<br/>value = [302.0, 3.0]<br/>class = disatisfied>, fillcolor="#e5823b"] ;
51 -> 59 ;
60 [label=<gini = 0.0<br/>samples = 230<br/>value = [230, 0]<br/>class = disatisfied>, fillcolor="#e58139"] ;
59 -> 60 ;
61 [label=<Arrival Delay in Minutes &le; 10.0<br/>gini = 0.077<br/>samples = 75<br/>value = [72, 3]<br/>class = disatisfied>, fillcolor="#e68641"] ;
59 -> 61 ;
62 [label=<Flight Distance &le; 297.0<br/>gini = 0.034<br/>samples = 57<br/>value = [56, 1]<br/>class = disatisfied>, fillcolor="#e5833d"] ;
61 -> 62 ;
63 [label=<Age &le; 38.5<br/>gini = 0.18<br/>samples = 10<br/>value = [9, 1]<br/>class = disatisfied>, fillcolor="#e88f4f"] ;
62 -> 63 ;
64 [label=<gini = 0.0<br/>samples = 1<br/>value = [0, 1]<br/>class = satisfied>, fillcolor="#399de5"] ;
63 -> 64 ;
65 [label=<gini = 0.0<br/>samples = 9<br/>value = [9, 0]<br/>class = disatisfied>, fillcolor="#e58139"] ;
63 -> 65 ;
66 [label=<gini = 0.0<br/>samples = 47<br/>value = [47, 0]<br/>class = disatisfied>, fillcolor="#e58139"] ;
62 -> 66 ;
67 [label=<Arrival Delay in Minutes &le; 12.5<br/>gini = 0.198<br/>samples = 18<br/>value = [16, 2]<br/>class = disatisfied>, fillcolor="#e89152"] ;
61 -> 67 ;
68 [label=<gini = 0.0<br/>samples = 2<br/>value = [0, 2]<br/>class = satisfied>, fillcolor="#399de5"] ;
67 -> 68 ;
69 [label=<gini = 0.0<br/>samples = 16<br/>value = [16, 0]<br/>class = disatisfied>, fillcolor="#e58139"] ;
67 -> 69 ;
70 [label=<Inflight service &le; 3.5<br/>gini = 0.143<br/>samples = 116<br/>value = [107, 9]<br/>class = disatisfied>, fillcolor="#e78c4a"] ;
50 -> 70 ;
71 [label=<gini = 0.0<br/>samples = 40<br/>value = [40, 0]<br/>class = disatisfied>, fillcolor="#e58139"] ;
70 -> 71 ;
72 [label=<Flight Distance &le; 166.5<br/>gini = 0.209<br/>samples = 76<br/>value = [67, 9]<br/>class = disatisfied>, fillcolor="#e89254"] ;
70 -> 72 ;
73 [label=<gini = 0.0<br/>samples = 1<br/>value = [0, 1]<br/>class = satisfied>, fillcolor="#399de5"] ;
72 -> 73 ;
74 [label=<Age &le; 43.5<br/>gini = 0.191<br/>samples = 75<br/>value = [67, 8]<br/>class = disatisfied>, fillcolor="#e89051"] ;
72 -> 74 ;
75 [label=<Arrival Delay in Minutes &le; 7.0<br/>gini = 0.397<br/>samples = 11<br/>value = [8, 3]<br/>class = disatisfied>, fillcolor="#efb083"] ;
74 -> 75 ;
76 [label=<On-board service &le; 3.5<br/>gini = 0.198<br/>samples = 9<br/>value = [8, 1]<br/>class = disatisfied>, fillcolor="#e89152"] ;
75 -> 76 ;
77 [label=<Inflight service &le; 4.5<br/>gini = 0.375<br/>samples = 4<br/>value = [3, 1]<br/>class = disatisfied>, fillcolor="#eeab7b"] ;
76 -> 77 ;
78 [label=<gini = 0.0<br/>samples = 1<br/>value = [0, 1]<br/>class = satisfied>, fillcolor="#399de5"] ;
77 -> 78 ;
79 [label=<gini = 0.0<br/>samples = 3<br/>value = [3, 0]<br/>class = disatisfied>, fillcolor="#e58139"] ;
77 -> 79 ;
80 [label=<gini = 0.0<br/>samples = 5<br/>value = [5, 0]<br/>class = disatisfied>, fillcolor="#e58139"] ;
76 -> 80 ;
81 [label=<gini = 0.0<br/>samples = 2<br/>value = [0, 2]<br/>class = satisfied>, fillcolor="#399de5"] ;
75 -> 81 ;
82 [label=<Seat comfort &le; 2.5<br/>gini = 0.144<br/>samples = 64<br/>value = [59, 5]<br/>class = disatisfied>, fillcolor="#e78c4a"] ;
74 -> 82 ;
83 [label=<Class &le; 0.5<br/>gini = 0.097<br/>samples = 59<br/>value = [56, 3]<br/>class = disatisfied>, fillcolor="#e68844"] ;
82 -> 83 ;
84 [label=<Baggage handling &le; 4.5<br/>gini = 0.408<br/>samples = 7<br/>value = [5, 2]<br/>class = disatisfied>, fillcolor="#efb388"] ;
83 -> 84 ;
85 [label=<gini = 0.0<br/>samples = 5<br/>value = [5, 0]<br/>class = disatisfied>, fillcolor="#e58139"] ;
84 -> 85 ;
86 [label=<gini = 0.0<br/>samples = 2<br/>value = [0, 2]<br/>class = satisfied>, fillcolor="#399de5"] ;
84 -> 86 ;
87 [label=<Flight Distance &le; 1194.0<br/>gini = 0.038<br/>samples = 52<br/>value = [51, 1]<br/>class = disatisfied>, fillcolor="#e6833d"] ;
83 -> 87 ;
88 [label=<gini = 0.0<br/>samples = 36<br/>value = [36, 0]<br/>class = disatisfied>, fillcolor="#e58139"] ;
87 -> 88 ;
89 [label=<Flight Distance &le; 1248.5<br/>gini = 0.117<br/>samples = 16<br/>value = [15, 1]<br/>class = disatisfied>, fillcolor="#e78946"] ;
87 -> 89 ;
90 [label=<gini = 0.0<br/>samples = 1<br/>value = [0, 1]<br/>class = satisfied>, fillcolor="#399de5"] ;
89 -> 90 ;
91 [label=<gini = 0.0<br/>samples = 15<br/>value = [15, 0]<br/>class = disatisfied>, fillcolor="#e58139"] ;
89 -> 91 ;
92 [label=<Flight Distance &le; 1032.5<br/>gini = 0.48<br/>samples = 5<br/>value = [3, 2]<br/>class = disatisfied>, fillcolor="#f6d5bd"] ;
82 -> 92 ;
93 [label=<Online boarding &le; 2.5<br/>gini = 0.444<br/>samples = 3<br/>value = [1, 2]<br/>class = satisfied>, fillcolor="#9ccef2"] ;
92 -> 93 ;
94 [label=<gini = 0.0<br/>samples = 1<br/>value = [0, 1]<br/>class = satisfied>, fillcolor="#399de5"] ;
93 -> 94 ;
95 [label=<Seat comfort &le; 4.0<br/>gini = 0.5<br/>samples = 2<br/>value = [1, 1]<br/>class = disatisfied>, fillcolor="#ffffff"] ;
93 -> 95 ;
96 [label=<gini = 0.0<br/>samples = 1<br/>value = [0, 1]<br/>class = satisfied>, fillcolor="#399de5"] ;
95 -> 96 ;
97 [label=<gini = 0.0<br/>samples = 1<br/>value = [1, 0]<br/>class = disatisfied>, fillcolor="#e58139"] ;
95 -> 97 ;
98 [label=<gini = 0.0<br/>samples = 2<br/>value = [2, 0]<br/>class = disatisfied>, fillcolor="#e58139"] ;
92 -> 98 ;
99 [label=<Inflight service &le; 4.5<br/>gini = 0.168<br/>samples = 54<br/>value = [49, 5]<br/>class = disatisfied>, fillcolor="#e88e4d"] ;
11 -> 99 ;
100 [label=<Leg room service &le; 1.5<br/>gini = 0.109<br/>samples = 52<br/>value = [49, 3]<br/>class = disatisfied>, fillcolor="#e78945"] ;
99 -> 100 ;
101 [label=<gini = 0.0<br/>samples = 1<br/>value = [0, 1]<br/>class = satisfied>, fillcolor="#399de5"] ;
100 -> 101 ;
102 [label=<Age &le; 64.0<br/>gini = 0.075<br/>samples = 51<br/>value = [49, 2]<br/>class = disatisfied>, fillcolor="#e68641"] ;
100 -> 102 ;
103 [label=<Flight Distance &le; 341.5<br/>gini = 0.04<br/>samples = 49<br/>value = [48.0, 1.0]<br/>class = disatisfied>, fillcolor="#e6843d"] ;
102 -> 103 ;
104 [label=<Flight Distance &le; 282.5<br/>gini = 0.32<br/>samples = 5<br/>value = [4, 1]<br/>class = disatisfied>, fillcolor="#eca06a"] ;
103 -> 104 ;
105 [label=<gini = 0.0<br/>samples = 4<br/>value = [4, 0]<br/>class = disatisfied>, fillcolor="#e58139"] ;
104 -> 105 ;
106 [label=<gini = 0.0<br/>samples = 1<br/>value = [0, 1]<br/>class = satisfied>, fillcolor="#399de5"] ;
104 -> 106 ;
107 [label=<gini = 0.0<br/>samples = 44<br/>value = [44, 0]<br/>class = disatisfied>, fillcolor="#e58139"] ;
103 -> 107 ;
108 [label=<Food and drink &le; 2.5<br/>gini = 0.5<br/>samples = 2<br/>value = [1, 1]<br/>class = disatisfied>, fillcolor="#ffffff"] ;
102 -> 108 ;
109 [label=<gini = 0.0<br/>samples = 1<br/>value = [1, 0]<br/>class = disatisfied>, fillcolor="#e58139"] ;
108 -> 109 ;
110 [label=<gini = 0.0<br/>samples = 1<br/>value = [0, 1]<br/>class = satisfied>, fillcolor="#399de5"] ;
108 -> 110 ;
111 [label=<gini = 0.0<br/>samples = 2<br/>value = [0, 2]<br/>class = satisfied>, fillcolor="#399de5"] ;
99 -> 111 ;
112 [label=<Flight Distance &le; 1399.5<br/>gini = 0.19<br/>samples = 5786<br/>value = [5172, 614]<br/>class = disatisfied>, fillcolor="#e89051"] ;
10 -> 112 ;
113 [label=<Type of Travel &le; 0.5<br/>gini = 0.12<br/>samples = 3392<br/>value = [3174.0, 218.0]<br/>class = disatisfied>, fillcolor="#e78a47"] ;
112 -> 113 ;
114 [label=<gini = 0.0<br/>samples = 806<br/>value = [806, 0]<br/>class = disatisfied>, fillcolor="#e58139"] ;
113 -> 114 ;
115 [label=<Customer Type &le; 0.5<br/>gini = 0.154<br/>samples = 2586<br/>value = [2368, 218]<br/>class = disatisfied>, fillcolor="#e78d4b"] ;
113 -> 115 ;
116 [label=<Checkin service &le; 4.5<br/>gini = 0.213<br/>samples = 1590<br/>value = [1397, 193]<br/>class = disatisfied>, fillcolor="#e99254"] ;
115 -> 116 ;
117 [label=<Inflight service &le; 4.5<br/>gini = 0.169<br/>samples = 1541<br/>value = [1397, 144]<br/>class = disatisfied>, fillcolor="#e88e4d"] ;
116 -> 117 ;
118 [label=<Baggage handling &le; 4.5<br/>gini = 0.141<br/>samples = 1512<br/>value = [1397, 115]<br/>class = disatisfied>, fillcolor="#e78b49"] ;
117 -> 118 ;
119 [label=<Seat comfort &le; 4.5<br/>gini = 0.121<br/>samples = 1493<br/>value = [1396, 97]<br/>class = disatisfied>, fillcolor="#e78a47"] ;
118 -> 119 ;
120 [label=<Inflight wifi service &le; 1.5<br/>gini = 0.104<br/>samples = 1476<br/>value = [1395, 81]<br/>class = disatisfied>, fillcolor="#e78844"] ;
119 -> 120 ;
121 [label=<Gate location &le; 1.5<br/>gini = 0.441<br/>samples = 73<br/>value = [49, 24]<br/>class = disatisfied>, fillcolor="#f2bf9a"] ;
120 -> 121 ;
122 [label=<Flight Distance &le; 291.5<br/>gini = 0.485<br/>samples = 41<br/>value = [17, 24]<br/>class = satisfied>, fillcolor="#c5e2f7"] ;
121 -> 122 ;
123 [label=<gini = 0.0<br/>samples = 11<br/>value = [11, 0]<br/>class = disatisfied>, fillcolor="#e58139"] ;
122 -> 123 ;
124 [label=<Class &le; 0.5<br/>gini = 0.32<br/>samples = 30<br/>value = [6, 24]<br/>class = satisfied>, fillcolor="#6ab6ec"] ;
122 -> 124 ;
125 [label=<gini = 0.0<br/>samples = 3<br/>value = [3, 0]<br/>class = disatisfied>, fillcolor="#e58139"] ;
124 -> 125 ;
126 [label=<Departure/Arrival time convenient &le; 0.5<br/>gini = 0.198<br/>samples = 27<br/>value = [3, 24]<br/>class = satisfied>, fillcolor="#52a9e8"] ;
124 -> 126 ;
127 [label=<gini = 0.0<br/>samples = 2<br/>value = [2, 0]<br/>class = disatisfied>, fillcolor="#e58139"] ;
126 -> 127 ;
128 [label=<Arrival Delay in Minutes &le; 98.5<br/>gini = 0.077<br/>samples = 25<br/>value = [1, 24]<br/>class = satisfied>, fillcolor="#41a1e6"] ;
126 -> 128 ;
129 [label=<gini = 0.0<br/>samples = 24<br/>value = [0, 24]<br/>class = satisfied>, fillcolor="#399de5"] ;
128 -> 129 ;
130 [label=<gini = 0.0<br/>samples = 1<br/>value = [1, 0]<br/>class = disatisfied>, fillcolor="#e58139"] ;
128 -> 130 ;
131 [label=<gini = 0.0<br/>samples = 32<br/>value = [32, 0]<br/>class = disatisfied>, fillcolor="#e58139"] ;
121 -> 131 ;
132 [label=<On-board service &le; 4.5<br/>gini = 0.078<br/>samples = 1403<br/>value = [1346, 57]<br/>class = disatisfied>, fillcolor="#e68641"] ;
120 -> 132 ;
133 [label=<Baggage handling &le; 1.5<br/>gini = 0.068<br/>samples = 1387<br/>value = [1338, 49]<br/>class = disatisfied>, fillcolor="#e68640"] ;
132 -> 133 ;
134 [label=<Inflight service &le; 2.5<br/>gini = 0.388<br/>samples = 19<br/>value = [14, 5]<br/>class = disatisfied>, fillcolor="#eeae80"] ;
133 -> 134 ;
135 [label=<Flight Distance &le; 955.5<br/>gini = 0.124<br/>samples = 15<br/>value = [14, 1]<br/>class = disatisfied>, fillcolor="#e78a47"] ;
134 -> 135 ;
136 [label=<gini = 0.0<br/>samples = 14<br/>value = [14, 0]<br/>class = disatisfied>, fillcolor="#e58139"] ;
135 -> 136 ;
137 [label=<gini = 0.0<br/>samples = 1<br/>value = [0, 1]<br/>class = satisfied>, fillcolor="#399de5"] ;
135 -> 137 ;
138 [label=<gini = 0.0<br/>samples = 4<br/>value = [0, 4]<br/>class = satisfied>, fillcolor="#399de5"] ;
134 -> 138 ;
139 [label=<Inflight service &le; 1.5<br/>gini = 0.062<br/>samples = 1368<br/>value = [1324, 44]<br/>class = disatisfied>, fillcolor="#e68540"] ;
133 -> 139 ;
140 [label=<Departure Delay in Minutes &le; 2.0<br/>gini = 0.469<br/>samples = 8<br/>value = [5, 3]<br/>class = disatisfied>, fillcolor="#f5cdb0"] ;
139 -> 140 ;
141 [label=<gini = 0.0<br/>samples = 3<br/>value = [0, 3]<br/>class = satisfied>, fillcolor="#399de5"] ;
140 -> 141 ;
142 [label=<gini = 0.0<br/>samples = 5<br/>value = [5, 0]<br/>class = disatisfied>, fillcolor="#e58139"] ;
140 -> 142 ;
143 [label=<Departure Delay in Minutes &le; 229.0<br/>gini = 0.058<br/>samples = 1360<br/>value = [1319, 41]<br/>class = disatisfied>, fillcolor="#e6853f"] ;
139 -> 143 ;
144 [label=<Online boarding &le; 1.5<br/>gini = 0.057<br/>samples = 1358<br/>value = [1318, 40]<br/>class = disatisfied>, fillcolor="#e6853f"] ;
143 -> 144 ;
145 [label=<Departure/Arrival time convenient &le; 4.5<br/>gini = 0.219<br/>samples = 40<br/>value = [35, 5]<br/>class = disatisfied>, fillcolor="#e99355"] ;
144 -> 145 ;
146 [label=<Departure Delay in Minutes &le; 87.0<br/>gini = 0.184<br/>samples = 39<br/>value = [35, 4]<br/>class = disatisfied>, fillcolor="#e88f50"] ;
145 -> 146 ;
147 [label=<Seat comfort &le; 2.5<br/>gini = 0.145<br/>samples = 38<br/>value = [35, 3]<br/>class = disatisfied>, fillcolor="#e78c4a"] ;
146 -> 147 ;
148 [label=<Food and drink &le; 4.5<br/>gini = 0.059<br/>samples = 33<br/>value = [32, 1]<br/>class = disatisfied>, fillcolor="#e6853f"] ;
147 -> 148 ;
149 [label=<gini = 0.0<br/>samples = 29<br/>value = [29, 0]<br/>class = disatisfied>, fillcolor="#e58139"] ;
148 -> 149 ;
150 [label=<Leg room service &le; 3.5<br/>gini = 0.375<br/>samples = 4<br/>value = [3, 1]<br/>class = disatisfied>, fillcolor="#eeab7b"] ;
148 -> 150 ;
151 [label=<gini = 0.0<br/>samples = 3<br/>value = [3, 0]<br/>class = disatisfied>, fillcolor="#e58139"] ;
150 -> 151 ;
152 [label=<gini = 0.0<br/>samples = 1<br/>value = [0, 1]<br/>class = satisfied>, fillcolor="#399de5"] ;
150 -> 152 ;
153 [label=<Food and drink &le; 1.5<br/>gini = 0.48<br/>samples = 5<br/>value = [3, 2]<br/>class = disatisfied>, fillcolor="#f6d5bd"] ;
147 -> 153 ;
154 [label=<gini = 0.0<br/>samples = 2<br/>value = [0, 2]<br/>class = satisfied>, fillcolor="#399de5"] ;
153 -> 154 ;
155 [label=<gini = 0.0<br/>samples = 3<br/>value = [3, 0]<br/>class = disatisfied>, fillcolor="#e58139"] ;
153 -> 155 ;
156 [label=<gini = 0.0<br/>samples = 1<br/>value = [0, 1]<br/>class = satisfied>, fillcolor="#399de5"] ;
146 -> 156 ;
157 [label=<gini = 0.0<br/>samples = 1<br/>value = [0, 1]<br/>class = satisfied>, fillcolor="#399de5"] ;
145 -> 157 ;
158 [label=<Inflight service &le; 2.5<br/>gini = 0.052<br/>samples = 1318<br/>value = [1283, 35]<br/>class = disatisfied>, fillcolor="#e6843e"] ;
144 -> 158 ;
159 [label=<Baggage handling &le; 3.5<br/>gini = 0.093<br/>samples = 329<br/>value = [313, 16]<br/>class = disatisfied>, fillcolor="#e68743"] ;
158 -> 159 ;
160 [label=<Age &le; 24.5<br/>gini = 0.071<br/>samples = 325<br/>value = [313.0, 12.0]<br/>class = disatisfied>, fillcolor="#e68641"] ;
159 -> 160 ;
161 [label=<Flight Distance &le; 995.5<br/>gini = 0.391<br/>samples = 15<br/>value = [11, 4]<br/>class = disatisfied>, fillcolor="#eeaf81"] ;
160 -> 161 ;
162 [label=<Ease of Online booking &le; 4.0<br/>gini = 0.337<br/>samples = 14<br/>value = [11, 3]<br/>class = disatisfied>, fillcolor="#eca36f"] ;
161 -> 162 ;
163 [label=<Departure Delay in Minutes &le; 0.5<br/>gini = 0.26<br/>samples = 13<br/>value = [11, 2]<br/>class = disatisfied>, fillcolor="#ea985d"] ;
162 -> 163 ;
164 [label=<Departure/Arrival time convenient &le; 2.5<br/>gini = 0.48<br/>samples = 5<br/>value = [3, 2]<br/>class = disatisfied>, fillcolor="#f6d5bd"] ;
163 -> 164 ;
165 [label=<gini = 0.0<br/>samples = 2<br/>value = [0, 2]<br/>class = satisfied>, fillcolor="#399de5"] ;
164 -> 165 ;
166 [label=<gini = 0.0<br/>samples = 3<br/>value = [3, 0]<br/>class = disatisfied>, fillcolor="#e58139"] ;
164 -> 166 ;
167 [label=<gini = 0.0<br/>samples = 8<br/>value = [8, 0]<br/>class = disatisfied>, fillcolor="#e58139"] ;
163 -> 167 ;
168 [label=<gini = 0.0<br/>samples = 1<br/>value = [0, 1]<br/>class = satisfied>, fillcolor="#399de5"] ;
162 -> 168 ;
169 [label=<gini = 0.0<br/>samples = 1<br/>value = [0, 1]<br/>class = satisfied>, fillcolor="#399de5"] ;
161 -> 169 ;
170 [label=<Seat comfort &le; 1.5<br/>gini = 0.05<br/>samples = 310<br/>value = [302, 8]<br/>class = disatisfied>, fillcolor="#e6843e"] ;
160 -> 170 ;
171 [label=<Flight Distance &le; 883.0<br/>gini = 0.32<br/>samples = 10<br/>value = [8, 2]<br/>class = disatisfied>, fillcolor="#eca06a"] ;
170 -> 171 ;
172 [label=<gini = 0.0<br/>samples = 7<br/>value = [7, 0]<br/>class = disatisfied>, fillcolor="#e58139"] ;
171 -> 172 ;
173 [label=<Flight Distance &le; 1129.5<br/>gini = 0.444<br/>samples = 3<br/>value = [1, 2]<br/>class = satisfied>, fillcolor="#9ccef2"] ;
171 -> 173 ;
174 [label=<gini = 0.0<br/>samples = 2<br/>value = [0, 2]<br/>class = satisfied>, fillcolor="#399de5"] ;
173 -> 174 ;
175 [label=<gini = 0.0<br/>samples = 1<br/>value = [1, 0]<br/>class = disatisfied>, fillcolor="#e58139"] ;
173 -> 175 ;
176 [label=<Online boarding &le; 2.5<br/>gini = 0.039<br/>samples = 300<br/>value = [294, 6]<br/>class = disatisfied>, fillcolor="#e6843d"] ;
170 -> 176 ;
177 [label=<Seat comfort &le; 3.5<br/>gini = 0.1<br/>samples = 76<br/>value = [72, 4]<br/>class = disatisfied>, fillcolor="#e68844"] ;
176 -> 177 ;
178 [label=<Departure Delay in Minutes &le; 88.5<br/>gini = 0.027<br/>samples = 73<br/>value = [72, 1]<br/>class = disatisfied>, fillcolor="#e5833c"] ;
177 -> 178 ;
179 [label=<gini = 0.0<br/>samples = 68<br/>value = [68, 0]<br/>class = disatisfied>, fillcolor="#e58139"] ;
178 -> 179 ;
180 [label=<Food and drink &le; 1.5<br/>gini = 0.32<br/>samples = 5<br/>value = [4, 1]<br/>class = disatisfied>, fillcolor="#eca06a"] ;
178 -> 180 ;
181 [label=<gini = 0.0<br/>samples = 1<br/>value = [0, 1]<br/>class = satisfied>, fillcolor="#399de5"] ;
180 -> 181 ;
182 [label=<gini = 0.0<br/>samples = 4<br/>value = [4, 0]<br/>class = disatisfied>, fillcolor="#e58139"] ;
180 -> 182 ;
183 [label=<gini = 0.0<br/>samples = 3<br/>value = [0, 3]<br/>class = satisfied>, fillcolor="#399de5"] ;
177 -> 183 ;
184 [label=<Flight Distance &le; 775.5<br/>gini = 0.018<br/>samples = 224<br/>value = [222, 2]<br/>class = disatisfied>, fillcolor="#e5823b"] ;
176 -> 184 ;
185 [label=<gini = 0.0<br/>samples = 170<br/>value = [170, 0]<br/>class = disatisfied>, fillcolor="#e58139"] ;
184 -> 185 ;
186 [label=<Flight Distance &le; 796.0<br/>gini = 0.071<br/>samples = 54<br/>value = [52, 2]<br/>class = disatisfied>, fillcolor="#e68641"] ;
184 -> 186 ;
187 [label=<gini = 0.0<br/>samples = 1<br/>value = [0, 1]<br/>class = satisfied>, fillcolor="#399de5"] ;
186 -> 187 ;
188 [label=<Seat comfort &le; 2.5<br/>gini = 0.037<br/>samples = 53<br/>value = [52, 1]<br/>class = disatisfied>, fillcolor="#e6833d"] ;
186 -> 188 ;
189 [label=<Age &le; 47.0<br/>gini = 0.278<br/>samples = 6<br/>value = [5, 1]<br/>class = disatisfied>, fillcolor="#ea9a61"] ;
188 -> 189 ;
190 [label=<gini = 0.0<br/>samples = 1<br/>value = [0, 1]<br/>class = satisfied>, fillcolor="#399de5"] ;
189 -> 190 ;
191 [label=<gini = 0.0<br/>samples = 5<br/>value = [5, 0]<br/>class = disatisfied>, fillcolor="#e58139"] ;
189 -> 191 ;
192 [label=<gini = 0.0<br/>samples = 47<br/>value = [47, 0]<br/>class = disatisfied>, fillcolor="#e58139"] ;
188 -> 192 ;
193 [label=<gini = 0.0<br/>samples = 4<br/>value = [0, 4]<br/>class = satisfied>, fillcolor="#399de5"] ;
159 -> 193 ;
194 [label=<Age &le; 71.5<br/>gini = 0.038<br/>samples = 989<br/>value = [970, 19]<br/>class = disatisfied>, fillcolor="#e6833d"] ;
158 -> 194 ;
195 [label=<Flight Distance &le; 191.5<br/>gini = 0.034<br/>samples = 972<br/>value = [955, 17]<br/>class = disatisfied>, fillcolor="#e5833d"] ;
194 -> 195 ;
196 [label=<Gate location &le; 2.5<br/>gini = 0.119<br/>samples = 63<br/>value = [59, 4]<br/>class = disatisfied>, fillcolor="#e78a46"] ;
195 -> 196 ;
197 [label=<gini = 0.0<br/>samples = 42<br/>value = [42, 0]<br/>class = disatisfied>, fillcolor="#e58139"] ;
196 -> 197 ;
198 [label=<Baggage handling &le; 3.5<br/>gini = 0.308<br/>samples = 21<br/>value = [17, 4]<br/>class = disatisfied>, fillcolor="#eb9f68"] ;
196 -> 198 ;
199 [label=<Online boarding &le; 2.5<br/>gini = 0.426<br/>samples = 13<br/>value = [9, 4]<br/>class = disatisfied>, fillcolor="#f1b991"] ;
198 -> 199 ;
200 [label=<gini = 0.0<br/>samples = 3<br/>value = [0, 3]<br/>class = satisfied>, fillcolor="#399de5"] ;
199 -> 200 ;
201 [label=<On-board service &le; 2.5<br/>gini = 0.18<br/>samples = 10<br/>value = [9, 1]<br/>class = disatisfied>, fillcolor="#e88f4f"] ;
199 -> 201 ;
202 [label=<gini = 0.0<br/>samples = 1<br/>value = [0, 1]<br/>class = satisfied>, fillcolor="#399de5"] ;
201 -> 202 ;
203 [label=<gini = 0.0<br/>samples = 9<br/>value = [9, 0]<br/>class = disatisfied>, fillcolor="#e58139"] ;
201 -> 203 ;
204 [label=<gini = 0.0<br/>samples = 8<br/>value = [8, 0]<br/>class = disatisfied>, fillcolor="#e58139"] ;
198 -> 204 ;
205 [label=<Inflight service &le; 3.5<br/>gini = 0.028<br/>samples = 909<br/>value = [896, 13]<br/>class = disatisfied>, fillcolor="#e5833c"] ;
195 -> 205 ;
206 [label=<Food and drink &le; 4.5<br/>gini = 0.013<br/>samples = 597<br/>value = [593, 4]<br/>class = disatisfied>, fillcolor="#e5823a"] ;
205 -> 206 ;
207 [label=<Age &le; 14.5<br/>gini = 0.007<br/>samples = 541<br/>value = [539, 2]<br/>class = disatisfied>, fillcolor="#e5813a"] ;
206 -> 207 ;
208 [label=<Age &le; 13.5<br/>gini = 0.069<br/>samples = 28<br/>value = [27, 1]<br/>class = disatisfied>, fillcolor="#e68640"] ;
207 -> 208 ;
209 [label=<gini = 0.0<br/>samples = 25<br/>value = [25, 0]<br/>class = disatisfied>, fillcolor="#e58139"] ;
208 -> 209 ;
210 [label=<Arrival Delay in Minutes &le; 26.0<br/>gini = 0.444<br/>samples = 3<br/>value = [2, 1]<br/>class = disatisfied>, fillcolor="#f2c09c"] ;
208 -> 210 ;
211 [label=<gini = 0.0<br/>samples = 1<br/>value = [0, 1]<br/>class = satisfied>, fillcolor="#399de5"] ;
210 -> 211 ;
212 [label=<gini = 0.0<br/>samples = 2<br/>value = [2, 0]<br/>class = disatisfied>, fillcolor="#e58139"] ;
210 -> 212 ;
213 [label=<Cleanliness &le; 1.5<br/>gini = 0.004<br/>samples = 513<br/>value = [512, 1]<br/>class = disatisfied>, fillcolor="#e58139"] ;
207 -> 213 ;
214 [label=<Inflight wifi service &le; 2.5<br/>gini = 0.037<br/>samples = 53<br/>value = [52, 1]<br/>class = disatisfied>, fillcolor="#e6833d"] ;
213 -> 214 ;
215 [label=<Class &le; 0.5<br/>gini = 0.444<br/>samples = 3<br/>value = [2, 1]<br/>class = disatisfied>, fillcolor="#f2c09c"] ;
214 -> 215 ;
216 [label=<gini = 0.0<br/>samples = 1<br/>value = [0, 1]<br/>class = satisfied>, fillcolor="#399de5"] ;
215 -> 216 ;
217 [label=<gini = 0.0<br/>samples = 2<br/>value = [2, 0]<br/>class = disatisfied>, fillcolor="#e58139"] ;
215 -> 217 ;
218 [label=<gini = 0.0<br/>samples = 50<br/>value = [50, 0]<br/>class = disatisfied>, fillcolor="#e58139"] ;
214 -> 218 ;
219 [label=<gini = 0.0<br/>samples = 460<br/>value = [460, 0]<br/>class = disatisfied>, fillcolor="#e58139"] ;
213 -> 219 ;
220 [label=<Seat comfort &le; 2.5<br/>gini = 0.069<br/>samples = 56<br/>value = [54, 2]<br/>class = disatisfied>, fillcolor="#e68640"] ;
206 -> 220 ;
221 [label=<Age &le; 36.5<br/>gini = 0.278<br/>samples = 12<br/>value = [10, 2]<br/>class = disatisfied>, fillcolor="#ea9a61"] ;
220 -> 221 ;
222 [label=<gini = 0.0<br/>samples = 1<br/>value = [0, 1]<br/>class = satisfied>, fillcolor="#399de5"] ;
221 -> 222 ;
223 [label=<Arrival Delay in Minutes &le; 3.5<br/>gini = 0.165<br/>samples = 11<br/>value = [10, 1]<br/>class = disatisfied>, fillcolor="#e88e4d"] ;
221 -> 223 ;
224 [label=<Flight Distance &le; 474.5<br/>gini = 0.444<br/>samples = 3<br/>value = [2, 1]<br/>class = disatisfied>, fillcolor="#f2c09c"] ;
223 -> 224 ;
225 [label=<gini = 0.0<br/>samples = 1<br/>value = [0, 1]<br/>class = satisfied>, fillcolor="#399de5"] ;
224 -> 225 ;
226 [label=<gini = 0.0<br/>samples = 2<br/>value = [2, 0]<br/>class = disatisfied>, fillcolor="#e58139"] ;
224 -> 226 ;
227 [label=<gini = 0.0<br/>samples = 8<br/>value = [8, 0]<br/>class = disatisfied>, fillcolor="#e58139"] ;
223 -> 227 ;
228 [label=<gini = 0.0<br/>samples = 44<br/>value = [44, 0]<br/>class = disatisfied>, fillcolor="#e58139"] ;
220 -> 228 ;
229 [label=<Baggage handling &le; 2.5<br/>gini = 0.056<br/>samples = 312<br/>value = [303, 9]<br/>class = disatisfied>, fillcolor="#e6853f"] ;
205 -> 229 ;
230 [label=<Ease of Online booking &le; 3.5<br/>gini = 0.5<br/>samples = 2<br/>value = [1, 1]<br/>class = disatisfied>, fillcolor="#ffffff"] ;
229 -> 230 ;
231 [label=<gini = 0.0<br/>samples = 1<br/>value = [1, 0]<br/>class = disatisfied>, fillcolor="#e58139"] ;
230 -> 231 ;
232 [label=<gini = 0.0<br/>samples = 1<br/>value = [0, 1]<br/>class = satisfied>, fillcolor="#399de5"] ;
230 -> 232 ;
233 [label=<Flight Distance &le; 1204.5<br/>gini = 0.05<br/>samples = 310<br/>value = [302, 8]<br/>class = disatisfied>, fillcolor="#e6843e"] ;
229 -> 233 ;
234 [label=<Class &le; 0.5<br/>gini = 0.034<br/>samples = 287<br/>value = [282, 5]<br/>class = disatisfied>, fillcolor="#e5833d"] ;
233 -> 234 ;
235 [label=<gini = 0.0<br/>samples = 149<br/>value = [149, 0]<br/>class = disatisfied>, fillcolor="#e58139"] ;
234 -> 235 ;
236 [label=<Baggage handling &le; 3.5<br/>gini = 0.07<br/>samples = 138<br/>value = [133, 5]<br/>class = disatisfied>, fillcolor="#e68640"] ;
234 -> 236 ;
237 [label=<gini = 0.0<br/>samples = 81<br/>value = [81, 0]<br/>class = disatisfied>, fillcolor="#e58139"] ;
236 -> 237 ;
238 [label=<On-board service &le; 2.5<br/>gini = 0.16<br/>samples = 57<br/>value = [52, 5]<br/>class = disatisfied>, fillcolor="#e88d4c"] ;
236 -> 238 ;
239 [label=<gini = 0.0<br/>samples = 27<br/>value = [27, 0]<br/>class = disatisfied>, fillcolor="#e58139"] ;
238 -> 239 ;
240 [label=<Age &le; 24.5<br/>gini = 0.278<br/>samples = 30<br/>value = [25, 5]<br/>class = disatisfied>, fillcolor="#ea9a61"] ;
238 -> 240 ;
241 [label=<gini = 0.0<br/>samples = 10<br/>value = [10, 0]<br/>class = disatisfied>, fillcolor="#e58139"] ;
240 -> 241 ;
242 [label=<Age &le; 25.5<br/>gini = 0.375<br/>samples = 20<br/>value = [15, 5]<br/>class = disatisfied>, fillcolor="#eeab7b"] ;
240 -> 242 ;
243 [label=<gini = 0.0<br/>samples = 3<br/>value = [0, 3]<br/>class = satisfied>, fillcolor="#399de5"] ;
242 -> 243 ;
244 [label=<Ease of Online booking &le; 3.5<br/>gini = 0.208<br/>samples = 17<br/>value = [15, 2]<br/>class = disatisfied>, fillcolor="#e89253"] ;
242 -> 244 ;
245 [label=<Flight Distance &le; 524.0<br/>gini = 0.124<br/>samples = 15<br/>value = [14, 1]<br/>class = disatisfied>, fillcolor="#e78a47"] ;
244 -> 245 ;
246 [label=<Flight Distance &le; 474.0<br/>gini = 0.32<br/>samples = 5<br/>value = [4, 1]<br/>class = disatisfied>, fillcolor="#eca06a"] ;
245 -> 246 ;
247 [label=<gini = 0.0<br/>samples = 4<br/>value = [4, 0]<br/>class = disatisfied>, fillcolor="#e58139"] ;
246 -> 247 ;
248 [label=<gini = 0.0<br/>samples = 1<br/>value = [0, 1]<br/>class = satisfied>, fillcolor="#399de5"] ;
246 -> 248 ;
249 [label=<gini = 0.0<br/>samples = 10<br/>value = [10, 0]<br/>class = disatisfied>, fillcolor="#e58139"] ;
245 -> 249 ;
250 [label=<Gender &le; 0.5<br/>gini = 0.5<br/>samples = 2<br/>value = [1, 1]<br/>class = disatisfied>, fillcolor="#ffffff"] ;
244 -> 250 ;
251 [label=<gini = 0.0<br/>samples = 1<br/>value = [1, 0]<br/>class = disatisfied>, fillcolor="#e58139"] ;
250 -> 251 ;
252 [label=<gini = 0.0<br/>samples = 1<br/>value = [0, 1]<br/>class = satisfied>, fillcolor="#399de5"] ;
250 -> 252 ;
253 [label=<Leg room service &le; 4.5<br/>gini = 0.227<br/>samples = 23<br/>value = [20, 3]<br/>class = disatisfied>, fillcolor="#e99457"] ;
233 -> 253 ;
254 [label=<Flight Distance &le; 1208.0<br/>gini = 0.105<br/>samples = 18<br/>value = [17, 1]<br/>class = disatisfied>, fillcolor="#e78845"] ;
253 -> 254 ;
255 [label=<Food and drink &le; 2.5<br/>gini = 0.5<br/>samples = 2<br/>value = [1, 1]<br/>class = disatisfied>, fillcolor="#ffffff"] ;
254 -> 255 ;
256 [label=<gini = 0.0<br/>samples = 1<br/>value = [1, 0]<br/>class = disatisfied>, fillcolor="#e58139"] ;
255 -> 256 ;
257 [label=<gini = 0.0<br/>samples = 1<br/>value = [0, 1]<br/>class = satisfied>, fillcolor="#399de5"] ;
255 -> 257 ;
258 [label=<gini = 0.0<br/>samples = 16<br/>value = [16, 0]<br/>class = disatisfied>, fillcolor="#e58139"] ;
254 -> 258 ;
259 [label=<Arrival Delay in Minutes &le; 7.0<br/>gini = 0.48<br/>samples = 5<br/>value = [3, 2]<br/>class = disatisfied>, fillcolor="#f6d5bd"] ;
253 -> 259 ;
260 [label=<Inflight wifi service &le; 2.5<br/>gini = 0.444<br/>samples = 3<br/>value = [1, 2]<br/>class = satisfied>, fillcolor="#9ccef2"] ;
259 -> 260 ;
261 [label=<gini = 0.0<br/>samples = 2<br/>value = [0, 2]<br/>class = satisfied>, fillcolor="#399de5"] ;
260 -> 261 ;
262 [label=<gini = 0.0<br/>samples = 1<br/>value = [1, 0]<br/>class = disatisfied>, fillcolor="#e58139"] ;
260 -> 262 ;
263 [label=<gini = 0.0<br/>samples = 2<br/>value = [2, 0]<br/>class = disatisfied>, fillcolor="#e58139"] ;
259 -> 263 ;
264 [label=<Departure Delay in Minutes &le; 1.5<br/>gini = 0.208<br/>samples = 17<br/>value = [15, 2]<br/>class = disatisfied>, fillcolor="#e89253"] ;
194 -> 264 ;
265 [label=<Online boarding &le; 2.5<br/>gini = 0.408<br/>samples = 7<br/>value = [5, 2]<br/>class = disatisfied>, fillcolor="#efb388"] ;
264 -> 265 ;
266 [label=<gini = 0.0<br/>samples = 2<br/>value = [0, 2]<br/>class = satisfied>, fillcolor="#399de5"] ;
265 -> 266 ;
267 [label=<gini = 0.0<br/>samples = 5<br/>value = [5, 0]<br/>class = disatisfied>, fillcolor="#e58139"] ;
265 -> 267 ;
268 [label=<gini = 0.0<br/>samples = 10<br/>value = [10, 0]<br/>class = disatisfied>, fillcolor="#e58139"] ;
264 -> 268 ;
269 [label=<Inflight service &le; 3.0<br/>gini = 0.5<br/>samples = 2<br/>value = [1, 1]<br/>class = disatisfied>, fillcolor="#ffffff"] ;
143 -> 269 ;
270 [label=<gini = 0.0<br/>samples = 1<br/>value = [0, 1]<br/>class = satisfied>, fillcolor="#399de5"] ;
269 -> 270 ;
271 [label=<gini = 0.0<br/>samples = 1<br/>value = [1, 0]<br/>class = disatisfied>, fillcolor="#e58139"] ;
269 -> 271 ;
272 [label=<Departure Delay in Minutes &le; 95.5<br/>gini = 0.5<br/>samples = 16<br/>value = [8, 8]<br/>class = disatisfied>, fillcolor="#ffffff"] ;
132 -> 272 ;
273 [label=<Age &le; 55.5<br/>gini = 0.32<br/>samples = 10<br/>value = [2, 8]<br/>class = satisfied>, fillcolor="#6ab6ec"] ;
272 -> 273 ;
274 [label=<gini = 0.0<br/>samples = 8<br/>value = [0, 8]<br/>class = satisfied>, fillcolor="#399de5"] ;
273 -> 274 ;
275 [label=<gini = 0.0<br/>samples = 2<br/>value = [2, 0]<br/>class = disatisfied>, fillcolor="#e58139"] ;
273 -> 275 ;
276 [label=<gini = 0.0<br/>samples = 6<br/>value = [6, 0]<br/>class = disatisfied>, fillcolor="#e58139"] ;
272 -> 276 ;
277 [label=<Online boarding &le; 0.5<br/>gini = 0.111<br/>samples = 17<br/>value = [1, 16]<br/>class = satisfied>, fillcolor="#45a3e7"] ;
119 -> 277 ;
278 [label=<gini = 0.0<br/>samples = 1<br/>value = [1, 0]<br/>class = disatisfied>, fillcolor="#e58139"] ;
277 -> 278 ;
279 [label=<gini = 0.0<br/>samples = 16<br/>value = [0, 16]<br/>class = satisfied>, fillcolor="#399de5"] ;
277 -> 279 ;
280 [label=<Inflight service &le; 2.5<br/>gini = 0.1<br/>samples = 19<br/>value = [1, 18]<br/>class = satisfied>, fillcolor="#44a2e6"] ;
118 -> 280 ;
281 [label=<Ease of Online booking &le; 1.5<br/>gini = 0.5<br/>samples = 2<br/>value = [1, 1]<br/>class = disatisfied>, fillcolor="#ffffff"] ;
280 -> 281 ;
282 [label=<gini = 0.0<br/>samples = 1<br/>value = [1, 0]<br/>class = disatisfied>, fillcolor="#e58139"] ;
281 -> 282 ;
283 [label=<gini = 0.0<br/>samples = 1<br/>value = [0, 1]<br/>class = satisfied>, fillcolor="#399de5"] ;
281 -> 283 ;
284 [label=<gini = 0.0<br/>samples = 17<br/>value = [0, 17]<br/>class = satisfied>, fillcolor="#399de5"] ;
280 -> 284 ;
285 [label=<gini = 0.0<br/>samples = 29<br/>value = [0, 29]<br/>class = satisfied>, fillcolor="#399de5"] ;
117 -> 285 ;
286 [label=<gini = 0.0<br/>samples = 49<br/>value = [0, 49]<br/>class = satisfied>, fillcolor="#399de5"] ;
116 -> 286 ;
287 [label=<Age &le; 37.5<br/>gini = 0.049<br/>samples = 996<br/>value = [971, 25]<br/>class = disatisfied>, fillcolor="#e6843e"] ;
115 -> 287 ;
288 [label=<gini = 0.0<br/>samples = 615<br/>value = [615, 0]<br/>class = disatisfied>, fillcolor="#e58139"] ;
287 -> 288 ;
289 [label=<Flight Distance &le; 1250.5<br/>gini = 0.123<br/>samples = 381<br/>value = [356, 25]<br/>class = disatisfied>, fillcolor="#e78a47"] ;
287 -> 289 ;
290 [label=<Ease of Online booking &le; 2.5<br/>gini = 0.111<br/>samples = 373<br/>value = [351, 22]<br/>class = disatisfied>, fillcolor="#e78945"] ;
289 -> 290 ;
291 [label=<Seat comfort &le; 4.5<br/>gini = 0.058<br/>samples = 234<br/>value = [227, 7]<br/>class = disatisfied>, fillcolor="#e6853f"] ;
290 -> 291 ;
292 [label=<Flight Distance &le; 801.5<br/>gini = 0.036<br/>samples = 216<br/>value = [212, 4]<br/>class = disatisfied>, fillcolor="#e5833d"] ;
291 -> 292 ;
293 [label=<Gate location &le; 1.5<br/>gini = 0.012<br/>samples = 159<br/>value = [158, 1]<br/>class = disatisfied>, fillcolor="#e5823a"] ;
292 -> 293 ;
294 [label=<On-board service &le; 4.5<br/>gini = 0.051<br/>samples = 38<br/>value = [37, 1]<br/>class = disatisfied>, fillcolor="#e6843e"] ;
293 -> 294 ;
295 [label=<gini = 0.0<br/>samples = 29<br/>value = [29, 0]<br/>class = disatisfied>, fillcolor="#e58139"] ;
294 -> 295 ;
296 [label=<Age &le; 43.0<br/>gini = 0.198<br/>samples = 9<br/>value = [8, 1]<br/>class = disatisfied>, fillcolor="#e89152"] ;
294 -> 296 ;
297 [label=<Leg room service &le; 3.5<br/>gini = 0.375<br/>samples = 4<br/>value = [3, 1]<br/>class = disatisfied>, fillcolor="#eeab7b"] ;
296 -> 297 ;
298 [label=<gini = 0.0<br/>samples = 2<br/>value = [2, 0]<br/>class = disatisfied>, fillcolor="#e58139"] ;
297 -> 298 ;
299 [label=<Flight Distance &le; 413.5<br/>gini = 0.5<br/>samples = 2<br/>value = [1, 1]<br/>class = disatisfied>, fillcolor="#ffffff"] ;
297 -> 299 ;
300 [label=<gini = 0.0<br/>samples = 1<br/>value = [1, 0]<br/>class = disatisfied>, fillcolor="#e58139"] ;
299 -> 300 ;
301 [label=<gini = 0.0<br/>samples = 1<br/>value = [0, 1]<br/>class = satisfied>, fillcolor="#399de5"] ;
299 -> 301 ;
302 [label=<gini = 0.0<br/>samples = 5<br/>value = [5, 0]<br/>class = disatisfied>, fillcolor="#e58139"] ;
296 -> 302 ;
303 [label=<gini = 0.0<br/>samples = 121<br/>value = [121, 0]<br/>class = disatisfied>, fillcolor="#e58139"] ;
293 -> 303 ;
304 [label=<Flight Distance &le; 825.5<br/>gini = 0.1<br/>samples = 57<br/>value = [54, 3]<br/>class = disatisfied>, fillcolor="#e68844"] ;
292 -> 304 ;
305 [label=<gini = 0.0<br/>samples = 1<br/>value = [0, 1]<br/>class = satisfied>, fillcolor="#399de5"] ;
304 -> 305 ;
306 [label=<Departure Delay in Minutes &le; 16.5<br/>gini = 0.069<br/>samples = 56<br/>value = [54, 2]<br/>class = disatisfied>, fillcolor="#e68640"] ;
304 -> 306 ;
307 [label=<gini = 0.0<br/>samples = 42<br/>value = [42, 0]<br/>class = disatisfied>, fillcolor="#e58139"] ;
306 -> 307 ;
308 [label=<Arrival Delay in Minutes &le; 10.0<br/>gini = 0.245<br/>samples = 14<br/>value = [12, 2]<br/>class = disatisfied>, fillcolor="#e9965a"] ;
306 -> 308 ;
309 [label=<Inflight service &le; 4.5<br/>gini = 0.444<br/>samples = 3<br/>value = [1, 2]<br/>class = satisfied>, fillcolor="#9ccef2"] ;
308 -> 309 ;
310 [label=<gini = 0.0<br/>samples = 2<br/>value = [0, 2]<br/>class = satisfied>, fillcolor="#399de5"] ;
309 -> 310 ;
311 [label=<gini = 0.0<br/>samples = 1<br/>value = [1, 0]<br/>class = disatisfied>, fillcolor="#e58139"] ;
309 -> 311 ;
312 [label=<gini = 0.0<br/>samples = 11<br/>value = [11, 0]<br/>class = disatisfied>, fillcolor="#e58139"] ;
308 -> 312 ;
313 [label=<Flight Distance &le; 412.0<br/>gini = 0.278<br/>samples = 18<br/>value = [15, 3]<br/>class = disatisfied>, fillcolor="#ea9a61"] ;
291 -> 313 ;
314 [label=<gini = 0.0<br/>samples = 9<br/>value = [9, 0]<br/>class = disatisfied>, fillcolor="#e58139"] ;
313 -> 314 ;
315 [label=<Flight Distance &le; 498.5<br/>gini = 0.444<br/>samples = 9<br/>value = [6, 3]<br/>class = disatisfied>, fillcolor="#f2c09c"] ;
313 -> 315 ;
316 [label=<gini = 0.0<br/>samples = 2<br/>value = [0, 2]<br/>class = satisfied>, fillcolor="#399de5"] ;
315 -> 316 ;
317 [label=<Leg room service &le; 3.0<br/>gini = 0.245<br/>samples = 7<br/>value = [6, 1]<br/>class = disatisfied>, fillcolor="#e9965a"] ;
315 -> 317 ;
318 [label=<gini = 0.0<br/>samples = 4<br/>value = [4, 0]<br/>class = disatisfied>, fillcolor="#e58139"] ;
317 -> 318 ;
319 [label=<On-board service &le; 4.5<br/>gini = 0.444<br/>samples = 3<br/>value = [2, 1]<br/>class = disatisfied>, fillcolor="#f2c09c"] ;
317 -> 319 ;
320 [label=<gini = 0.0<br/>samples = 2<br/>value = [2, 0]<br/>class = disatisfied>, fillcolor="#e58139"] ;
319 -> 320 ;
321 [label=<gini = 0.0<br/>samples = 1<br/>value = [0, 1]<br/>class = satisfied>, fillcolor="#399de5"] ;
319 -> 321 ;
322 [label=<Flight Distance &le; 677.0<br/>gini = 0.193<br/>samples = 139<br/>value = [124, 15]<br/>class = disatisfied>, fillcolor="#e89051"] ;
290 -> 322 ;
323 [label=<Seat comfort &le; 3.5<br/>gini = 0.116<br/>samples = 97<br/>value = [91, 6]<br/>class = disatisfied>, fillcolor="#e78946"] ;
322 -> 323 ;
324 [label=<Arrival Delay in Minutes &le; 20.5<br/>gini = 0.068<br/>samples = 85<br/>value = [82, 3]<br/>class = disatisfied>, fillcolor="#e68640"] ;
323 -> 324 ;
325 [label=<On-board service &le; 4.5<br/>gini = 0.028<br/>samples = 71<br/>value = [70, 1]<br/>class = disatisfied>, fillcolor="#e5833c"] ;
324 -> 325 ;
326 [label=<gini = 0.0<br/>samples = 57<br/>value = [57, 0]<br/>class = disatisfied>, fillcolor="#e58139"] ;
325 -> 326 ;
327 [label=<Leg room service &le; 2.5<br/>gini = 0.133<br/>samples = 14<br/>value = [13, 1]<br/>class = disatisfied>, fillcolor="#e78b48"] ;
325 -> 327 ;
328 [label=<Checkin service &le; 4.5<br/>gini = 0.375<br/>samples = 4<br/>value = [3, 1]<br/>class = disatisfied>, fillcolor="#eeab7b"] ;
327 -> 328 ;
329 [label=<Food and drink &le; 2.5<br/>gini = 0.5<br/>samples = 2<br/>value = [1, 1]<br/>class = disatisfied>, fillcolor="#ffffff"] ;
328 -> 329 ;
330 [label=<gini = 0.0<br/>samples = 1<br/>value = [1, 0]<br/>class = disatisfied>, fillcolor="#e58139"] ;
329 -> 330 ;
331 [label=<gini = 0.0<br/>samples = 1<br/>value = [0, 1]<br/>class = satisfied>, fillcolor="#399de5"] ;
329 -> 331 ;
332 [label=<gini = 0.0<br/>samples = 2<br/>value = [2, 0]<br/>class = disatisfied>, fillcolor="#e58139"] ;
328 -> 332 ;
333 [label=<gini = 0.0<br/>samples = 10<br/>value = [10, 0]<br/>class = disatisfied>, fillcolor="#e58139"] ;
327 -> 333 ;
334 [label=<Arrival Delay in Minutes &le; 22.0<br/>gini = 0.245<br/>samples = 14<br/>value = [12, 2]<br/>class = disatisfied>, fillcolor="#e9965a"] ;
324 -> 334 ;
335 [label=<gini = 0.0<br/>samples = 1<br/>value = [0, 1]<br/>class = satisfied>, fillcolor="#399de5"] ;
334 -> 335 ;
336 [label=<Inflight wifi service &le; 2.5<br/>gini = 0.142<br/>samples = 13<br/>value = [12, 1]<br/>class = disatisfied>, fillcolor="#e78c49"] ;
334 -> 336 ;
337 [label=<Leg room service &le; 2.5<br/>gini = 0.5<br/>samples = 2<br/>value = [1, 1]<br/>class = disatisfied>, fillcolor="#ffffff"] ;
336 -> 337 ;
338 [label=<gini = 0.0<br/>samples = 1<br/>value = [0, 1]<br/>class = satisfied>, fillcolor="#399de5"] ;
337 -> 338 ;
339 [label=<gini = 0.0<br/>samples = 1<br/>value = [1, 0]<br/>class = disatisfied>, fillcolor="#e58139"] ;
337 -> 339 ;
340 [label=<gini = 0.0<br/>samples = 11<br/>value = [11, 0]<br/>class = disatisfied>, fillcolor="#e58139"] ;
336 -> 340 ;
341 [label=<Inflight service &le; 4.5<br/>gini = 0.375<br/>samples = 12<br/>value = [9, 3]<br/>class = disatisfied>, fillcolor="#eeab7b"] ;
323 -> 341 ;
342 [label=<On-board service &le; 2.5<br/>gini = 0.18<br/>samples = 10<br/>value = [9, 1]<br/>class = disatisfied>, fillcolor="#e88f4f"] ;
341 -> 342 ;
343 [label=<Cleanliness &le; 2.5<br/>gini = 0.5<br/>samples = 2<br/>value = [1, 1]<br/>class = disatisfied>, fillcolor="#ffffff"] ;
342 -> 343 ;
344 [label=<gini = 0.0<br/>samples = 1<br/>value = [1, 0]<br/>class = disatisfied>, fillcolor="#e58139"] ;
343 -> 344 ;
345 [label=<gini = 0.0<br/>samples = 1<br/>value = [0, 1]<br/>class = satisfied>, fillcolor="#399de5"] ;
343 -> 345 ;
346 [label=<gini = 0.0<br/>samples = 8<br/>value = [8, 0]<br/>class = disatisfied>, fillcolor="#e58139"] ;
342 -> 346 ;
347 [label=<gini = 0.0<br/>samples = 2<br/>value = [0, 2]<br/>class = satisfied>, fillcolor="#399de5"] ;
341 -> 347 ;
348 [label=<Flight Distance &le; 805.5<br/>gini = 0.337<br/>samples = 42<br/>value = [33, 9]<br/>class = disatisfied>, fillcolor="#eca36f"] ;
322 -> 348 ;
349 [label=<On-board service &le; 4.5<br/>gini = 0.444<br/>samples = 6<br/>value = [2, 4]<br/>class = satisfied>, fillcolor="#9ccef2"] ;
348 -> 349 ;
350 [label=<gini = 0.0<br/>samples = 4<br/>value = [0, 4]<br/>class = satisfied>, fillcolor="#399de5"] ;
349 -> 350 ;
351 [label=<gini = 0.0<br/>samples = 2<br/>value = [2, 0]<br/>class = disatisfied>, fillcolor="#e58139"] ;
349 -> 351 ;
352 [label=<Seat comfort &le; 1.5<br/>gini = 0.239<br/>samples = 36<br/>value = [31, 5]<br/>class = disatisfied>, fillcolor="#e99559"] ;
348 -> 352 ;
353 [label=<gini = 0.0<br/>samples = 2<br/>value = [0, 2]<br/>class = satisfied>, fillcolor="#399de5"] ;
352 -> 353 ;
354 [label=<Food and drink &le; 2.5<br/>gini = 0.161<br/>samples = 34<br/>value = [31, 3]<br/>class = disatisfied>, fillcolor="#e88d4c"] ;
352 -> 354 ;
355 [label=<gini = 0.0<br/>samples = 18<br/>value = [18, 0]<br/>class = disatisfied>, fillcolor="#e58139"] ;
354 -> 355 ;
356 [label=<Leg room service &le; 2.5<br/>gini = 0.305<br/>samples = 16<br/>value = [13, 3]<br/>class = disatisfied>, fillcolor="#eb9e67"] ;
354 -> 356 ;
357 [label=<gini = 0.0<br/>samples = 1<br/>value = [0, 1]<br/>class = satisfied>, fillcolor="#399de5"] ;
356 -> 357 ;
358 [label=<Flight Distance &le; 846.0<br/>gini = 0.231<br/>samples = 15<br/>value = [13, 2]<br/>class = disatisfied>, fillcolor="#e99457"] ;
356 -> 358 ;
359 [label=<gini = 0.0<br/>samples = 1<br/>value = [0, 1]<br/>class = satisfied>, fillcolor="#399de5"] ;
358 -> 359 ;
360 [label=<Checkin service &le; 4.5<br/>gini = 0.133<br/>samples = 14<br/>value = [13, 1]<br/>class = disatisfied>, fillcolor="#e78b48"] ;
358 -> 360 ;
361 [label=<gini = 0.0<br/>samples = 10<br/>value = [10, 0]<br/>class = disatisfied>, fillcolor="#e58139"] ;
360 -> 361 ;
362 [label=<Flight Distance &le; 972.5<br/>gini = 0.375<br/>samples = 4<br/>value = [3, 1]<br/>class = disatisfied>, fillcolor="#eeab7b"] ;
360 -> 362 ;
363 [label=<gini = 0.0<br/>samples = 3<br/>value = [3, 0]<br/>class = disatisfied>, fillcolor="#e58139"] ;
362 -> 363 ;
364 [label=<gini = 0.0<br/>samples = 1<br/>value = [0, 1]<br/>class = satisfied>, fillcolor="#399de5"] ;
362 -> 364 ;
365 [label=<Gate location &le; 1.5<br/>gini = 0.469<br/>samples = 8<br/>value = [5, 3]<br/>class = disatisfied>, fillcolor="#f5cdb0"] ;
289 -> 365 ;
366 [label=<gini = 0.0<br/>samples = 4<br/>value = [4, 0]<br/>class = disatisfied>, fillcolor="#e58139"] ;
365 -> 366 ;
367 [label=<Departure/Arrival time convenient &le; 1.5<br/>gini = 0.375<br/>samples = 4<br/>value = [1, 3]<br/>class = satisfied>, fillcolor="#7bbeee"] ;
365 -> 367 ;
368 [label=<gini = 0.0<br/>samples = 1<br/>value = [1, 0]<br/>class = disatisfied>, fillcolor="#e58139"] ;
367 -> 368 ;
369 [label=<gini = 0.0<br/>samples = 3<br/>value = [0, 3]<br/>class = satisfied>, fillcolor="#399de5"] ;
367 -> 369 ;
370 [label=<Baggage handling &le; 4.5<br/>gini = 0.276<br/>samples = 2394<br/>value = [1998, 396]<br/>class = disatisfied>, fillcolor="#ea9a60"] ;
112 -> 370 ;
371 [label=<Checkin service &le; 4.5<br/>gini = 0.229<br/>samples = 2218<br/>value = [1926, 292]<br/>class = disatisfied>, fillcolor="#e99457"] ;
370 -> 371 ;
372 [label=<Seat comfort &le; 4.5<br/>gini = 0.189<br/>samples = 2118<br/>value = [1894, 224]<br/>class = disatisfied>, fillcolor="#e89050"] ;
371 -> 372 ;
373 [label=<Inflight service &le; 4.5<br/>gini = 0.166<br/>samples = 2075<br/>value = [1886, 189]<br/>class = disatisfied>, fillcolor="#e88e4d"] ;
372 -> 373 ;
374 [label=<Inflight wifi service &le; 1.5<br/>gini = 0.137<br/>samples = 1978<br/>value = [1832, 146]<br/>class = disatisfied>, fillcolor="#e78b49"] ;
373 -> 374 ;
375 [label=<Gate location &le; 1.5<br/>gini = 0.424<br/>samples = 151<br/>value = [105, 46]<br/>class = disatisfied>, fillcolor="#f0b890"] ;
374 -> 375 ;
376 [label=<Food and drink &le; 1.5<br/>gini = 0.451<br/>samples = 70<br/>value = [24, 46]<br/>class = satisfied>, fillcolor="#a0d0f3"] ;
375 -> 376 ;
377 [label=<Age &le; 60.0<br/>gini = 0.153<br/>samples = 12<br/>value = [11, 1]<br/>class = disatisfied>, fillcolor="#e78c4b"] ;
376 -> 377 ;
378 [label=<gini = 0.0<br/>samples = 11<br/>value = [11, 0]<br/>class = disatisfied>, fillcolor="#e58139"] ;
377 -> 378 ;
379 [label=<gini = 0.0<br/>samples = 1<br/>value = [0, 1]<br/>class = satisfied>, fillcolor="#399de5"] ;
377 -> 379 ;
380 [label=<Baggage handling &le; 1.5<br/>gini = 0.348<br/>samples = 58<br/>value = [13, 45]<br/>class = satisfied>, fillcolor="#72b9ed"] ;
376 -> 380 ;
381 [label=<Age &le; 37.0<br/>gini = 0.375<br/>samples = 12<br/>value = [9, 3]<br/>class = disatisfied>, fillcolor="#eeab7b"] ;
380 -> 381 ;
382 [label=<gini = 0.0<br/>samples = 3<br/>value = [0, 3]<br/>class = satisfied>, fillcolor="#399de5"] ;
381 -> 382 ;
383 [label=<gini = 0.0<br/>samples = 9<br/>value = [9, 0]<br/>class = disatisfied>, fillcolor="#e58139"] ;
381 -> 383 ;
384 [label=<Departure/Arrival time convenient &le; 4.0<br/>gini = 0.159<br/>samples = 46<br/>value = [4, 42]<br/>class = satisfied>, fillcolor="#4ca6e7"] ;
380 -> 384 ;
385 [label=<Seat comfort &le; 1.5<br/>gini = 0.087<br/>samples = 44<br/>value = [2, 42]<br/>class = satisfied>, fillcolor="#42a2e6"] ;
384 -> 385 ;
386 [label=<Age &le; 37.5<br/>gini = 0.5<br/>samples = 4<br/>value = [2, 2]<br/>class = disatisfied>, fillcolor="#ffffff"] ;
385 -> 386 ;
387 [label=<gini = 0.0<br/>samples = 2<br/>value = [2, 0]<br/>class = disatisfied>, fillcolor="#e58139"] ;
386 -> 387 ;
388 [label=<gini = 0.0<br/>samples = 2<br/>value = [0, 2]<br/>class = satisfied>, fillcolor="#399de5"] ;
386 -> 388 ;
389 [label=<gini = 0.0<br/>samples = 40<br/>value = [0, 40]<br/>class = satisfied>, fillcolor="#399de5"] ;
385 -> 389 ;
390 [label=<gini = 0.0<br/>samples = 2<br/>value = [2, 0]<br/>class = disatisfied>, fillcolor="#e58139"] ;
384 -> 390 ;
391 [label=<gini = 0.0<br/>samples = 81<br/>value = [81, 0]<br/>class = disatisfied>, fillcolor="#e58139"] ;
375 -> 391 ;
392 [label=<On-board service &le; 4.5<br/>gini = 0.103<br/>samples = 1827<br/>value = [1727, 100]<br/>class = disatisfied>, fillcolor="#e78844"] ;
374 -> 392 ;
393 [label=<Online boarding &le; 1.5<br/>gini = 0.085<br/>samples = 1774<br/>value = [1695, 79]<br/>class = disatisfied>, fillcolor="#e68742"] ;
392 -> 393 ;
394 [label=<Seat comfort &le; 2.5<br/>gini = 0.308<br/>samples = 79<br/>value = [64.0, 15.0]<br/>class = disatisfied>, fillcolor="#eb9f67"] ;
393 -> 394 ;
395 [label=<Departure/Arrival time convenient &le; 4.5<br/>gini = 0.21<br/>samples = 67<br/>value = [59, 8]<br/>class = disatisfied>, fillcolor="#e99254"] ;
394 -> 395 ;
396 [label=<Arrival Delay in Minutes &le; 5.5<br/>gini = 0.19<br/>samples = 66<br/>value = [59, 7]<br/>class = disatisfied>, fillcolor="#e89050"] ;
395 -> 396 ;
397 [label=<Gender &le; 0.5<br/>gini = 0.312<br/>samples = 31<br/>value = [25, 6]<br/>class = disatisfied>, fillcolor="#eb9f69"] ;
396 -> 397 ;
398 [label=<gini = 0.0<br/>samples = 11<br/>value = [11, 0]<br/>class = disatisfied>, fillcolor="#e58139"] ;
397 -> 398 ;
399 [label=<Checkin service &le; 3.5<br/>gini = 0.42<br/>samples = 20<br/>value = [14, 6]<br/>class = disatisfied>, fillcolor="#f0b78e"] ;
397 -> 399 ;
400 [label=<Age &le; 51.5<br/>gini = 0.48<br/>samples = 15<br/>value = [9, 6]<br/>class = disatisfied>, fillcolor="#f6d5bd"] ;
399 -> 400 ;
401 [label=<Ease of Online booking &le; 2.5<br/>gini = 0.397<br/>samples = 11<br/>value = [8, 3]<br/>class = disatisfied>, fillcolor="#efb083"] ;
400 -> 401 ;
402 [label=<gini = 0.0<br/>samples = 5<br/>value = [5, 0]<br/>class = disatisfied>, fillcolor="#e58139"] ;
401 -> 402 ;
403 [label=<Age &le; 47.5<br/>gini = 0.5<br/>samples = 6<br/>value = [3, 3]<br/>class = disatisfied>, fillcolor="#ffffff"] ;
401 -> 403 ;
404 [label=<Departure Delay in Minutes &le; 2.0<br/>gini = 0.375<br/>samples = 4<br/>value = [1, 3]<br/>class = satisfied>, fillcolor="#7bbeee"] ;
403 -> 404 ;
405 [label=<gini = 0.0<br/>samples = 3<br/>value = [0, 3]<br/>class = satisfied>, fillcolor="#399de5"] ;
404 -> 405 ;
406 [label=<gini = 0.0<br/>samples = 1<br/>value = [1, 0]<br/>class = disatisfied>, fillcolor="#e58139"] ;
404 -> 406 ;
407 [label=<gini = 0.0<br/>samples = 2<br/>value = [2, 0]<br/>class = disatisfied>, fillcolor="#e58139"] ;
403 -> 407 ;
408 [label=<Cleanliness &le; 3.5<br/>gini = 0.375<br/>samples = 4<br/>value = [1, 3]<br/>class = satisfied>, fillcolor="#7bbeee"] ;
400 -> 408 ;
409 [label=<gini = 0.0<br/>samples = 3<br/>value = [0, 3]<br/>class = satisfied>, fillcolor="#399de5"] ;
408 -> 409 ;
410 [label=<gini = 0.0<br/>samples = 1<br/>value = [1, 0]<br/>class = disatisfied>, fillcolor="#e58139"] ;
408 -> 410 ;
411 [label=<gini = 0.0<br/>samples = 5<br/>value = [5, 0]<br/>class = disatisfied>, fillcolor="#e58139"] ;
399 -> 411 ;
412 [label=<Food and drink &le; 1.5<br/>gini = 0.056<br/>samples = 35<br/>value = [34, 1]<br/>class = disatisfied>, fillcolor="#e6853f"] ;
396 -> 412 ;
413 [label=<Arrival Delay in Minutes &le; 21.0<br/>gini = 0.278<br/>samples = 6<br/>value = [5, 1]<br/>class = disatisfied>, fillcolor="#ea9a61"] ;
412 -> 413 ;
414 [label=<Seat comfort &le; 1.5<br/>gini = 0.5<br/>samples = 2<br/>value = [1, 1]<br/>class = disatisfied>, fillcolor="#ffffff"] ;
413 -> 414 ;
415 [label=<gini = 0.0<br/>samples = 1<br/>value = [0, 1]<br/>class = satisfied>, fillcolor="#399de5"] ;
414 -> 415 ;
416 [label=<gini = 0.0<br/>samples = 1<br/>value = [1, 0]<br/>class = disatisfied>, fillcolor="#e58139"] ;
414 -> 416 ;
417 [label=<gini = 0.0<br/>samples = 4<br/>value = [4, 0]<br/>class = disatisfied>, fillcolor="#e58139"] ;
413 -> 417 ;
418 [label=<gini = 0.0<br/>samples = 29<br/>value = [29, 0]<br/>class = disatisfied>, fillcolor="#e58139"] ;
412 -> 418 ;
419 [label=<gini = 0.0<br/>samples = 1<br/>value = [0, 1]<br/>class = satisfied>, fillcolor="#399de5"] ;
395 -> 419 ;
420 [label=<Gate location &le; 1.5<br/>gini = 0.486<br/>samples = 12<br/>value = [5, 7]<br/>class = satisfied>, fillcolor="#c6e3f8"] ;
394 -> 420 ;
421 [label=<gini = 0.0<br/>samples = 3<br/>value = [3, 0]<br/>class = disatisfied>, fillcolor="#e58139"] ;
420 -> 421 ;
422 [label=<Age &le; 48.5<br/>gini = 0.346<br/>samples = 9<br/>value = [2, 7]<br/>class = satisfied>, fillcolor="#72b9ec"] ;
420 -> 422 ;
423 [label=<gini = 0.0<br/>samples = 6<br/>value = [0, 6]<br/>class = satisfied>, fillcolor="#399de5"] ;
422 -> 423 ;
424 [label=<Checkin service &le; 2.5<br/>gini = 0.444<br/>samples = 3<br/>value = [2, 1]<br/>class = disatisfied>, fillcolor="#f2c09c"] ;
422 -> 424 ;
425 [label=<gini = 0.0<br/>samples = 2<br/>value = [2, 0]<br/>class = disatisfied>, fillcolor="#e58139"] ;
424 -> 425 ;
426 [label=<gini = 0.0<br/>samples = 1<br/>value = [0, 1]<br/>class = satisfied>, fillcolor="#399de5"] ;
424 -> 426 ;
427 [label=<Baggage handling &le; 1.5<br/>gini = 0.073<br/>samples = 1695<br/>value = [1631, 64]<br/>class = disatisfied>, fillcolor="#e68641"] ;
393 -> 427 ;
428 [label=<Leg room service &le; 4.5<br/>gini = 0.397<br/>samples = 33<br/>value = [24, 9]<br/>class = disatisfied>, fillcolor="#efb083"] ;
427 -> 428 ;
429 [label=<Flight Distance &le; 3124.5<br/>gini = 0.252<br/>samples = 27<br/>value = [23, 4]<br/>class = disatisfied>, fillcolor="#ea975b"] ;
428 -> 429 ;
430 [label=<Checkin service &le; 1.5<br/>gini = 0.087<br/>samples = 22<br/>value = [21, 1]<br/>class = disatisfied>, fillcolor="#e68742"] ;
429 -> 430 ;
431 [label=<Leg room service &le; 1.5<br/>gini = 0.32<br/>samples = 5<br/>value = [4, 1]<br/>class = disatisfied>, fillcolor="#eca06a"] ;
430 -> 431 ;
432 [label=<gini = 0.0<br/>samples = 3<br/>value = [3, 0]<br/>class = disatisfied>, fillcolor="#e58139"] ;
431 -> 432 ;
433 [label=<Inflight service &le; 2.0<br/>gini = 0.5<br/>samples = 2<br/>value = [1, 1]<br/>class = disatisfied>, fillcolor="#ffffff"] ;
431 -> 433 ;
434 [label=<gini = 0.0<br/>samples = 1<br/>value = [1, 0]<br/>class = disatisfied>, fillcolor="#e58139"] ;
433 -> 434 ;
435 [label=<gini = 0.0<br/>samples = 1<br/>value = [0, 1]<br/>class = satisfied>, fillcolor="#399de5"] ;
433 -> 435 ;
436 [label=<gini = 0.0<br/>samples = 17<br/>value = [17, 0]<br/>class = disatisfied>, fillcolor="#e58139"] ;
430 -> 436 ;
437 [label=<Gate location &le; 1.5<br/>gini = 0.48<br/>samples = 5<br/>value = [2, 3]<br/>class = satisfied>, fillcolor="#bddef6"] ;
429 -> 437 ;
438 [label=<gini = 0.0<br/>samples = 2<br/>value = [2, 0]<br/>class = disatisfied>, fillcolor="#e58139"] ;
437 -> 438 ;
439 [label=<gini = 0.0<br/>samples = 3<br/>value = [0, 3]<br/>class = satisfied>, fillcolor="#399de5"] ;
437 -> 439 ;
440 [label=<Departure/Arrival time convenient &le; 1.5<br/>gini = 0.278<br/>samples = 6<br/>value = [1, 5]<br/>class = satisfied>, fillcolor="#61b1ea"] ;
428 -> 440 ;
441 [label=<gini = 0.0<br/>samples = 1<br/>value = [1, 0]<br/>class = disatisfied>, fillcolor="#e58139"] ;
440 -> 441 ;
442 [label=<gini = 0.0<br/>samples = 5<br/>value = [0, 5]<br/>class = satisfied>, fillcolor="#399de5"] ;
440 -> 442 ;
443 [label=<Inflight service &le; 1.5<br/>gini = 0.064<br/>samples = 1662<br/>value = [1607, 55]<br/>class = disatisfied>, fillcolor="#e68540"] ;
427 -> 443 ;
444 [label=<Leg room service &le; 4.5<br/>gini = 0.33<br/>samples = 24<br/>value = [19, 5]<br/>class = disatisfied>, fillcolor="#eca26d"] ;
443 -> 444 ;
445 [label=<Departure/Arrival time convenient &le; 4.5<br/>gini = 0.236<br/>samples = 22<br/>value = [19, 3]<br/>class = disatisfied>, fillcolor="#e99558"] ;
444 -> 445 ;
446 [label=<Age &le; 23.5<br/>gini = 0.172<br/>samples = 21<br/>value = [19, 2]<br/>class = disatisfied>, fillcolor="#e88e4e"] ;
445 -> 446 ;
447 [label=<Ease of Online booking &le; 1.5<br/>gini = 0.5<br/>samples = 4<br/>value = [2, 2]<br/>class = disatisfied>, fillcolor="#ffffff"] ;
446 -> 447 ;
448 [label=<gini = 0.0<br/>samples = 1<br/>value = [1, 0]<br/>class = disatisfied>, fillcolor="#e58139"] ;
447 -> 448 ;
449 [label=<Departure Delay in Minutes &le; 100.5<br/>gini = 0.444<br/>samples = 3<br/>value = [1, 2]<br/>class = satisfied>, fillcolor="#9ccef2"] ;
447 -> 449 ;
450 [label=<gini = 0.0<br/>samples = 2<br/>value = [0, 2]<br/>class = satisfied>, fillcolor="#399de5"] ;
449 -> 450 ;
451 [label=<gini = 0.0<br/>samples = 1<br/>value = [1, 0]<br/>class = disatisfied>, fillcolor="#e58139"] ;
449 -> 451 ;
452 [label=<gini = 0.0<br/>samples = 17<br/>value = [17, 0]<br/>class = disatisfied>, fillcolor="#e58139"] ;
446 -> 452 ;
453 [label=<gini = 0.0<br/>samples = 1<br/>value = [0, 1]<br/>class = satisfied>, fillcolor="#399de5"] ;
445 -> 453 ;
454 [label=<gini = 0.0<br/>samples = 2<br/>value = [0, 2]<br/>class = satisfied>, fillcolor="#399de5"] ;
444 -> 454 ;
455 [label=<Gate location &le; 1.5<br/>gini = 0.059<br/>samples = 1638<br/>value = [1588, 50]<br/>class = disatisfied>, fillcolor="#e6853f"] ;
443 -> 455 ;
456 [label=<Flight Distance &le; 1501.5<br/>gini = 0.004<br/>samples = 487<br/>value = [486, 1]<br/>class = disatisfied>, fillcolor="#e58139"] ;
455 -> 456 ;
457 [label=<Flight Distance &le; 1495.0<br/>gini = 0.083<br/>samples = 23<br/>value = [22, 1]<br/>class = disatisfied>, fillcolor="#e68742"] ;
456 -> 457 ;
458 [label=<gini = 0.0<br/>samples = 22<br/>value = [22, 0]<br/>class = disatisfied>, fillcolor="#e58139"] ;
457 -> 458 ;
459 [label=<gini = 0.0<br/>samples = 1<br/>value = [0, 1]<br/>class = satisfied>, fillcolor="#399de5"] ;
457 -> 459 ;
460 [label=<gini = 0.0<br/>samples = 464<br/>value = [464, 0]<br/>class = disatisfied>, fillcolor="#e58139"] ;
456 -> 460 ;
461 [label=<Leg room service &le; 3.5<br/>gini = 0.082<br/>samples = 1151<br/>value = [1102, 49]<br/>class = disatisfied>, fillcolor="#e68742"] ;
455 -> 461 ;
462 [label=<Ease of Online booking &le; 1.5<br/>gini = 0.06<br/>samples = 908<br/>value = [880, 28]<br/>class = disatisfied>, fillcolor="#e6853f"] ;
461 -> 462 ;
463 [label=<Gender &le; 0.5<br/>gini = 0.278<br/>samples = 18<br/>value = [15, 3]<br/>class = disatisfied>, fillcolor="#ea9a61"] ;
462 -> 463 ;
464 [label=<On-board service &le; 2.5<br/>gini = 0.49<br/>samples = 7<br/>value = [4, 3]<br/>class = disatisfied>, fillcolor="#f8e0ce"] ;
463 -> 464 ;
465 [label=<gini = 0.0<br/>samples = 2<br/>value = [0, 2]<br/>class = satisfied>, fillcolor="#399de5"] ;
464 -> 465 ;
466 [label=<Checkin service &le; 1.5<br/>gini = 0.32<br/>samples = 5<br/>value = [4, 1]<br/>class = disatisfied>, fillcolor="#eca06a"] ;
464 -> 466 ;
467 [label=<gini = 0.0<br/>samples = 1<br/>value = [0, 1]<br/>class = satisfied>, fillcolor="#399de5"] ;
466 -> 467 ;
468 [label=<gini = 0.0<br/>samples = 4<br/>value = [4, 0]<br/>class = disatisfied>, fillcolor="#e58139"] ;
466 -> 468 ;
469 [label=<gini = 0.0<br/>samples = 11<br/>value = [11, 0]<br/>class = disatisfied>, fillcolor="#e58139"] ;
463 -> 469 ;
470 [label=<Checkin service &le; 3.5<br/>gini = 0.055<br/>samples = 890<br/>value = [865, 25]<br/>class = disatisfied>, fillcolor="#e6853f"] ;
462 -> 470 ;
471 [label=<Age &le; 27.5<br/>gini = 0.035<br/>samples = 668<br/>value = [656, 12]<br/>class = disatisfied>, fillcolor="#e5833d"] ;
470 -> 471 ;
472 [label=<Departure/Arrival time convenient &le; 3.5<br/>gini = 0.076<br/>samples = 127<br/>value = [122, 5]<br/>class = disatisfied>, fillcolor="#e68641"] ;
471 -> 472 ;
473 [label=<Departure Delay in Minutes &le; 0.5<br/>gini = 0.063<br/>samples = 123<br/>value = [119, 4]<br/>class = disatisfied>, fillcolor="#e68540"] ;
472 -> 473 ;
474 [label=<Flight Distance &le; 1938.5<br/>gini = 0.116<br/>samples = 65<br/>value = [61, 4]<br/>class = disatisfied>, fillcolor="#e78946"] ;
473 -> 474 ;
475 [label=<gini = 0.0<br/>samples = 25<br/>value = [25, 0]<br/>class = disatisfied>, fillcolor="#e58139"] ;
474 -> 475 ;
476 [label=<Flight Distance &le; 1971.0<br/>gini = 0.18<br/>samples = 40<br/>value = [36, 4]<br/>class = disatisfied>, fillcolor="#e88f4f"] ;
474 -> 476 ;
477 [label=<gini = 0.0<br/>samples = 1<br/>value = [0, 1]<br/>class = satisfied>, fillcolor="#399de5"] ;
476 -> 477 ;
478 [label=<Inflight wifi service &le; 2.5<br/>gini = 0.142<br/>samples = 39<br/>value = [36, 3]<br/>class = disatisfied>, fillcolor="#e78c49"] ;
476 -> 478 ;
479 [label=<gini = 0.0<br/>samples = 21<br/>value = [21, 0]<br/>class = disatisfied>, fillcolor="#e58139"] ;
478 -> 479 ;
480 [label=<Inflight entertainment &le; 2.5<br/>gini = 0.278<br/>samples = 18<br/>value = [15, 3]<br/>class = disatisfied>, fillcolor="#ea9a61"] ;
478 -> 480 ;
481 [label=<gini = 0.0<br/>samples = 1<br/>value = [0, 1]<br/>class = satisfied>, fillcolor="#399de5"] ;
480 -> 481 ;
482 [label=<Baggage handling &le; 3.5<br/>gini = 0.208<br/>samples = 17<br/>value = [15, 2]<br/>class = disatisfied>, fillcolor="#e89253"] ;
480 -> 482 ;
483 [label=<gini = 0.0<br/>samples = 10<br/>value = [10, 0]<br/>class = disatisfied>, fillcolor="#e58139"] ;
482 -> 483 ;
484 [label=<Inflight service &le; 2.5<br/>gini = 0.408<br/>samples = 7<br/>value = [5, 2]<br/>class = disatisfied>, fillcolor="#efb388"] ;
482 -> 484 ;
485 [label=<gini = 0.0<br/>samples = 1<br/>value = [0, 1]<br/>class = satisfied>, fillcolor="#399de5"] ;
484 -> 485 ;
486 [label=<Arrival Delay in Minutes &le; 1.0<br/>gini = 0.278<br/>samples = 6<br/>value = [5, 1]<br/>class = disatisfied>, fillcolor="#ea9a61"] ;
484 -> 486 ;
487 [label=<gini = 0.0<br/>samples = 4<br/>value = [4, 0]<br/>class = disatisfied>, fillcolor="#e58139"] ;
486 -> 487 ;
488 [label=<Arrival Delay in Minutes &le; 8.0<br/>gini = 0.5<br/>samples = 2<br/>value = [1, 1]<br/>class = disatisfied>, fillcolor="#ffffff"] ;
486 -> 488 ;
489 [label=<gini = 0.0<br/>samples = 1<br/>value = [0, 1]<br/>class = satisfied>, fillcolor="#399de5"] ;
488 -> 489 ;
490 [label=<gini = 0.0<br/>samples = 1<br/>value = [1, 0]<br/>class = disatisfied>, fillcolor="#e58139"] ;
488 -> 490 ;
491 [label=<gini = 0.0<br/>samples = 58<br/>value = [58, 0]<br/>class = disatisfied>, fillcolor="#e58139"] ;
473 -> 491 ;
492 [label=<Age &le; 24.5<br/>gini = 0.375<br/>samples = 4<br/>value = [3, 1]<br/>class = disatisfied>, fillcolor="#eeab7b"] ;
472 -> 492 ;
493 [label=<gini = 0.0<br/>samples = 3<br/>value = [3, 0]<br/>class = disatisfied>, fillcolor="#e58139"] ;
492 -> 493 ;
494 [label=<gini = 0.0<br/>samples = 1<br/>value = [0, 1]<br/>class = satisfied>, fillcolor="#399de5"] ;
492 -> 494 ;
495 [label=<Departure Delay in Minutes &le; 119.0<br/>gini = 0.026<br/>samples = 541<br/>value = [534, 7]<br/>class = disatisfied>, fillcolor="#e5833c"] ;
471 -> 495 ;
496 [label=<Ease of Online booking &le; 3.5<br/>gini = 0.022<br/>samples = 531<br/>value = [525, 6]<br/>class = disatisfied>, fillcolor="#e5823b"] ;
495 -> 496 ;
497 [label=<Seat comfort &le; 1.5<br/>gini = 0.016<br/>samples = 494<br/>value = [490, 4]<br/>class = disatisfied>, fillcolor="#e5823b"] ;
496 -> 497 ;
498 [label=<Online boarding &le; 2.5<br/>gini = 0.133<br/>samples = 14<br/>value = [13, 1]<br/>class = disatisfied>, fillcolor="#e78b48"] ;
497 -> 498 ;
499 [label=<gini = 0.0<br/>samples = 12<br/>value = [12, 0]<br/>class = disatisfied>, fillcolor="#e58139"] ;
498 -> 499 ;
500 [label=<Gender &le; 0.5<br/>gini = 0.5<br/>samples = 2<br/>value = [1, 1]<br/>class = disatisfied>, fillcolor="#ffffff"] ;
498 -> 500 ;
501 [label=<gini = 0.0<br/>samples = 1<br/>value = [0, 1]<br/>class = satisfied>, fillcolor="#399de5"] ;
500 -> 501 ;
502 [label=<gini = 0.0<br/>samples = 1<br/>value = [1, 0]<br/>class = disatisfied>, fillcolor="#e58139"] ;
500 -> 502 ;
503 [label=<Flight Distance &le; 3847.5<br/>gini = 0.012<br/>samples = 480<br/>value = [477, 3]<br/>class = disatisfied>, fillcolor="#e5823a"] ;
497 -> 503 ;
504 [label=<Age &le; 30.5<br/>gini = 0.009<br/>samples = 454<br/>value = [452, 2]<br/>class = disatisfied>, fillcolor="#e5823a"] ;
503 -> 504 ;
505 [label=<Leg room service &le; 2.5<br/>gini = 0.043<br/>samples = 46<br/>value = [45, 1]<br/>class = disatisfied>, fillcolor="#e6843d"] ;
504 -> 505 ;
506 [label=<gini = 0.0<br/>samples = 35<br/>value = [35, 0]<br/>class = disatisfied>, fillcolor="#e58139"] ;
505 -> 506 ;
507 [label=<Baggage handling &le; 3.5<br/>gini = 0.165<br/>samples = 11<br/>value = [10, 1]<br/>class = disatisfied>, fillcolor="#e88e4d"] ;
505 -> 507 ;
508 [label=<Online boarding &le; 2.5<br/>gini = 0.444<br/>samples = 3<br/>value = [2, 1]<br/>class = disatisfied>, fillcolor="#f2c09c"] ;
507 -> 508 ;
509 [label=<gini = 0.0<br/>samples = 1<br/>value = [0, 1]<br/>class = satisfied>, fillcolor="#399de5"] ;
508 -> 509 ;
510 [label=<gini = 0.0<br/>samples = 2<br/>value = [2, 0]<br/>class = disatisfied>, fillcolor="#e58139"] ;
508 -> 510 ;
511 [label=<gini = 0.0<br/>samples = 8<br/>value = [8, 0]<br/>class = disatisfied>, fillcolor="#e58139"] ;
507 -> 511 ;
512 [label=<Food and drink &le; 4.5<br/>gini = 0.005<br/>samples = 408<br/>value = [407, 1]<br/>class = disatisfied>, fillcolor="#e58139"] ;
504 -> 512 ;
513 [label=<gini = 0.0<br/>samples = 342<br/>value = [342, 0]<br/>class = disatisfied>, fillcolor="#e58139"] ;
512 -> 513 ;
514 [label=<Departure Delay in Minutes &le; 6.5<br/>gini = 0.03<br/>samples = 66<br/>value = [65, 1]<br/>class = disatisfied>, fillcolor="#e5833c"] ;
512 -> 514 ;
515 [label=<gini = 0.0<br/>samples = 46<br/>value = [46, 0]<br/>class = disatisfied>, fillcolor="#e58139"] ;
514 -> 515 ;
516 [label=<Departure Delay in Minutes &le; 8.0<br/>gini = 0.095<br/>samples = 20<br/>value = [19, 1]<br/>class = disatisfied>, fillcolor="#e68843"] ;
514 -> 516 ;
517 [label=<gini = 0.0<br/>samples = 1<br/>value = [0, 1]<br/>class = satisfied>, fillcolor="#399de5"] ;
516 -> 517 ;
518 [label=<gini = 0.0<br/>samples = 19<br/>value = [19, 0]<br/>class = disatisfied>, fillcolor="#e58139"] ;
516 -> 518 ;
519 [label=<Flight Distance &le; 3850.0<br/>gini = 0.074<br/>samples = 26<br/>value = [25, 1]<br/>class = disatisfied>, fillcolor="#e68641"] ;
503 -> 519 ;
520 [label=<gini = 0.0<br/>samples = 1<br/>value = [0, 1]<br/>class = satisfied>, fillcolor="#399de5"] ;
519 -> 520 ;
521 [label=<gini = 0.0<br/>samples = 25<br/>value = [25, 0]<br/>class = disatisfied>, fillcolor="#e58139"] ;
519 -> 521 ;
522 [label=<Arrival Delay in Minutes &le; 37.5<br/>gini = 0.102<br/>samples = 37<br/>value = [35, 2]<br/>class = disatisfied>, fillcolor="#e68844"] ;
496 -> 522 ;
523 [label=<Flight Distance &le; 1619.0<br/>gini = 0.054<br/>samples = 36<br/>value = [35, 1]<br/>class = disatisfied>, fillcolor="#e6853f"] ;
522 -> 523 ;
524 [label=<Food and drink &le; 2.5<br/>gini = 0.375<br/>samples = 4<br/>value = [3, 1]<br/>class = disatisfied>, fillcolor="#eeab7b"] ;
523 -> 524 ;
525 [label=<gini = 0.0<br/>samples = 3<br/>value = [3, 0]<br/>class = disatisfied>, fillcolor="#e58139"] ;
524 -> 525 ;
526 [label=<gini = 0.0<br/>samples = 1<br/>value = [0, 1]<br/>class = satisfied>, fillcolor="#399de5"] ;
524 -> 526 ;
527 [label=<gini = 0.0<br/>samples = 32<br/>value = [32, 0]<br/>class = disatisfied>, fillcolor="#e58139"] ;
523 -> 527 ;
528 [label=<gini = 0.0<br/>samples = 1<br/>value = [0, 1]<br/>class = satisfied>, fillcolor="#399de5"] ;
522 -> 528 ;
529 [label=<Checkin service &le; 1.5<br/>gini = 0.18<br/>samples = 10<br/>value = [9, 1]<br/>class = disatisfied>, fillcolor="#e88f4f"] ;
495 -> 529 ;
530 [label=<gini = 0.0<br/>samples = 1<br/>value = [0, 1]<br/>class = satisfied>, fillcolor="#399de5"] ;
529 -> 530 ;
531 [label=<gini = 0.0<br/>samples = 9<br/>value = [9, 0]<br/>class = disatisfied>, fillcolor="#e58139"] ;
529 -> 531 ;
532 [label=<Departure/Arrival time convenient &le; 4.5<br/>gini = 0.11<br/>samples = 222<br/>value = [209, 13]<br/>class = disatisfied>, fillcolor="#e78945"] ;
470 -> 532 ;
533 [label=<On-board service &le; 2.5<br/>gini = 0.103<br/>samples = 220<br/>value = [208, 12]<br/>class = disatisfied>, fillcolor="#e68844"] ;
532 -> 533 ;
534 [label=<Inflight wifi service &le; 2.5<br/>gini = 0.021<br/>samples = 94<br/>value = [93, 1]<br/>class = disatisfied>, fillcolor="#e5823b"] ;
533 -> 534 ;
535 [label=<gini = 0.0<br/>samples = 73<br/>value = [73, 0]<br/>class = disatisfied>, fillcolor="#e58139"] ;
534 -> 535 ;
536 [label=<Age &le; 48.5<br/>gini = 0.091<br/>samples = 21<br/>value = [20, 1]<br/>class = disatisfied>, fillcolor="#e68743"] ;
534 -> 536 ;
537 [label=<gini = 0.0<br/>samples = 20<br/>value = [20, 0]<br/>class = disatisfied>, fillcolor="#e58139"] ;
536 -> 537 ;
538 [label=<gini = 0.0<br/>samples = 1<br/>value = [0, 1]<br/>class = satisfied>, fillcolor="#399de5"] ;
536 -> 538 ;
539 [label=<Inflight wifi service &le; 2.5<br/>gini = 0.159<br/>samples = 126<br/>value = [115, 11]<br/>class = disatisfied>, fillcolor="#e78d4c"] ;
533 -> 539 ;
540 [label=<Seat comfort &le; 2.5<br/>gini = 0.346<br/>samples = 36<br/>value = [28, 8]<br/>class = disatisfied>, fillcolor="#eca572"] ;
539 -> 540 ;
541 [label=<Flight Distance &le; 2938.0<br/>gini = 0.133<br/>samples = 28<br/>value = [26, 2]<br/>class = disatisfied>, fillcolor="#e78b48"] ;
540 -> 541 ;
542 [label=<Leg room service &le; 2.5<br/>gini = 0.08<br/>samples = 24<br/>value = [23, 1]<br/>class = disatisfied>, fillcolor="#e68642"] ;
541 -> 542 ;
543 [label=<gini = 0.0<br/>samples = 16<br/>value = [16, 0]<br/>class = disatisfied>, fillcolor="#e58139"] ;
542 -> 543 ;
544 [label=<Gate location &le; 2.5<br/>gini = 0.219<br/>samples = 8<br/>value = [7, 1]<br/>class = disatisfied>, fillcolor="#e99355"] ;
542 -> 544 ;
545 [label=<Flight Distance &le; 2276.0<br/>gini = 0.5<br/>samples = 2<br/>value = [1, 1]<br/>class = disatisfied>, fillcolor="#ffffff"] ;
544 -> 545 ;
546 [label=<gini = 0.0<br/>samples = 1<br/>value = [0, 1]<br/>class = satisfied>, fillcolor="#399de5"] ;
545 -> 546 ;
547 [label=<gini = 0.0<br/>samples = 1<br/>value = [1, 0]<br/>class = disatisfied>, fillcolor="#e58139"] ;
545 -> 547 ;
548 [label=<gini = 0.0<br/>samples = 6<br/>value = [6, 0]<br/>class = disatisfied>, fillcolor="#e58139"] ;
544 -> 548 ;
549 [label=<Flight Distance &le; 3229.0<br/>gini = 0.375<br/>samples = 4<br/>value = [3, 1]<br/>class = disatisfied>, fillcolor="#eeab7b"] ;
541 -> 549 ;
550 [label=<gini = 0.0<br/>samples = 1<br/>value = [0, 1]<br/>class = satisfied>, fillcolor="#399de5"] ;
549 -> 550 ;
551 [label=<gini = 0.0<br/>samples = 3<br/>value = [3, 0]<br/>class = disatisfied>, fillcolor="#e58139"] ;
549 -> 551 ;
552 [label=<Baggage handling &le; 2.5<br/>gini = 0.375<br/>samples = 8<br/>value = [2, 6]<br/>class = satisfied>, fillcolor="#7bbeee"] ;
540 -> 552 ;
553 [label=<gini = 0.0<br/>samples = 2<br/>value = [2, 0]<br/>class = disatisfied>, fillcolor="#e58139"] ;
552 -> 553 ;
554 [label=<gini = 0.0<br/>samples = 6<br/>value = [0, 6]<br/>class = satisfied>, fillcolor="#399de5"] ;
552 -> 554 ;
555 [label=<Flight Distance &le; 1506.5<br/>gini = 0.064<br/>samples = 90<br/>value = [87, 3]<br/>class = disatisfied>, fillcolor="#e68540"] ;
539 -> 555 ;
556 [label=<Flight Distance &le; 1502.5<br/>gini = 0.375<br/>samples = 4<br/>value = [3, 1]<br/>class = disatisfied>, fillcolor="#eeab7b"] ;
555 -> 556 ;
557 [label=<gini = 0.0<br/>samples = 3<br/>value = [3, 0]<br/>class = disatisfied>, fillcolor="#e58139"] ;
556 -> 557 ;
558 [label=<gini = 0.0<br/>samples = 1<br/>value = [0, 1]<br/>class = satisfied>, fillcolor="#399de5"] ;
556 -> 558 ;
559 [label=<Arrival Delay in Minutes &le; 41.5<br/>gini = 0.045<br/>samples = 86<br/>value = [84, 2]<br/>class = disatisfied>, fillcolor="#e6843e"] ;
555 -> 559 ;
560 [label=<Food and drink &le; 4.5<br/>gini = 0.025<br/>samples = 78<br/>value = [77, 1]<br/>class = disatisfied>, fillcolor="#e5833c"] ;
559 -> 560 ;
561 [label=<gini = 0.0<br/>samples = 66<br/>value = [66, 0]<br/>class = disatisfied>, fillcolor="#e58139"] ;
560 -> 561 ;
562 [label=<Seat comfort &le; 2.5<br/>gini = 0.153<br/>samples = 12<br/>value = [11, 1]<br/>class = disatisfied>, fillcolor="#e78c4b"] ;
560 -> 562 ;
563 [label=<Online boarding &le; 2.5<br/>gini = 0.444<br/>samples = 3<br/>value = [2, 1]<br/>class = disatisfied>, fillcolor="#f2c09c"] ;
562 -> 563 ;
564 [label=<gini = 0.0<br/>samples = 2<br/>value = [2, 0]<br/>class = disatisfied>, fillcolor="#e58139"] ;
563 -> 564 ;
565 [label=<gini = 0.0<br/>samples = 1<br/>value = [0, 1]<br/>class = satisfied>, fillcolor="#399de5"] ;
563 -> 565 ;
566 [label=<gini = 0.0<br/>samples = 9<br/>value = [9, 0]<br/>class = disatisfied>, fillcolor="#e58139"] ;
562 -> 566 ;
567 [label=<Arrival Delay in Minutes &le; 46.0<br/>gini = 0.219<br/>samples = 8<br/>value = [7, 1]<br/>class = disatisfied>, fillcolor="#e99355"] ;
559 -> 567 ;
568 [label=<gini = 0.0<br/>samples = 1<br/>value = [0, 1]<br/>class = satisfied>, fillcolor="#399de5"] ;
567 -> 568 ;
569 [label=<gini = 0.0<br/>samples = 7<br/>value = [7, 0]<br/>class = disatisfied>, fillcolor="#e58139"] ;
567 -> 569 ;
570 [label=<Gender &le; 0.5<br/>gini = 0.5<br/>samples = 2<br/>value = [1, 1]<br/>class = disatisfied>, fillcolor="#ffffff"] ;
532 -> 570 ;
571 [label=<gini = 0.0<br/>samples = 1<br/>value = [1, 0]<br/>class = disatisfied>, fillcolor="#e58139"] ;
570 -> 571 ;
572 [label=<gini = 0.0<br/>samples = 1<br/>value = [0, 1]<br/>class = satisfied>, fillcolor="#399de5"] ;
570 -> 572 ;
573 [label=<Food and drink &le; 3.5<br/>gini = 0.158<br/>samples = 243<br/>value = [222, 21]<br/>class = disatisfied>, fillcolor="#e78d4c"] ;
461 -> 573 ;
574 [label=<Cleanliness &le; 3.5<br/>gini = 0.12<br/>samples = 233<br/>value = [218, 15]<br/>class = disatisfied>, fillcolor="#e78a47"] ;
573 -> 574 ;
575 [label=<Flight Distance &le; 3990.5<br/>gini = 0.106<br/>samples = 231<br/>value = [218, 13]<br/>class = disatisfied>, fillcolor="#e78945"] ;
574 -> 575 ;
576 [label=<Cleanliness &le; 1.5<br/>gini = 0.099<br/>samples = 230<br/>value = [218, 12]<br/>class = disatisfied>, fillcolor="#e68844"] ;
575 -> 576 ;
577 [label=<Checkin service &le; 2.0<br/>gini = 0.5<br/>samples = 4<br/>value = [2, 2]<br/>class = disatisfied>, fillcolor="#ffffff"] ;
576 -> 577 ;
578 [label=<gini = 0.0<br/>samples = 2<br/>value = [2, 0]<br/>class = disatisfied>, fillcolor="#e58139"] ;
577 -> 578 ;
579 [label=<gini = 0.0<br/>samples = 2<br/>value = [0, 2]<br/>class = satisfied>, fillcolor="#399de5"] ;
577 -> 579 ;
580 [label=<Flight Distance &le; 2292.5<br/>gini = 0.085<br/>samples = 226<br/>value = [216, 10]<br/>class = disatisfied>, fillcolor="#e68742"] ;
576 -> 580 ;
581 [label=<Age &le; 30.5<br/>gini = 0.018<br/>samples = 112<br/>value = [111, 1]<br/>class = disatisfied>, fillcolor="#e5823b"] ;
580 -> 581 ;
582 [label=<gini = 0.0<br/>samples = 84<br/>value = [84, 0]<br/>class = disatisfied>, fillcolor="#e58139"] ;
581 -> 582 ;
583 [label=<Flight Distance &le; 1598.5<br/>gini = 0.069<br/>samples = 28<br/>value = [27, 1]<br/>class = disatisfied>, fillcolor="#e68640"] ;
581 -> 583 ;
584 [label=<Flight Distance &le; 1589.5<br/>gini = 0.245<br/>samples = 7<br/>value = [6, 1]<br/>class = disatisfied>, fillcolor="#e9965a"] ;
583 -> 584 ;
585 [label=<gini = 0.0<br/>samples = 6<br/>value = [6, 0]<br/>class = disatisfied>, fillcolor="#e58139"] ;
584 -> 585 ;
586 [label=<gini = 0.0<br/>samples = 1<br/>value = [0, 1]<br/>class = satisfied>, fillcolor="#399de5"] ;
584 -> 586 ;
587 [label=<gini = 0.0<br/>samples = 21<br/>value = [21, 0]<br/>class = disatisfied>, fillcolor="#e58139"] ;
583 -> 587 ;
588 [label=<Baggage handling &le; 3.5<br/>gini = 0.145<br/>samples = 114<br/>value = [105, 9]<br/>class = disatisfied>, fillcolor="#e78c4a"] ;
580 -> 588 ;
589 [label=<Flight Distance &le; 2554.0<br/>gini = 0.052<br/>samples = 75<br/>value = [73, 2]<br/>class = disatisfied>, fillcolor="#e6843e"] ;
588 -> 589 ;
590 [label=<Flight Distance &le; 2542.0<br/>gini = 0.188<br/>samples = 19<br/>value = [17, 2]<br/>class = disatisfied>, fillcolor="#e89050"] ;
589 -> 590 ;
591 [label=<Inflight service &le; 3.5<br/>gini = 0.105<br/>samples = 18<br/>value = [17, 1]<br/>class = disatisfied>, fillcolor="#e78845"] ;
590 -> 591 ;
592 [label=<gini = 0.0<br/>samples = 14<br/>value = [14, 0]<br/>class = disatisfied>, fillcolor="#e58139"] ;
591 -> 592 ;
593 [label=<On-board service &le; 2.5<br/>gini = 0.375<br/>samples = 4<br/>value = [3, 1]<br/>class = disatisfied>, fillcolor="#eeab7b"] ;
591 -> 593 ;
594 [label=<gini = 0.0<br/>samples = 3<br/>value = [3, 0]<br/>class = disatisfied>, fillcolor="#e58139"] ;
593 -> 594 ;
595 [label=<gini = 0.0<br/>samples = 1<br/>value = [0, 1]<br/>class = satisfied>, fillcolor="#399de5"] ;
593 -> 595 ;
596 [label=<gini = 0.0<br/>samples = 1<br/>value = [0, 1]<br/>class = satisfied>, fillcolor="#399de5"] ;
590 -> 596 ;
597 [label=<gini = 0.0<br/>samples = 56<br/>value = [56, 0]<br/>class = disatisfied>, fillcolor="#e58139"] ;
589 -> 597 ;
598 [label=<Flight Distance &le; 2362.0<br/>gini = 0.295<br/>samples = 39<br/>value = [32, 7]<br/>class = disatisfied>, fillcolor="#eb9d64"] ;
588 -> 598 ;
599 [label=<gini = 0.0<br/>samples = 1<br/>value = [0, 1]<br/>class = satisfied>, fillcolor="#399de5"] ;
598 -> 599 ;
600 [label=<Flight Distance &le; 2660.0<br/>gini = 0.266<br/>samples = 38<br/>value = [32, 6]<br/>class = disatisfied>, fillcolor="#ea995e"] ;
598 -> 600 ;
601 [label=<gini = 0.0<br/>samples = 13<br/>value = [13, 0]<br/>class = disatisfied>, fillcolor="#e58139"] ;
600 -> 601 ;
602 [label=<Food and drink &le; 2.5<br/>gini = 0.365<br/>samples = 25<br/>value = [19, 6]<br/>class = disatisfied>, fillcolor="#eda978"] ;
600 -> 602 ;
603 [label=<Online boarding &le; 2.5<br/>gini = 0.457<br/>samples = 17<br/>value = [11, 6]<br/>class = disatisfied>, fillcolor="#f3c6a5"] ;
602 -> 603 ;
604 [label=<Inflight wifi service &le; 2.5<br/>gini = 0.391<br/>samples = 15<br/>value = [11, 4]<br/>class = disatisfied>, fillcolor="#eeaf81"] ;
603 -> 604 ;
605 [label=<Age &le; 24.5<br/>gini = 0.26<br/>samples = 13<br/>value = [11, 2]<br/>class = disatisfied>, fillcolor="#ea985d"] ;
604 -> 605 ;
606 [label=<Gate location &le; 2.5<br/>gini = 0.48<br/>samples = 5<br/>value = [3, 2]<br/>class = disatisfied>, fillcolor="#f6d5bd"] ;
605 -> 606 ;
607 [label=<Departure Delay in Minutes &le; 17.0<br/>gini = 0.444<br/>samples = 3<br/>value = [1, 2]<br/>class = satisfied>, fillcolor="#9ccef2"] ;
606 -> 607 ;
608 [label=<gini = 0.0<br/>samples = 2<br/>value = [0, 2]<br/>class = satisfied>, fillcolor="#399de5"] ;
607 -> 608 ;
609 [label=<gini = 0.0<br/>samples = 1<br/>value = [1, 0]<br/>class = disatisfied>, fillcolor="#e58139"] ;
607 -> 609 ;
610 [label=<gini = 0.0<br/>samples = 2<br/>value = [2, 0]<br/>class = disatisfied>, fillcolor="#e58139"] ;
606 -> 610 ;
611 [label=<gini = 0.0<br/>samples = 8<br/>value = [8, 0]<br/>class = disatisfied>, fillcolor="#e58139"] ;
605 -> 611 ;
612 [label=<gini = 0.0<br/>samples = 2<br/>value = [0, 2]<br/>class = satisfied>, fillcolor="#399de5"] ;
604 -> 612 ;
613 [label=<gini = 0.0<br/>samples = 2<br/>value = [0, 2]<br/>class = satisfied>, fillcolor="#399de5"] ;
603 -> 613 ;
614 [label=<gini = 0.0<br/>samples = 8<br/>value = [8, 0]<br/>class = disatisfied>, fillcolor="#e58139"] ;
602 -> 614 ;
615 [label=<gini = 0.0<br/>samples = 1<br/>value = [0, 1]<br/>class = satisfied>, fillcolor="#399de5"] ;
575 -> 615 ;
616 [label=<gini = 0.0<br/>samples = 2<br/>value = [0, 2]<br/>class = satisfied>, fillcolor="#399de5"] ;
574 -> 616 ;
617 [label=<Inflight wifi service &le; 2.5<br/>gini = 0.48<br/>samples = 10<br/>value = [4, 6]<br/>class = satisfied>, fillcolor="#bddef6"] ;
573 -> 617 ;
618 [label=<gini = 0.0<br/>samples = 4<br/>value = [0, 4]<br/>class = satisfied>, fillcolor="#399de5"] ;
617 -> 618 ;
619 [label=<Gender &le; 0.5<br/>gini = 0.444<br/>samples = 6<br/>value = [4, 2]<br/>class = disatisfied>, fillcolor="#f2c09c"] ;
617 -> 619 ;
620 [label=<Departure/Arrival time convenient &le; 2.5<br/>gini = 0.444<br/>samples = 3<br/>value = [1, 2]<br/>class = satisfied>, fillcolor="#9ccef2"] ;
619 -> 620 ;
621 [label=<gini = 0.0<br/>samples = 1<br/>value = [1, 0]<br/>class = disatisfied>, fillcolor="#e58139"] ;
620 -> 621 ;
622 [label=<gini = 0.0<br/>samples = 2<br/>value = [0, 2]<br/>class = satisfied>, fillcolor="#399de5"] ;
620 -> 622 ;
623 [label=<gini = 0.0<br/>samples = 3<br/>value = [3, 0]<br/>class = disatisfied>, fillcolor="#e58139"] ;
619 -> 623 ;
624 [label=<Age &le; 32.5<br/>gini = 0.478<br/>samples = 53<br/>value = [32, 21]<br/>class = disatisfied>, fillcolor="#f6d4bb"] ;
392 -> 624 ;
625 [label=<Arrival Delay in Minutes &le; 125.5<br/>gini = 0.49<br/>samples = 35<br/>value = [15, 20]<br/>class = satisfied>, fillcolor="#cee6f8"] ;
624 -> 625 ;
626 [label=<Class &le; 0.5<br/>gini = 0.444<br/>samples = 30<br/>value = [10, 20]<br/>class = satisfied>, fillcolor="#9ccef2"] ;
625 -> 626 ;
627 [label=<gini = 0.0<br/>samples = 3<br/>value = [3, 0]<br/>class = disatisfied>, fillcolor="#e58139"] ;
626 -> 627 ;
628 [label=<Customer Type &le; 0.5<br/>gini = 0.384<br/>samples = 27<br/>value = [7, 20]<br/>class = satisfied>, fillcolor="#7ebfee"] ;
626 -> 628 ;
629 [label=<Inflight service &le; 2.5<br/>gini = 0.32<br/>samples = 25<br/>value = [5, 20]<br/>class = satisfied>, fillcolor="#6ab6ec"] ;
628 -> 629 ;
630 [label=<Leg room service &le; 2.5<br/>gini = 0.49<br/>samples = 7<br/>value = [4, 3]<br/>class = disatisfied>, fillcolor="#f8e0ce"] ;
629 -> 630 ;
631 [label=<gini = 0.0<br/>samples = 3<br/>value = [3, 0]<br/>class = disatisfied>, fillcolor="#e58139"] ;
630 -> 631 ;
632 [label=<Checkin service &le; 3.5<br/>gini = 0.375<br/>samples = 4<br/>value = [1, 3]<br/>class = satisfied>, fillcolor="#7bbeee"] ;
630 -> 632 ;
633 [label=<gini = 0.0<br/>samples = 3<br/>value = [0, 3]<br/>class = satisfied>, fillcolor="#399de5"] ;
632 -> 633 ;
634 [label=<gini = 0.0<br/>samples = 1<br/>value = [1, 0]<br/>class = disatisfied>, fillcolor="#e58139"] ;
632 -> 634 ;
635 [label=<Arrival Delay in Minutes &le; 23.0<br/>gini = 0.105<br/>samples = 18<br/>value = [1, 17]<br/>class = satisfied>, fillcolor="#45a3e7"] ;
629 -> 635 ;
636 [label=<gini = 0.0<br/>samples = 15<br/>value = [0, 15]<br/>class = satisfied>, fillcolor="#399de5"] ;
635 -> 636 ;
637 [label=<Arrival Delay in Minutes &le; 47.0<br/>gini = 0.444<br/>samples = 3<br/>value = [1, 2]<br/>class = satisfied>, fillcolor="#9ccef2"] ;
635 -> 637 ;
638 [label=<gini = 0.0<br/>samples = 1<br/>value = [1, 0]<br/>class = disatisfied>, fillcolor="#e58139"] ;
637 -> 638 ;
639 [label=<gini = 0.0<br/>samples = 2<br/>value = [0, 2]<br/>class = satisfied>, fillcolor="#399de5"] ;
637 -> 639 ;
640 [label=<gini = 0.0<br/>samples = 2<br/>value = [2, 0]<br/>class = disatisfied>, fillcolor="#e58139"] ;
628 -> 640 ;
641 [label=<gini = 0.0<br/>samples = 5<br/>value = [5, 0]<br/>class = disatisfied>, fillcolor="#e58139"] ;
625 -> 641 ;
642 [label=<Age &le; 56.0<br/>gini = 0.105<br/>samples = 18<br/>value = [17, 1]<br/>class = disatisfied>, fillcolor="#e78845"] ;
624 -> 642 ;
643 [label=<gini = 0.0<br/>samples = 14<br/>value = [14, 0]<br/>class = disatisfied>, fillcolor="#e58139"] ;
642 -> 643 ;
644 [label=<Age &le; 62.5<br/>gini = 0.375<br/>samples = 4<br/>value = [3, 1]<br/>class = disatisfied>, fillcolor="#eeab7b"] ;
642 -> 644 ;
645 [label=<Arrival Delay in Minutes &le; 9.5<br/>gini = 0.5<br/>samples = 2<br/>value = [1, 1]<br/>class = disatisfied>, fillcolor="#ffffff"] ;
644 -> 645 ;
646 [label=<gini = 0.0<br/>samples = 1<br/>value = [0, 1]<br/>class = satisfied>, fillcolor="#399de5"] ;
645 -> 646 ;
647 [label=<gini = 0.0<br/>samples = 1<br/>value = [1, 0]<br/>class = disatisfied>, fillcolor="#e58139"] ;
645 -> 647 ;
648 [label=<gini = 0.0<br/>samples = 2<br/>value = [2, 0]<br/>class = disatisfied>, fillcolor="#e58139"] ;
644 -> 648 ;
649 [label=<Customer Type &le; 0.5<br/>gini = 0.494<br/>samples = 97<br/>value = [54, 43]<br/>class = disatisfied>, fillcolor="#fae5d7"] ;
373 -> 649 ;
650 [label=<Type of Travel &le; 0.5<br/>gini = 0.42<br/>samples = 60<br/>value = [18, 42]<br/>class = satisfied>, fillcolor="#8ec7f0"] ;
649 -> 650 ;
651 [label=<gini = 0.0<br/>samples = 18<br/>value = [18, 0]<br/>class = disatisfied>, fillcolor="#e58139"] ;
650 -> 651 ;
652 [label=<gini = 0.0<br/>samples = 42<br/>value = [0, 42]<br/>class = satisfied>, fillcolor="#399de5"] ;
650 -> 652 ;
653 [label=<On-board service &le; 4.5<br/>gini = 0.053<br/>samples = 37<br/>value = [36, 1]<br/>class = disatisfied>, fillcolor="#e6843e"] ;
649 -> 653 ;
654 [label=<gini = 0.0<br/>samples = 24<br/>value = [24, 0]<br/>class = disatisfied>, fillcolor="#e58139"] ;
653 -> 654 ;
655 [label=<Leg room service &le; 3.5<br/>gini = 0.142<br/>samples = 13<br/>value = [12, 1]<br/>class = disatisfied>, fillcolor="#e78c49"] ;
653 -> 655 ;
656 [label=<gini = 0.0<br/>samples = 8<br/>value = [8, 0]<br/>class = disatisfied>, fillcolor="#e58139"] ;
655 -> 656 ;
657 [label=<Flight Distance &le; 1914.0<br/>gini = 0.32<br/>samples = 5<br/>value = [4, 1]<br/>class = disatisfied>, fillcolor="#eca06a"] ;
655 -> 657 ;
658 [label=<Departure Delay in Minutes &le; 8.5<br/>gini = 0.5<br/>samples = 2<br/>value = [1, 1]<br/>class = disatisfied>, fillcolor="#ffffff"] ;
657 -> 658 ;
659 [label=<gini = 0.0<br/>samples = 1<br/>value = [0, 1]<br/>class = satisfied>, fillcolor="#399de5"] ;
658 -> 659 ;
660 [label=<gini = 0.0<br/>samples = 1<br/>value = [1, 0]<br/>class = disatisfied>, fillcolor="#e58139"] ;
658 -> 660 ;
661 [label=<gini = 0.0<br/>samples = 3<br/>value = [3, 0]<br/>class = disatisfied>, fillcolor="#e58139"] ;
657 -> 661 ;
662 [label=<Type of Travel &le; 0.5<br/>gini = 0.303<br/>samples = 43<br/>value = [8, 35]<br/>class = satisfied>, fillcolor="#66b3eb"] ;
372 -> 662 ;
663 [label=<gini = 0.0<br/>samples = 5<br/>value = [5, 0]<br/>class = disatisfied>, fillcolor="#e58139"] ;
662 -> 663 ;
664 [label=<Customer Type &le; 0.5<br/>gini = 0.145<br/>samples = 38<br/>value = [3, 35]<br/>class = satisfied>, fillcolor="#4aa5e7"] ;
662 -> 664 ;
665 [label=<Online boarding &le; 0.5<br/>gini = 0.054<br/>samples = 36<br/>value = [1, 35]<br/>class = satisfied>, fillcolor="#3fa0e6"] ;
664 -> 665 ;
666 [label=<gini = 0.0<br/>samples = 1<br/>value = [1, 0]<br/>class = disatisfied>, fillcolor="#e58139"] ;
665 -> 666 ;
667 [label=<gini = 0.0<br/>samples = 35<br/>value = [0, 35]<br/>class = satisfied>, fillcolor="#399de5"] ;
665 -> 667 ;
668 [label=<gini = 0.0<br/>samples = 2<br/>value = [2, 0]<br/>class = disatisfied>, fillcolor="#e58139"] ;
664 -> 668 ;
669 [label=<Customer Type &le; 0.5<br/>gini = 0.435<br/>samples = 100<br/>value = [32, 68]<br/>class = satisfied>, fillcolor="#96cbf1"] ;
371 -> 669 ;
670 [label=<Type of Travel &le; 0.5<br/>gini = 0.255<br/>samples = 80<br/>value = [12, 68]<br/>class = satisfied>, fillcolor="#5caeea"] ;
669 -> 670 ;
671 [label=<gini = 0.0<br/>samples = 12<br/>value = [12, 0]<br/>class = disatisfied>, fillcolor="#e58139"] ;
670 -> 671 ;
672 [label=<gini = 0.0<br/>samples = 68<br/>value = [0, 68]<br/>class = satisfied>, fillcolor="#399de5"] ;
670 -> 672 ;
673 [label=<gini = 0.0<br/>samples = 20<br/>value = [20, 0]<br/>class = disatisfied>, fillcolor="#e58139"] ;
669 -> 673 ;
674 [label=<Customer Type &le; 0.5<br/>gini = 0.483<br/>samples = 176<br/>value = [72, 104]<br/>class = satisfied>, fillcolor="#c2e1f7"] ;
370 -> 674 ;
675 [label=<Type of Travel &le; 0.5<br/>gini = 0.281<br/>samples = 124<br/>value = [21, 103]<br/>class = satisfied>, fillcolor="#61b1ea"] ;
674 -> 675 ;
676 [label=<gini = 0.0<br/>samples = 20<br/>value = [20, 0]<br/>class = disatisfied>, fillcolor="#e58139"] ;
675 -> 676 ;
677 [label=<Departure/Arrival time convenient &le; 0.5<br/>gini = 0.019<br/>samples = 104<br/>value = [1, 103]<br/>class = satisfied>, fillcolor="#3b9ee5"] ;
675 -> 677 ;
678 [label=<gini = 0.0<br/>samples = 1<br/>value = [1, 0]<br/>class = disatisfied>, fillcolor="#e58139"] ;
677 -> 678 ;
679 [label=<gini = 0.0<br/>samples = 103<br/>value = [0, 103]<br/>class = satisfied>, fillcolor="#399de5"] ;
677 -> 679 ;
680 [label=<Age &le; 42.5<br/>gini = 0.038<br/>samples = 52<br/>value = [51, 1]<br/>class = disatisfied>, fillcolor="#e6833d"] ;
674 -> 680 ;
681 [label=<gini = 0.0<br/>samples = 45<br/>value = [45, 0]<br/>class = disatisfied>, fillcolor="#e58139"] ;
680 -> 681 ;
682 [label=<Flight Distance &le; 1876.0<br/>gini = 0.245<br/>samples = 7<br/>value = [6, 1]<br/>class = disatisfied>, fillcolor="#e9965a"] ;
680 -> 682 ;
683 [label=<gini = 0.0<br/>samples = 5<br/>value = [5, 0]<br/>class = disatisfied>, fillcolor="#e58139"] ;
682 -> 683 ;
684 [label=<Arrival Delay in Minutes &le; 12.5<br/>gini = 0.5<br/>samples = 2<br/>value = [1, 1]<br/>class = disatisfied>, fillcolor="#ffffff"] ;
682 -> 684 ;
685 [label=<gini = 0.0<br/>samples = 1<br/>value = [0, 1]<br/>class = satisfied>, fillcolor="#399de5"] ;
684 -> 685 ;
686 [label=<gini = 0.0<br/>samples = 1<br/>value = [1, 0]<br/>class = disatisfied>, fillcolor="#e58139"] ;
684 -> 686 ;
687 [label=<Flight Distance &le; 4973.0<br/>gini = 0.027<br/>samples = 4196<br/>value = [4138, 58]<br/>class = disatisfied>, fillcolor="#e5833c"] ;
9 -> 687 ;
688 [label=<Class &le; 0.5<br/>gini = 0.027<br/>samples = 4195<br/>value = [4138, 57]<br/>class = disatisfied>, fillcolor="#e5833c"] ;
687 -> 688 ;
689 [label=<Inflight service &le; 2.5<br/>gini = 0.075<br/>samples = 1051<br/>value = [1010, 41]<br/>class = disatisfied>, fillcolor="#e68641"] ;
688 -> 689 ;
690 [label=<Gender &le; 0.5<br/>gini = 0.224<br/>samples = 163<br/>value = [142, 21]<br/>class = disatisfied>, fillcolor="#e99456"] ;
689 -> 690 ;
691 [label=<Flight Distance &le; 364.5<br/>gini = 0.39<br/>samples = 64<br/>value = [47, 17]<br/>class = disatisfied>, fillcolor="#eeaf81"] ;
690 -> 691 ;
692 [label=<Type of Travel &le; 0.5<br/>gini = 0.469<br/>samples = 16<br/>value = [6, 10]<br/>class = satisfied>, fillcolor="#b0d8f5"] ;
691 -> 692 ;
693 [label=<gini = 0.0<br/>samples = 3<br/>value = [3, 0]<br/>class = disatisfied>, fillcolor="#e58139"] ;
692 -> 693 ;
694 [label=<Arrival Delay in Minutes &le; 12.0<br/>gini = 0.355<br/>samples = 13<br/>value = [3, 10]<br/>class = satisfied>, fillcolor="#74baed"] ;
692 -> 694 ;
695 [label=<Age &le; 46.5<br/>gini = 0.18<br/>samples = 10<br/>value = [1, 9]<br/>class = satisfied>, fillcolor="#4fa8e8"] ;
694 -> 695 ;
696 [label=<Baggage handling &le; 2.0<br/>gini = 0.5<br/>samples = 2<br/>value = [1, 1]<br/>class = disatisfied>, fillcolor="#ffffff"] ;
695 -> 696 ;
697 [label=<gini = 0.0<br/>samples = 1<br/>value = [0, 1]<br/>class = satisfied>, fillcolor="#399de5"] ;
696 -> 697 ;
698 [label=<gini = 0.0<br/>samples = 1<br/>value = [1, 0]<br/>class = disatisfied>, fillcolor="#e58139"] ;
696 -> 698 ;
699 [label=<gini = 0.0<br/>samples = 8<br/>value = [0, 8]<br/>class = satisfied>, fillcolor="#399de5"] ;
695 -> 699 ;
700 [label=<Age &le; 45.0<br/>gini = 0.444<br/>samples = 3<br/>value = [2, 1]<br/>class = disatisfied>, fillcolor="#f2c09c"] ;
694 -> 700 ;
701 [label=<gini = 0.0<br/>samples = 1<br/>value = [0, 1]<br/>class = satisfied>, fillcolor="#399de5"] ;
700 -> 701 ;
702 [label=<gini = 0.0<br/>samples = 2<br/>value = [2, 0]<br/>class = disatisfied>, fillcolor="#e58139"] ;
700 -> 702 ;
703 [label=<Arrival Delay in Minutes &le; 1.0<br/>gini = 0.249<br/>samples = 48<br/>value = [41, 7]<br/>class = disatisfied>, fillcolor="#e9975b"] ;
691 -> 703 ;
704 [label=<Age &le; 35.0<br/>gini = 0.423<br/>samples = 23<br/>value = [16, 7]<br/>class = disatisfied>, fillcolor="#f0b890"] ;
703 -> 704 ;
705 [label=<gini = 0.0<br/>samples = 10<br/>value = [10, 0]<br/>class = disatisfied>, fillcolor="#e58139"] ;
704 -> 705 ;
706 [label=<Type of Travel &le; 0.5<br/>gini = 0.497<br/>samples = 13<br/>value = [6, 7]<br/>class = satisfied>, fillcolor="#e3f1fb"] ;
704 -> 706 ;
707 [label=<gini = 0.0<br/>samples = 4<br/>value = [4, 0]<br/>class = disatisfied>, fillcolor="#e58139"] ;
706 -> 707 ;
708 [label=<Flight Distance &le; 405.0<br/>gini = 0.346<br/>samples = 9<br/>value = [2, 7]<br/>class = satisfied>, fillcolor="#72b9ec"] ;
706 -> 708 ;
709 [label=<On-board service &le; 3.5<br/>gini = 0.444<br/>samples = 3<br/>value = [2, 1]<br/>class = disatisfied>, fillcolor="#f2c09c"] ;
708 -> 709 ;
710 [label=<gini = 0.0<br/>samples = 2<br/>value = [2, 0]<br/>class = disatisfied>, fillcolor="#e58139"] ;
709 -> 710 ;
711 [label=<gini = 0.0<br/>samples = 1<br/>value = [0, 1]<br/>class = satisfied>, fillcolor="#399de5"] ;
709 -> 711 ;
712 [label=<gini = 0.0<br/>samples = 6<br/>value = [0, 6]<br/>class = satisfied>, fillcolor="#399de5"] ;
708 -> 712 ;
713 [label=<gini = 0.0<br/>samples = 25<br/>value = [25, 0]<br/>class = disatisfied>, fillcolor="#e58139"] ;
703 -> 713 ;
714 [label=<Flight Distance &le; 112.0<br/>gini = 0.078<br/>samples = 99<br/>value = [95, 4]<br/>class = disatisfied>, fillcolor="#e68641"] ;
690 -> 714 ;
715 [label=<Checkin service &le; 4.0<br/>gini = 0.5<br/>samples = 2<br/>value = [1, 1]<br/>class = disatisfied>, fillcolor="#ffffff"] ;
714 -> 715 ;
716 [label=<gini = 0.0<br/>samples = 1<br/>value = [0, 1]<br/>class = satisfied>, fillcolor="#399de5"] ;
715 -> 716 ;
717 [label=<gini = 0.0<br/>samples = 1<br/>value = [1, 0]<br/>class = disatisfied>, fillcolor="#e58139"] ;
715 -> 717 ;
718 [label=<Checkin service &le; 4.5<br/>gini = 0.06<br/>samples = 97<br/>value = [94, 3]<br/>class = disatisfied>, fillcolor="#e6853f"] ;
714 -> 718 ;
719 [label=<Arrival Delay in Minutes &le; 54.5<br/>gini = 0.043<br/>samples = 92<br/>value = [90, 2]<br/>class = disatisfied>, fillcolor="#e6843d"] ;
718 -> 719 ;
720 [label=<Checkin service &le; 3.5<br/>gini = 0.024<br/>samples = 81<br/>value = [80, 1]<br/>class = disatisfied>, fillcolor="#e5833b"] ;
719 -> 720 ;
721 [label=<gini = 0.0<br/>samples = 63<br/>value = [63, 0]<br/>class = disatisfied>, fillcolor="#e58139"] ;
720 -> 721 ;
722 [label=<Departure Delay in Minutes &le; 0.5<br/>gini = 0.105<br/>samples = 18<br/>value = [17, 1]<br/>class = disatisfied>, fillcolor="#e78845"] ;
720 -> 722 ;
723 [label=<gini = 0.0<br/>samples = 13<br/>value = [13, 0]<br/>class = disatisfied>, fillcolor="#e58139"] ;
722 -> 723 ;
724 [label=<Arrival Delay in Minutes &le; 4.5<br/>gini = 0.32<br/>samples = 5<br/>value = [4, 1]<br/>class = disatisfied>, fillcolor="#eca06a"] ;
722 -> 724 ;
725 [label=<Cleanliness &le; 2.5<br/>gini = 0.5<br/>samples = 2<br/>value = [1, 1]<br/>class = disatisfied>, fillcolor="#ffffff"] ;
724 -> 725 ;
726 [label=<gini = 0.0<br/>samples = 1<br/>value = [1, 0]<br/>class = disatisfied>, fillcolor="#e58139"] ;
725 -> 726 ;
727 [label=<gini = 0.0<br/>samples = 1<br/>value = [0, 1]<br/>class = satisfied>, fillcolor="#399de5"] ;
725 -> 727 ;
728 [label=<gini = 0.0<br/>samples = 3<br/>value = [3, 0]<br/>class = disatisfied>, fillcolor="#e58139"] ;
724 -> 728 ;
729 [label=<Arrival Delay in Minutes &le; 57.5<br/>gini = 0.165<br/>samples = 11<br/>value = [10, 1]<br/>class = disatisfied>, fillcolor="#e88e4d"] ;
719 -> 729 ;
