digraph Tree {
node [shape=box, style="filled, rounded", color="black", fontname="helvetica"] ;
edge [fontname="helvetica"] ;
0 [label=<Online boarding &le; 3.5<br/>gini = 0.491<br/>samples = 103594<br/>value = [58697, 44897]<br/>class = disatisfied>, fillcolor="#f9e1d0"] ;
1 [label=<Inflight wifi service &le; 0.5<br/>gini = 0.253<br/>samples = 52271<br/>value = [44487, 7784]<br/>class = disatisfied>, fillcolor="#ea975c"] ;
0 -> 1 [labeldistance=2.5, labelangle=45, headlabel="True"] ;
2 [label=<Cleanliness &le; 0.5<br/>gini = 0.009<br/>samples = 1764<br/>value = [8, 1756]<br/>class = satisfied>, fillcolor="#3a9de5"] ;
1 -> 2 ;
3 [label=<gini = 0.0<br/>samples = 8<br/>value = [8, 0]<br/>class = disatisfied>, fillcolor="#e58139"] ;
2 -> 3 ;
4 [label=<gini = 0.0<br/>samples = 1756<br/>value = [0, 1756]<br/>class = satisfied>, fillcolor="#399de5"] ;
2 -> 4 ;
5 [label=<Inflight wifi service &le; 3.5<br/>gini = 0.21<br/>samples = 50507<br/>value = [44479, 6028]<br/>class = disatisfied>, fillcolor="#e99254"] ;
1 -> 5 ;
6 [label=<Class &le; 0.5<br/>gini = 0.121<br/>samples = 45789<br/>value = [42817.0, 2972.0]<br/>class = disatisfied>, fillcolor="#e78a47"] ;
5 -> 6 ;
7 [label=<Inflight entertainment &le; 3.5<br/>gini = 0.306<br/>samples = 12861<br/>value = [10435, 2426]<br/>class = disatisfied>, fillcolor="#eb9e67"] ;
6 -> 7 ;
8 [label=<Cleanliness &le; 4.5<br/>gini = 0.136<br/>samples = 9015<br/>value = [8356, 659]<br/>class = disatisfied>, fillcolor="#e78b49"] ;
7 -> 8 ;
9 [label=<Gate location &le; 3.5<br/>gini = 0.127<br/>samples = 8939<br/>value = [8330, 609]<br/>class = disatisfied>, fillcolor="#e78a47"] ;
8 -> 9 ;
10 [label=<Inflight entertainment &le; 1.5<br/>gini = 0.183<br/>samples = 5794<br/>value = [5202, 592]<br/>class = disatisfied>, fillcolor="#e88f50"] ;
9 -> 10 ;
11 [label=<On-board service &le; 4.5<br/>gini = 0.036<br/>samples = 1417<br/>value = [1391, 26]<br/>class = disatisfied>, fillcolor="#e5833d"] ;
10 -> 11 ;
12 [label=<Seat comfort &le; 4.5<br/>gini = 0.026<br/>samples = 1278<br/>value = [1261, 17]<br/>class = disatisfied>, fillcolor="#e5833c"] ;
11 -> 12 ;
13 [label=<Inflight wifi service &le; 1.5<br/>gini = 0.024<br/>samples = 1259<br/>value = [1244, 15]<br/>class = disatisfied>, fillcolor="#e5833b"] ;
12 -> 13 ;
14 [label=<Departure Delay in Minutes &le; 132.0<br/>gini = 0.01<br/>samples = 824<br/>value = [820.0, 4.0]<br/>class = disatisfied>, fillcolor="#e5823a"] ;
13 -> 14 ;
15 [label=<Ease of Online booking &le; 4.5<br/>gini = 0.005<br/>samples = 816<br/>value = [814, 2]<br/>class = disatisfied>, fillcolor="#e58139"] ;
14 -> 15 ;
16 [label=<Age &le; 58.5<br/>gini = 0.003<br/>samples = 784<br/>value = [783.0, 1.0]<br/>class = disatisfied>, fillcolor="#e58139"] ;
15 -> 16 ;
17 [label=<gini = 0.0<br/>samples = 690<br/>value = [690, 0]<br/>class = disatisfied>, fillcolor="#e58139"] ;
16 -> 17 ;
18 [label=<Age &le; 59.5<br/>gini = 0.021<br/>samples = 94<br/>value = [93, 1]<br/>class = disatisfied>, fillcolor="#e5823b"] ;
16 -> 18 ;
19 [label=<Checkin service &le; 1.5<br/>gini = 0.153<br/>samples = 12<br/>value = [11, 1]<br/>class = disatisfied>, fillcolor="#e78c4b"] ;
18 -> 19 ;
20 [label=<Inflight service &le; 2.5<br/>gini = 0.5<br/>samples = 2<br/>value = [1, 1]<br/>class = disatisfied>, fillcolor="#ffffff"] ;
19 -> 20 ;
21 [label=<gini = 0.0<br/>samples = 1<br/>value = [0, 1]<br/>class = satisfied>, fillcolor="#399de5"] ;
20 -> 21 ;
22 [label=<gini = 0.0<br/>samples = 1<br/>value = [1, 0]<br/>class = disatisfied>, fillcolor="#e58139"] ;
20 -> 22 ;
23 [label=<gini = 0.0<br/>samples = 10<br/>value = [10, 0]<br/>class = disatisfied>, fillcolor="#e58139"] ;
19 -> 23 ;
24 [label=<gini = 0.0<br/>samples = 82<br/>value = [82, 0]<br/>class = disatisfied>, fillcolor="#e58139"] ;
18 -> 24 ;
25 [label=<Flight Distance &le; 3646.5<br/>gini = 0.061<br/>samples = 32<br/>value = [31, 1]<br/>class = disatisfied>, fillcolor="#e6853f"] ;
15 -> 25 ;
26 [label=<gini = 0.0<br/>samples = 29<br/>value = [29, 0]<br/>class = disatisfied>, fillcolor="#e58139"] ;
25 -> 26 ;
27 [label=<Baggage handling &le; 3.5<br/>gini = 0.444<br/>samples = 3<br/>value = [2, 1]<br/>class = disatisfied>, fillcolor="#f2c09c"] ;
25 -> 27 ;
28 [label=<gini = 0.0<br/>samples = 2<br/>value = [2, 0]<br/>class = disatisfied>, fillcolor="#e58139"] ;
27 -> 28 ;
29 [label=<gini = 0.0<br/>samples = 1<br/>value = [0, 1]<br/>class = satisfied>, fillcolor="#399de5"] ;
27 -> 29 ;
30 [label=<Arrival Delay in Minutes &le; 146.0<br/>gini = 0.375<br/>samples = 8<br/>value = [6, 2]<br/>class = disatisfied>, fillcolor="#eeab7b"] ;
14 -> 30 ;
31 [label=<gini = 0.0<br/>samples = 2<br/>value = [0, 2]<br/>class = satisfied>, fillcolor="#399de5"] ;
30 -> 31 ;
32 [label=<gini = 0.0<br/>samples = 6<br/>value = [6, 0]<br/>class = disatisfied>, fillcolor="#e58139"] ;
30 -> 32 ;
33 [label=<Baggage handling &le; 1.5<br/>gini = 0.049<br/>samples = 435<br/>value = [424, 11]<br/>class = disatisfied>, fillcolor="#e6843e"] ;
13 -> 33 ;
34 [label=<Leg room service &le; 4.5<br/>gini = 0.213<br/>samples = 33<br/>value = [29, 4]<br/>class = disatisfied>, fillcolor="#e99254"] ;
33 -> 34 ;
35 [label=<Flight Distance &le; 1988.5<br/>gini = 0.121<br/>samples = 31<br/>value = [29, 2]<br/>class = disatisfied>, fillcolor="#e78a47"] ;
34 -> 35 ;
36 [label=<gini = 0.0<br/>samples = 27<br/>value = [27, 0]<br/>class = disatisfied>, fillcolor="#e58139"] ;
35 -> 36 ;
37 [label=<Cleanliness &le; 2.0<br/>gini = 0.5<br/>samples = 4<br/>value = [2, 2]<br/>class = disatisfied>, fillcolor="#ffffff"] ;
35 -> 37 ;
38 [label=<gini = 0.0<br/>samples = 2<br/>value = [2, 0]<br/>class = disatisfied>, fillcolor="#e58139"] ;
37 -> 38 ;
39 [label=<gini = 0.0<br/>samples = 2<br/>value = [0, 2]<br/>class = satisfied>, fillcolor="#399de5"] ;
37 -> 39 ;
40 [label=<gini = 0.0<br/>samples = 2<br/>value = [0, 2]<br/>class = satisfied>, fillcolor="#399de5"] ;
34 -> 40 ;
41 [label=<Age &le; 27.5<br/>gini = 0.034<br/>samples = 402<br/>value = [395, 7]<br/>class = disatisfied>, fillcolor="#e5833d"] ;
33 -> 41 ;
42 [label=<gini = 0.0<br/>samples = 141<br/>value = [141, 0]<br/>class = disatisfied>, fillcolor="#e58139"] ;
41 -> 42 ;
43 [label=<Age &le; 28.5<br/>gini = 0.052<br/>samples = 261<br/>value = [254, 7]<br/>class = disatisfied>, fillcolor="#e6843e"] ;
41 -> 43 ;
44 [label=<Flight Distance &le; 1504.0<br/>gini = 0.231<br/>samples = 15<br/>value = [13, 2]<br/>class = disatisfied>, fillcolor="#e99457"] ;
43 -> 44 ;
45 [label=<gini = 0.0<br/>samples = 12<br/>value = [12, 0]<br/>class = disatisfied>, fillcolor="#e58139"] ;
44 -> 45 ;
46 [label=<Type of Travel &le; 0.5<br/>gini = 0.444<br/>samples = 3<br/>value = [1, 2]<br/>class = satisfied>, fillcolor="#9ccef2"] ;
44 -> 46 ;
47 [label=<gini = 0.0<br/>samples = 2<br/>value = [0, 2]<br/>class = satisfied>, fillcolor="#399de5"] ;
46 -> 47 ;
48 [label=<gini = 0.0<br/>samples = 1<br/>value = [1, 0]<br/>class = disatisfied>, fillcolor="#e58139"] ;
46 -> 48 ;
49 [label=<Age &le; 36.5<br/>gini = 0.04<br/>samples = 246<br/>value = [241, 5]<br/>class = disatisfied>, fillcolor="#e6843d"] ;
43 -> 49 ;
50 [label=<gini = 0.0<br/>samples = 93<br/>value = [93, 0]<br/>class = disatisfied>, fillcolor="#e58139"] ;
49 -> 50 ;
51 [label=<Inflight service &le; 3.5<br/>gini = 0.063<br/>samples = 153<br/>value = [148, 5]<br/>class = disatisfied>, fillcolor="#e68540"] ;
49 -> 51 ;
52 [label=<gini = 0.0<br/>samples = 61<br/>value = [61, 0]<br/>class = disatisfied>, fillcolor="#e58139"] ;
51 -> 52 ;
53 [label=<Checkin service &le; 4.5<br/>gini = 0.103<br/>samples = 92<br/>value = [87, 5]<br/>class = disatisfied>, fillcolor="#e68844"] ;
51 -> 53 ;
54 [label=<Checkin service &le; 2.5<br/>gini = 0.15<br/>samples = 61<br/>value = [56, 5]<br/>class = disatisfied>, fillcolor="#e78c4b"] ;
53 -> 54 ;
55 [label=<gini = 0.0<br/>samples = 14<br/>value = [14, 0]<br/>class = disatisfied>, fillcolor="#e58139"] ;
54 -> 55 ;
56 [label=<Arrival Delay in Minutes &le; 8.0<br/>gini = 0.19<br/>samples = 47<br/>value = [42, 5]<br/>class = disatisfied>, fillcolor="#e89051"] ;
54 -> 56 ;
57 [label=<On-board service &le; 3.5<br/>gini = 0.145<br/>samples = 38<br/>value = [35, 3]<br/>class = disatisfied>, fillcolor="#e78c4a"] ;
56 -> 57 ;
58 [label=<gini = 0.291<br/>samples = 17<br/>value = [14, 3]<br/>class = disatisfied>, fillcolor="#eb9c63"] ;
57 -> 58 ;
59 [label=<gini = 0.0<br/>samples = 21<br/>value = [21, 0]<br/>class = disatisfied>, fillcolor="#e58139"] ;
57 -> 59 ;
60 [label=<Flight Distance &le; 1400.0<br/>gini = 0.346<br/>samples = 9<br/>value = [7, 2]<br/>class = disatisfied>, fillcolor="#eca572"] ;
56 -> 60 ;
61 [label=<gini = 0.219<br/>samples = 8<br/>value = [7, 1]<br/>class = disatisfied>, fillcolor="#e99355"] ;
60 -> 61 ;
62 [label=<gini = 0.0<br/>samples = 1<br/>value = [0, 1]<br/>class = satisfied>, fillcolor="#399de5"] ;
60 -> 62 ;
63 [label=<gini = 0.0<br/>samples = 31<br/>value = [31, 0]<br/>class = disatisfied>, fillcolor="#e58139"] ;
53 -> 63 ;
64 [label=<Flight Distance &le; 327.0<br/>gini = 0.188<br/>samples = 19<br/>value = [17, 2]<br/>class = disatisfied>, fillcolor="#e89050"] ;
12 -> 64 ;
65 [label=<gini = 0.0<br/>samples = 1<br/>value = [0, 1]<br/>class = satisfied>, fillcolor="#399de5"] ;
64 -> 65 ;
66 [label=<Flight Distance &le; 2659.5<br/>gini = 0.105<br/>samples = 18<br/>value = [17, 1]<br/>class = disatisfied>, fillcolor="#e78845"] ;
64 -> 66 ;
67 [label=<gini = 0.0<br/>samples = 17<br/>value = [17, 0]<br/>class = disatisfied>, fillcolor="#e58139"] ;
66 -> 67 ;
68 [label=<gini = 0.0<br/>samples = 1<br/>value = [0, 1]<br/>class = satisfied>, fillcolor="#399de5"] ;
66 -> 68 ;
69 [label=<Baggage handling &le; 1.5<br/>gini = 0.121<br/>samples = 139<br/>value = [130, 9]<br/>class = disatisfied>, fillcolor="#e78a47"] ;
11 -> 69 ;
70 [label=<Checkin service &le; 2.5<br/>gini = 0.5<br/>samples = 4<br/>value = [2, 2]<br/>class = disatisfied>, fillcolor="#ffffff"] ;
69 -> 70 ;
71 [label=<gini = 0.0<br/>samples = 2<br/>value = [2, 0]<br/>class = disatisfied>, fillcolor="#e58139"] ;
70 -> 71 ;
72 [label=<gini = 0.0<br/>samples = 2<br/>value = [0, 2]<br/>class = satisfied>, fillcolor="#399de5"] ;
70 -> 72 ;
73 [label=<Leg room service &le; 1.5<br/>gini = 0.098<br/>samples = 135<br/>value = [128, 7]<br/>class = disatisfied>, fillcolor="#e68844"] ;
69 -> 73 ;
74 [label=<Age &le; 28.5<br/>gini = 0.444<br/>samples = 6<br/>value = [4, 2]<br/>class = disatisfied>, fillcolor="#f2c09c"] ;
73 -> 74 ;
75 [label=<Arrival Delay in Minutes &le; 2.0<br/>gini = 0.444<br/>samples = 3<br/>value = [1, 2]<br/>class = satisfied>, fillcolor="#9ccef2"] ;
74 -> 75 ;
76 [label=<gini = 0.0<br/>samples = 1<br/>value = [1, 0]<br/>class = disatisfied>, fillcolor="#e58139"] ;
75 -> 76 ;
77 [label=<gini = 0.0<br/>samples = 2<br/>value = [0, 2]<br/>class = satisfied>, fillcolor="#399de5"] ;
75 -> 77 ;
78 [label=<gini = 0.0<br/>samples = 3<br/>value = [3, 0]<br/>class = disatisfied>, fillcolor="#e58139"] ;
74 -> 78 ;
79 [label=<Gender &le; 0.5<br/>gini = 0.075<br/>samples = 129<br/>value = [124, 5]<br/>class = disatisfied>, fillcolor="#e68641"] ;
73 -> 79 ;
80 [label=<Baggage handling &le; 4.5<br/>gini = 0.146<br/>samples = 63<br/>value = [58, 5]<br/>class = disatisfied>, fillcolor="#e78c4a"] ;
79 -> 80 ;
81 [label=<Flight Distance &le; 927.5<br/>gini = 0.245<br/>samples = 35<br/>value = [30, 5]<br/>class = disatisfied>, fillcolor="#e9965a"] ;
80 -> 81 ;
82 [label=<Flight Distance &le; 611.5<br/>gini = 0.375<br/>samples = 20<br/>value = [15, 5]<br/>class = disatisfied>, fillcolor="#eeab7b"] ;
81 -> 82 ;
83 [label=<gini = 0.0<br/>samples = 12<br/>value = [12, 0]<br/>class = disatisfied>, fillcolor="#e58139"] ;
82 -> 83 ;
84 [label=<Gate location &le; 2.5<br/>gini = 0.469<br/>samples = 8<br/>value = [3, 5]<br/>class = satisfied>, fillcolor="#b0d8f5"] ;
82 -> 84 ;
85 [label=<gini = 0.0<br/>samples = 3<br/>value = [0, 3]<br/>class = satisfied>, fillcolor="#399de5"] ;
84 -> 85 ;
86 [label=<Departure Delay in Minutes &le; 9.0<br/>gini = 0.48<br/>samples = 5<br/>value = [3, 2]<br/>class = disatisfied>, fillcolor="#f6d5bd"] ;
84 -> 86 ;
87 [label=<gini = 0.0<br/>samples = 3<br/>value = [3, 0]<br/>class = disatisfied>, fillcolor="#e58139"] ;
86 -> 87 ;
88 [label=<gini = 0.0<br/>samples = 2<br/>value = [0, 2]<br/>class = satisfied>, fillcolor="#399de5"] ;
86 -> 88 ;
89 [label=<gini = 0.0<br/>samples = 15<br/>value = [15, 0]<br/>class = disatisfied>, fillcolor="#e58139"] ;
81 -> 89 ;
90 [label=<gini = 0.0<br/>samples = 28<br/>value = [28, 0]<br/>class = disatisfied>, fillcolor="#e58139"] ;
80 -> 90 ;
91 [label=<gini = 0.0<br/>samples = 66<br/>value = [66, 0]<br/>class = disatisfied>, fillcolor="#e58139"] ;
79 -> 91 ;
92 [label=<Inflight wifi service &le; 1.5<br/>gini = 0.225<br/>samples = 4377<br/>value = [3811, 566]<br/>class = disatisfied>, fillcolor="#e99456"] ;
10 -> 92 ;
93 [label=<Gate location &le; 1.5<br/>gini = 0.415<br/>samples = 596<br/>value = [421, 175]<br/>class = disatisfied>, fillcolor="#f0b58b"] ;
92 -> 93 ;
94 [label=<Customer Type &le; 0.5<br/>gini = 0.466<br/>samples = 278<br/>value = [103.0, 175.0]<br/>class = satisfied>, fillcolor="#aed7f4"] ;
93 -> 94 ;
95 [label=<Type of Travel &le; 0.5<br/>gini = 0.33<br/>samples = 221<br/>value = [46, 175]<br/>class = satisfied>, fillcolor="#6db7ec"] ;
94 -> 95 ;
96 [label=<Baggage handling &le; 1.5<br/>gini = 0.244<br/>samples = 204<br/>value = [29, 175]<br/>class = satisfied>, fillcolor="#5aade9"] ;
95 -> 96 ;
97 [label=<Age &le; 34.0<br/>gini = 0.365<br/>samples = 25<br/>value = [19, 6]<br/>class = disatisfied>, fillcolor="#eda978"] ;
96 -> 97 ;
98 [label=<Online boarding &le; 1.0<br/>gini = 0.245<br/>samples = 7<br/>value = [1, 6]<br/>class = satisfied>, fillcolor="#5aade9"] ;
97 -> 98 ;
99 [label=<gini = 0.0<br/>samples = 1<br/>value = [1, 0]<br/>class = disatisfied>, fillcolor="#e58139"] ;
98 -> 99 ;
100 [label=<gini = 0.0<br/>samples = 6<br/>value = [0, 6]<br/>class = satisfied>, fillcolor="#399de5"] ;
98 -> 100 ;
101 [label=<gini = 0.0<br/>samples = 18<br/>value = [18, 0]<br/>class = disatisfied>, fillcolor="#e58139"] ;
97 -> 101 ;
102 [label=<Seat comfort &le; 1.5<br/>gini = 0.105<br/>samples = 179<br/>value = [10, 169]<br/>class = satisfied>, fillcolor="#45a3e7"] ;
96 -> 102 ;
103 [label=<Departure Delay in Minutes &le; 20.5<br/>gini = 0.498<br/>samples = 17<br/>value = [9, 8]<br/>class = disatisfied>, fillcolor="#fcf1e9"] ;
102 -> 103 ;
104 [label=<Age &le; 38.5<br/>gini = 0.32<br/>samples = 10<br/>value = [2, 8]<br/>class = satisfied>, fillcolor="#6ab6ec"] ;
103 -> 104 ;
105 [label=<On-board service &le; 2.5<br/>gini = 0.444<br/>samples = 3<br/>value = [2, 1]<br/>class = disatisfied>, fillcolor="#f2c09c"] ;
104 -> 105 ;
106 [label=<gini = 0.0<br/>samples = 2<br/>value = [2, 0]<br/>class = disatisfied>, fillcolor="#e58139"] ;
105 -> 106 ;
107 [label=<gini = 0.0<br/>samples = 1<br/>value = [0, 1]<br/>class = satisfied>, fillcolor="#399de5"] ;
105 -> 107 ;
108 [label=<gini = 0.0<br/>samples = 7<br/>value = [0, 7]<br/>class = satisfied>, fillcolor="#399de5"] ;
104 -> 108 ;
109 [label=<gini = 0.0<br/>samples = 7<br/>value = [7, 0]<br/>class = disatisfied>, fillcolor="#e58139"] ;
103 -> 109 ;
110 [label=<Departure/Arrival time convenient &le; 0.5<br/>gini = 0.012<br/>samples = 162<br/>value = [1, 161]<br/>class = satisfied>, fillcolor="#3a9ee5"] ;
102 -> 110 ;
111 [label=<gini = 0.0<br/>samples = 1<br/>value = [1, 0]<br/>class = disatisfied>, fillcolor="#e58139"] ;
110 -> 111 ;
112 [label=<gini = 0.0<br/>samples = 161<br/>value = [0, 161]<br/>class = satisfied>, fillcolor="#399de5"] ;
110 -> 112 ;
113 [label=<gini = 0.0<br/>samples = 17<br/>value = [17, 0]<br/>class = disatisfied>, fillcolor="#e58139"] ;
95 -> 113 ;
114 [label=<gini = 0.0<br/>samples = 57<br/>value = [57, 0]<br/>class = disatisfied>, fillcolor="#e58139"] ;
94 -> 114 ;
115 [label=<gini = 0.0<br/>samples = 318<br/>value = [318, 0]<br/>class = disatisfied>, fillcolor="#e58139"] ;
93 -> 115 ;
116 [label=<Checkin service &le; 4.5<br/>gini = 0.185<br/>samples = 3781<br/>value = [3390, 391]<br/>class = disatisfied>, fillcolor="#e89050"] ;
92 -> 116 ;
117 [label=<Baggage handling &le; 4.5<br/>gini = 0.159<br/>samples = 3484<br/>value = [3181, 303]<br/>class = disatisfied>, fillcolor="#e78d4c"] ;
116 -> 117 ;
118 [label=<Seat comfort &le; 4.5<br/>gini = 0.128<br/>samples = 3161<br/>value = [2943, 218]<br/>class = disatisfied>, fillcolor="#e78a48"] ;
117 -> 118 ;
119 [label=<Inflight service &le; 4.5<br/>gini = 0.113<br/>samples = 3099<br/>value = [2913, 186]<br/>class = disatisfied>, fillcolor="#e78946"] ;
118 -> 119 ;
120 [label=<On-board service &le; 4.5<br/>gini = 0.091<br/>samples = 2932<br/>value = [2792, 140]<br/>class = disatisfied>, fillcolor="#e68743"] ;
119 -> 120 ;
121 [label=<Baggage handling &le; 1.5<br/>gini = 0.077<br/>samples = 2843<br/>value = [2729, 114]<br/>class = disatisfied>, fillcolor="#e68641"] ;
120 -> 121 ;
122 [label=<Flight Distance &le; 2686.5<br/>gini = 0.353<br/>samples = 48<br/>value = [37, 11]<br/>class = disatisfied>, fillcolor="#eda674"] ;
121 -> 122 ;
123 [label=<Inflight service &le; 2.5<br/>gini = 0.229<br/>samples = 38<br/>value = [33, 5]<br/>class = disatisfied>, fillcolor="#e99457"] ;
122 -> 123 ;
124 [label=<Leg room service &le; 4.5<br/>gini = 0.071<br/>samples = 27<br/>value = [26, 1]<br/>class = disatisfied>, fillcolor="#e68641"] ;
123 -> 124 ;
125 [label=<gini = 0.0<br/>samples = 22<br/>value = [22, 0]<br/>class = disatisfied>, fillcolor="#e58139"] ;
124 -> 125 ;
126 [label=<Online boarding &le; 2.5<br/>gini = 0.32<br/>samples = 5<br/>value = [4, 1]<br/>class = disatisfied>, fillcolor="#eca06a"] ;
124 -> 126 ;
127 [label=<gini = 0.0<br/>samples = 4<br/>value = [4, 0]<br/>class = disatisfied>, fillcolor="#e58139"] ;
126 -> 127 ;
128 [label=<gini = 0.0<br/>samples = 1<br/>value = [0, 1]<br/>class = satisfied>, fillcolor="#399de5"] ;
126 -> 128 ;
129 [label=<Gate location &le; 2.5<br/>gini = 0.463<br/>samples = 11<br/>value = [7, 4]<br/>class = disatisfied>, fillcolor="#f4c9aa"] ;
123 -> 129 ;
130 [label=<gini = 0.0<br/>samples = 4<br/>value = [4, 0]<br/>class = disatisfied>, fillcolor="#e58139"] ;
129 -> 130 ;
131 [label=<Type of Travel &le; 0.5<br/>gini = 0.49<br/>samples = 7<br/>value = [3, 4]<br/>class = satisfied>, fillcolor="#cee6f8"] ;
129 -> 131 ;
132 [label=<gini = 0.0<br/>samples = 4<br/>value = [0, 4]<br/>class = satisfied>, fillcolor="#399de5"] ;
131 -> 132 ;
133 [label=<gini = 0.0<br/>samples = 3<br/>value = [3, 0]<br/>class = disatisfied>, fillcolor="#e58139"] ;
131 -> 133 ;
134 [label=<Gate location &le; 1.5<br/>gini = 0.48<br/>samples = 10<br/>value = [4, 6]<br/>class = satisfied>, fillcolor="#bddef6"] ;
122 -> 134 ;
135 [label=<gini = 0.0<br/>samples = 2<br/>value = [2, 0]<br/>class = disatisfied>, fillcolor="#e58139"] ;
134 -> 135 ;
136 [label=<Checkin service &le; 1.5<br/>gini = 0.375<br/>samples = 8<br/>value = [2, 6]<br/>class = satisfied>, fillcolor="#7bbeee"] ;
134 -> 136 ;
137 [label=<gini = 0.0<br/>samples = 1<br/>value = [1, 0]<br/>class = disatisfied>, fillcolor="#e58139"] ;
136 -> 137 ;
138 [label=<Age &le; 26.5<br/>gini = 0.245<br/>samples = 7<br/>value = [1, 6]<br/>class = satisfied>, fillcolor="#5aade9"] ;
136 -> 138 ;
139 [label=<Arrival Delay in Minutes &le; 4.0<br/>gini = 0.5<br/>samples = 2<br/>value = [1, 1]<br/>class = disatisfied>, fillcolor="#ffffff"] ;
138 -> 139 ;
140 [label=<gini = 0.0<br/>samples = 1<br/>value = [0, 1]<br/>class = satisfied>, fillcolor="#399de5"] ;
139 -> 140 ;
141 [label=<gini = 0.0<br/>samples = 1<br/>value = [1, 0]<br/>class = disatisfied>, fillcolor="#e58139"] ;
139 -> 141 ;
142 [label=<gini = 0.0<br/>samples = 5<br/>value = [0, 5]<br/>class = satisfied>, fillcolor="#399de5"] ;
138 -> 142 ;
143 [label=<Online boarding &le; 1.5<br/>gini = 0.071<br/>samples = 2795<br/>value = [2692.0, 103.0]<br/>class = disatisfied>, fillcolor="#e68641"] ;
121 -> 143 ;
144 [label=<Seat comfort &le; 3.5<br/>gini = 0.258<br/>samples = 125<br/>value = [106, 19]<br/>class = disatisfied>, fillcolor="#ea985c"] ;
143 -> 144 ;
145 [label=<Departure/Arrival time convenient &le; 4.5<br/>gini = 0.228<br/>samples = 122<br/>value = [106, 16]<br/>class = disatisfied>, fillcolor="#e99457"] ;
144 -> 145 ;
146 [label=<Arrival Delay in Minutes &le; 12.5<br/>gini = 0.208<br/>samples = 119<br/>value = [105, 14]<br/>class = disatisfied>, fillcolor="#e89253"] ;
145 -> 146 ;
147 [label=<Seat comfort &le; 2.5<br/>gini = 0.313<br/>samples = 67<br/>value = [54, 13]<br/>class = disatisfied>, fillcolor="#eb9f69"] ;
146 -> 147 ;
148 [label=<gini = 0.226<br/>samples = 54<br/>value = [47, 7]<br/>class = disatisfied>, fillcolor="#e99456"] ;
147 -> 148 ;
149 [label=<gini = 0.497<br/>samples = 13<br/>value = [7, 6]<br/>class = disatisfied>, fillcolor="#fbede3"] ;
147 -> 149 ;
150 [label=<Food and drink &le; 1.5<br/>gini = 0.038<br/>samples = 52<br/>value = [51, 1]<br/>class = disatisfied>, fillcolor="#e6833d"] ;
146 -> 150 ;
151 [label=<gini = 0.219<br/>samples = 8<br/>value = [7, 1]<br/>class = disatisfied>, fillcolor="#e99355"] ;
150 -> 151 ;
152 [label=<gini = 0.0<br/>samples = 44<br/>value = [44, 0]<br/>class = disatisfied>, fillcolor="#e58139"] ;
150 -> 152 ;
153 [label=<Seat comfort &le; 1.5<br/>gini = 0.444<br/>samples = 3<br/>value = [1, 2]<br/>class = satisfied>, fillcolor="#9ccef2"] ;
145 -> 153 ;
154 [label=<gini = 0.0<br/>samples = 2<br/>value = [0, 2]<br/>class = satisfied>, fillcolor="#399de5"] ;
153 -> 154 ;
155 [label=<gini = 0.0<br/>samples = 1<br/>value = [1, 0]<br/>class = disatisfied>, fillcolor="#e58139"] ;
153 -> 155 ;
156 [label=<gini = 0.0<br/>samples = 3<br/>value = [0, 3]<br/>class = satisfied>, fillcolor="#399de5"] ;
144 -> 156 ;
157 [label=<Gate location &le; 1.5<br/>gini = 0.061<br/>samples = 2670<br/>value = [2586, 84]<br/>class = disatisfied>, fillcolor="#e6853f"] ;
143 -> 157 ;
158 [label=<Customer Type &le; 0.5<br/>gini = 0.005<br/>samples = 757<br/>value = [755, 2]<br/>class = disatisfied>, fillcolor="#e5813a"] ;
157 -> 158 ;
159 [label=<gini = 0.0<br/>samples = 729<br/>value = [729, 0]<br/>class = disatisfied>, fillcolor="#e58139"] ;
158 -> 159 ;
160 [label=<Departure Delay in Minutes &le; 15.0<br/>gini = 0.133<br/>samples = 28<br/>value = [26, 2]<br/>class = disatisfied>, fillcolor="#e78b48"] ;
158 -> 160 ;
161 [label=<gini = 0.0<br/>samples = 21<br/>value = [21, 0]<br/>class = disatisfied>, fillcolor="#e58139"] ;
160 -> 161 ;
162 [label=<Departure Delay in Minutes &le; 21.5<br/>gini = 0.408<br/>samples = 7<br/>value = [5, 2]<br/>class = disatisfied>, fillcolor="#efb388"] ;
160 -> 162 ;
163 [label=<gini = 0.444<br/>samples = 3<br/>value = [1, 2]<br/>class = satisfied>, fillcolor="#9ccef2"] ;
162 -> 163 ;
164 [label=<gini = 0.0<br/>samples = 4<br/>value = [4, 0]<br/>class = disatisfied>, fillcolor="#e58139"] ;
162 -> 164 ;
165 [label=<Inflight service &le; 1.5<br/>gini = 0.082<br/>samples = 1913<br/>value = [1831, 82]<br/>class = disatisfied>, fillcolor="#e68742"] ;
157 -> 165 ;
166 [label=<Arrival Delay in Minutes &le; 0.5<br/>gini = 0.365<br/>samples = 25<br/>value = [19, 6]<br/>class = disatisfied>, fillcolor="#eda978"] ;
165 -> 166 ;
167 [label=<Flight Distance &le; 2853.5<br/>gini = 0.496<br/>samples = 11<br/>value = [6, 5]<br/>class = disatisfied>, fillcolor="#fbeade"] ;
166 -> 167 ;
168 [label=<gini = 0.469<br/>samples = 8<br/>value = [3, 5]<br/>class = satisfied>, fillcolor="#b0d8f5"] ;
167 -> 168 ;
169 [label=<gini = 0.0<br/>samples = 3<br/>value = [3, 0]<br/>class = disatisfied>, fillcolor="#e58139"] ;
167 -> 169 ;
170 [label=<Age &le; 24.0<br/>gini = 0.133<br/>samples = 14<br/>value = [13, 1]<br/>class = disatisfied>, fillcolor="#e78b48"] ;
166 -> 170 ;
171 [label=<gini = 0.5<br/>samples = 2<br/>value = [1, 1]<br/>class = disatisfied>, fillcolor="#ffffff"] ;
170 -> 171 ;
172 [label=<gini = 0.0<br/>samples = 12<br/>value = [12, 0]<br/>class = disatisfied>, fillcolor="#e58139"] ;
170 -> 172 ;
173 [label=<Leg room service &le; 3.5<br/>gini = 0.077<br/>samples = 1888<br/>value = [1812, 76]<br/>class = disatisfied>, fillcolor="#e68641"] ;
165 -> 173 ;
174 [label=<Age &le; 27.5<br/>gini = 0.062<br/>samples = 1498<br/>value = [1450.0, 48.0]<br/>class = disatisfied>, fillcolor="#e68540"] ;
173 -> 174 ;
175 [label=<gini = 0.112<br/>samples = 302<br/>value = [284, 18]<br/>class = disatisfied>, fillcolor="#e78946"] ;
174 -> 175 ;
176 [label=<gini = 0.049<br/>samples = 1196<br/>value = [1166, 30]<br/>class = disatisfied>, fillcolor="#e6843e"] ;
174 -> 176 ;
177 [label=<Food and drink &le; 3.5<br/>gini = 0.133<br/>samples = 390<br/>value = [362.0, 28.0]<br/>class = disatisfied>, fillcolor="#e78b48"] ;
173 -> 177 ;
178 [label=<gini = 0.101<br/>samples = 374<br/>value = [354, 20]<br/>class = disatisfied>, fillcolor="#e68844"] ;
177 -> 178 ;
179 [label=<gini = 0.5<br/>samples = 16<br/>value = [8, 8]<br/>class = disatisfied>, fillcolor="#ffffff"] ;
177 -> 179 ;
180 [label=<Customer Type &le; 0.5<br/>gini = 0.414<br/>samples = 89<br/>value = [63.0, 26.0]<br/>class = disatisfied>, fillcolor="#f0b58b"] ;
120 -> 180 ;
181 [label=<Departure Delay in Minutes &le; 114.0<br/>gini = 0.497<br/>samples = 52<br/>value = [28, 24]<br/>class = disatisfied>, fillcolor="#fbede3"] ;
180 -> 181 ;
182 [label=<Departure/Arrival time convenient &le; 3.5<br/>gini = 0.485<br/>samples = 41<br/>value = [17, 24]<br/>class = satisfied>, fillcolor="#c5e2f7"] ;
181 -> 182 ;
183 [label=<Age &le; 38.0<br/>gini = 0.415<br/>samples = 34<br/>value = [10, 24]<br/>class = satisfied>, fillcolor="#8bc6f0"] ;
182 -> 183 ;
184 [label=<Leg room service &le; 2.5<br/>gini = 0.252<br/>samples = 27<br/>value = [4, 23]<br/>class = satisfied>, fillcolor="#5baeea"] ;
183 -> 184 ;
185 [label=<Inflight service &le; 3.5<br/>gini = 0.494<br/>samples = 9<br/>value = [4, 5]<br/>class = satisfied>, fillcolor="#d7ebfa"] ;
184 -> 185 ;
186 [label=<gini = 0.32<br/>samples = 5<br/>value = [4, 1]<br/>class = disatisfied>, fillcolor="#eca06a"] ;
185 -> 186 ;
187 [label=<gini = 0.0<br/>samples = 4<br/>value = [0, 4]<br/>class = satisfied>, fillcolor="#399de5"] ;
185 -> 187 ;
188 [label=<gini = 0.0<br/>samples = 18<br/>value = [0, 18]<br/>class = satisfied>, fillcolor="#399de5"] ;
184 -> 188 ;
189 [label=<Flight Distance &le; 2530.5<br/>gini = 0.245<br/>samples = 7<br/>value = [6, 1]<br/>class = disatisfied>, fillcolor="#e9965a"] ;
183 -> 189 ;
190 [label=<gini = 0.0<br/>samples = 6<br/>value = [6, 0]<br/>class = disatisfied>, fillcolor="#e58139"] ;
189 -> 190 ;
191 [label=<gini = 0.0<br/>samples = 1<br/>value = [0, 1]<br/>class = satisfied>, fillcolor="#399de5"] ;
189 -> 191 ;
192 [label=<gini = 0.0<br/>samples = 7<br/>value = [7, 0]<br/>class = disatisfied>, fillcolor="#e58139"] ;
182 -> 192 ;
193 [label=<gini = 0.0<br/>samples = 11<br/>value = [11, 0]<br/>class = disatisfied>, fillcolor="#e58139"] ;
181 -> 193 ;
194 [label=<Age &le; 41.0<br/>gini = 0.102<br/>samples = 37<br/>value = [35, 2]<br/>class = disatisfied>, fillcolor="#e68844"] ;
180 -> 194 ;
195 [label=<gini = 0.0<br/>samples = 33<br/>value = [33, 0]<br/>class = disatisfied>, fillcolor="#e58139"] ;
194 -> 195 ;
196 [label=<Flight Distance &le; 987.5<br/>gini = 0.5<br/>samples = 4<br/>value = [2, 2]<br/>class = disatisfied>, fillcolor="#ffffff"] ;
194 -> 196 ;
197 [label=<gini = 0.0<br/>samples = 2<br/>value = [0, 2]<br/>class = satisfied>, fillcolor="#399de5"] ;
196 -> 197 ;
198 [label=<gini = 0.0<br/>samples = 2<br/>value = [2, 0]<br/>class = disatisfied>, fillcolor="#e58139"] ;
196 -> 198 ;
199 [label=<Customer Type &le; 0.5<br/>gini = 0.399<br/>samples = 167<br/>value = [121.0, 46.0]<br/>class = disatisfied>, fillcolor="#efb184"] ;
119 -> 199 ;
200 [label=<Type of Travel &le; 0.5<br/>gini = 0.388<br/>samples = 57<br/>value = [15, 42]<br/>class = satisfied>, fillcolor="#80c0ee"] ;
199 -> 200 ;
201 [label=<gini = 0.0<br/>samples = 42<br/>value = [0, 42]<br/>class = satisfied>, fillcolor="#399de5"] ;
200 -> 201 ;
202 [label=<gini = 0.0<br/>samples = 15<br/>value = [15, 0]<br/>class = disatisfied>, fillcolor="#e58139"] ;
200 -> 202 ;
203 [label=<Age &le; 37.5<br/>gini = 0.07<br/>samples = 110<br/>value = [106, 4]<br/>class = disatisfied>, fillcolor="#e68640"] ;
199 -> 203 ;
204 [label=<gini = 0.0<br/>samples = 64<br/>value = [64, 0]<br/>class = disatisfied>, fillcolor="#e58139"] ;
203 -> 204 ;
205 [label=<Seat comfort &le; 2.5<br/>gini = 0.159<br/>samples = 46<br/>value = [42, 4]<br/>class = disatisfied>, fillcolor="#e78d4c"] ;
203 -> 205 ;
206 [label=<gini = 0.0<br/>samples = 22<br/>value = [22, 0]<br/>class = disatisfied>, fillcolor="#e58139"] ;
205 -> 206 ;
207 [label=<Flight Distance &le; 413.5<br/>gini = 0.278<br/>samples = 24<br/>value = [20, 4]<br/>class = disatisfied>, fillcolor="#ea9a61"] ;
205 -> 207 ;
208 [label=<gini = 0.0<br/>samples = 9<br/>value = [9, 0]<br/>class = disatisfied>, fillcolor="#e58139"] ;
207 -> 208 ;
209 [label=<Flight Distance &le; 440.0<br/>gini = 0.391<br/>samples = 15<br/>value = [11, 4]<br/>class = disatisfied>, fillcolor="#eeaf81"] ;
207 -> 209 ;
210 [label=<gini = 0.0<br/>samples = 1<br/>value = [0, 1]<br/>class = satisfied>, fillcolor="#399de5"] ;
209 -> 210 ;
211 [label=<Flight Distance &le; 869.0<br/>gini = 0.337<br/>samples = 14<br/>value = [11, 3]<br/>class = disatisfied>, fillcolor="#eca36f"] ;
209 -> 211 ;
212 [label=<Flight Distance &le; 711.5<br/>gini = 0.48<br/>samples = 5<br/>value = [3, 2]<br/>class = disatisfied>, fillcolor="#f6d5bd"] ;
211 -> 212 ;
213 [label=<gini = 0.0<br/>samples = 3<br/>value = [3, 0]<br/>class = disatisfied>, fillcolor="#e58139"] ;
212 -> 213 ;
214 [label=<gini = 0.0<br/>samples = 2<br/>value = [0, 2]<br/>class = satisfied>, fillcolor="#399de5"] ;
212 -> 214 ;
215 [label=<Age &le; 38.5<br/>gini = 0.198<br/>samples = 9<br/>value = [8, 1]<br/>class = disatisfied>, fillcolor="#e89152"] ;
211 -> 215 ;
216 [label=<gini = 0.5<br/>samples = 2<br/>value = [1, 1]<br/>class = disatisfied>, fillcolor="#ffffff"] ;
215 -> 216 ;
217 [label=<gini = 0.0<br/>samples = 7<br/>value = [7, 0]<br/>class = disatisfied>, fillcolor="#e58139"] ;
215 -> 217 ;
218 [label=<Flight Distance &le; 1364.5<br/>gini = 0.499<br/>samples = 62<br/>value = [30, 32]<br/>class = satisfied>, fillcolor="#f3f9fd"] ;
118 -> 218 ;
219 [label=<Age &le; 37.0<br/>gini = 0.346<br/>samples = 36<br/>value = [28, 8]<br/>class = disatisfied>, fillcolor="#eca572"] ;
218 -> 219 ;
220 [label=<gini = 0.0<br/>samples = 14<br/>value = [14, 0]<br/>class = disatisfied>, fillcolor="#e58139"] ;
219 -> 220 ;
221 [label=<Gender &le; 0.5<br/>gini = 0.463<br/>samples = 22<br/>value = [14, 8]<br/>class = disatisfied>, fillcolor="#f4c9aa"] ;
219 -> 221 ;
222 [label=<Leg room service &le; 4.5<br/>gini = 0.463<br/>samples = 11<br/>value = [4, 7]<br/>class = satisfied>, fillcolor="#aad5f4"] ;
221 -> 222 ;
223 [label=<Flight Distance &le; 779.5<br/>gini = 0.346<br/>samples = 9<br/>value = [2, 7]<br/>class = satisfied>, fillcolor="#72b9ec"] ;
222 -> 223 ;
224 [label=<gini = 0.0<br/>samples = 6<br/>value = [0, 6]<br/>class = satisfied>, fillcolor="#399de5"] ;
223 -> 224 ;
225 [label=<Checkin service &le; 2.5<br/>gini = 0.444<br/>samples = 3<br/>value = [2, 1]<br/>class = disatisfied>, fillcolor="#f2c09c"] ;
223 -> 225 ;
226 [label=<gini = 0.0<br/>samples = 1<br/>value = [0, 1]<br/>class = satisfied>, fillcolor="#399de5"] ;
225 -> 226 ;
227 [label=<gini = 0.0<br/>samples = 2<br/>value = [2, 0]<br/>class = disatisfied>, fillcolor="#e58139"] ;
225 -> 227 ;
228 [label=<gini = 0.0<br/>samples = 2<br/>value = [2, 0]<br/>class = disatisfied>, fillcolor="#e58139"] ;
222 -> 228 ;
229 [label=<On-board service &le; 3.5<br/>gini = 0.165<br/>samples = 11<br/>value = [10, 1]<br/>class = disatisfied>, fillcolor="#e88e4d"] ;
221 -> 229 ;
230 [label=<gini = 0.0<br/>samples = 8<br/>value = [8, 0]<br/>class = disatisfied>, fillcolor="#e58139"] ;
229 -> 230 ;
231 [label=<Age &le; 45.0<br/>gini = 0.444<br/>samples = 3<br/>value = [2, 1]<br/>class = disatisfied>, fillcolor="#f2c09c"] ;
229 -> 231 ;
232 [label=<gini = 0.0<br/>samples = 2<br/>value = [2, 0]<br/>class = disatisfied>, fillcolor="#e58139"] ;
231 -> 232 ;
233 [label=<gini = 0.0<br/>samples = 1<br/>value = [0, 1]<br/>class = satisfied>, fillcolor="#399de5"] ;
231 -> 233 ;
234 [label=<On-board service &le; 3.5<br/>gini = 0.142<br/>samples = 26<br/>value = [2, 24]<br/>class = satisfied>, fillcolor="#49a5e7"] ;
218 -> 234 ;
235 [label=<gini = 0.0<br/>samples = 24<br/>value = [0, 24]<br/>class = satisfied>, fillcolor="#399de5"] ;
234 -> 235 ;
236 [label=<gini = 0.0<br/>samples = 2<br/>value = [2, 0]<br/>class = disatisfied>, fillcolor="#e58139"] ;
234 -> 236 ;
237 [label=<Customer Type &le; 0.5<br/>gini = 0.388<br/>samples = 323<br/>value = [238, 85]<br/>class = disatisfied>, fillcolor="#eeae80"] ;
117 -> 237 ;
238 [label=<Type of Travel &le; 0.5<br/>gini = 0.44<br/>samples = 113<br/>value = [37, 76]<br/>class = satisfied>, fillcolor="#99cdf2"] ;
237 -> 238 ;
239 [label=<Gate location &le; 1.5<br/>gini = 0.026<br/>samples = 77<br/>value = [1, 76]<br/>class = satisfied>, fillcolor="#3c9ee5"] ;
238 -> 239 ;
240 [label=<gini = 0.0<br/>samples = 1<br/>value = [1, 0]<br/>class = disatisfied>, fillcolor="#e58139"] ;
239 -> 240 ;
241 [label=<gini = 0.0<br/>samples = 76<br/>value = [0, 76]<br/>class = satisfied>, fillcolor="#399de5"] ;
239 -> 241 ;
242 [label=<gini = 0.0<br/>samples = 36<br/>value = [36, 0]<br/>class = disatisfied>, fillcolor="#e58139"] ;
238 -> 242 ;
243 [label=<Age &le; 37.5<br/>gini = 0.082<br/>samples = 210<br/>value = [201, 9]<br/>class = disatisfied>, fillcolor="#e68742"] ;
237 -> 243 ;
244 [label=<gini = 0.0<br/>samples = 127<br/>value = [127, 0]<br/>class = disatisfied>, fillcolor="#e58139"] ;
243 -> 244 ;
245 [label=<Flight Distance &le; 676.0<br/>gini = 0.193<br/>samples = 83<br/>value = [74, 9]<br/>class = disatisfied>, fillcolor="#e89051"] ;
243 -> 245 ;
246 [label=<Arrival Delay in Minutes &le; 11.0<br/>gini = 0.074<br/>samples = 52<br/>value = [50, 2]<br/>class = disatisfied>, fillcolor="#e68641"] ;
245 -> 246 ;
247 [label=<gini = 0.0<br/>samples = 38<br/>value = [38, 0]<br/>class = disatisfied>, fillcolor="#e58139"] ;
246 -> 247 ;
248 [label=<Inflight service &le; 4.5<br/>gini = 0.245<br/>samples = 14<br/>value = [12, 2]<br/>class = disatisfied>, fillcolor="#e9965a"] ;
246 -> 248 ;
249 [label=<gini = 0.0<br/>samples = 8<br/>value = [8, 0]<br/>class = disatisfied>, fillcolor="#e58139"] ;
248 -> 249 ;
250 [label=<Departure/Arrival time convenient &le; 2.5<br/>gini = 0.444<br/>samples = 6<br/>value = [4, 2]<br/>class = disatisfied>, fillcolor="#f2c09c"] ;
248 -> 250 ;
251 [label=<gini = 0.0<br/>samples = 3<br/>value = [3, 0]<br/>class = disatisfied>, fillcolor="#e58139"] ;
250 -> 251 ;
252 [label=<Age &le; 41.5<br/>gini = 0.444<br/>samples = 3<br/>value = [1, 2]<br/>class = satisfied>, fillcolor="#9ccef2"] ;
250 -> 252 ;
253 [label=<gini = 0.0<br/>samples = 2<br/>value = [0, 2]<br/>class = satisfied>, fillcolor="#399de5"] ;
252 -> 253 ;
254 [label=<gini = 0.0<br/>samples = 1<br/>value = [1, 0]<br/>class = disatisfied>, fillcolor="#e58139"] ;
252 -> 254 ;
255 [label=<Flight Distance &le; 848.0<br/>gini = 0.35<br/>samples = 31<br/>value = [24, 7]<br/>class = disatisfied>, fillcolor="#eda673"] ;
245 -> 255 ;
256 [label=<Age &le; 44.5<br/>gini = 0.5<br/>samples = 8<br/>value = [4, 4]<br/>class = disatisfied>, fillcolor="#ffffff"] ;
255 -> 256 ;
257 [label=<Departure/Arrival time convenient &le; 2.5<br/>gini = 0.32<br/>samples = 5<br/>value = [1, 4]<br/>class = satisfied>, fillcolor="#6ab6ec"] ;
256 -> 257 ;
258 [label=<Inflight service &le; 4.5<br/>gini = 0.5<br/>samples = 2<br/>value = [1, 1]<br/>class = disatisfied>, fillcolor="#ffffff"] ;
257 -> 258 ;
259 [label=<gini = 0.0<br/>samples = 1<br/>value = [0, 1]<br/>class = satisfied>, fillcolor="#399de5"] ;
258 -> 259 ;
260 [label=<gini = 0.0<br/>samples = 1<br/>value = [1, 0]<br/>class = disatisfied>, fillcolor="#e58139"] ;
258 -> 260 ;
261 [label=<gini = 0.0<br/>samples = 3<br/>value = [0, 3]<br/>class = satisfied>, fillcolor="#399de5"] ;
257 -> 261 ;
262 [label=<gini = 0.0<br/>samples = 3<br/>value = [3, 0]<br/>class = disatisfied>, fillcolor="#e58139"] ;
256 -> 262 ;
263 [label=<Leg room service &le; 3.5<br/>gini = 0.227<br/>samples = 23<br/>value = [20, 3]<br/>class = disatisfied>, fillcolor="#e99457"] ;
255 -> 263 ;
264 [label=<On-board service &le; 3.5<br/>gini = 0.444<br/>samples = 9<br/>value = [6, 3]<br/>class = disatisfied>, fillcolor="#f2c09c"] ;
263 -> 264 ;
265 [label=<gini = 0.0<br/>samples = 4<br/>value = [4, 0]<br/>class = disatisfied>, fillcolor="#e58139"] ;
264 -> 265 ;
266 [label=<Ease of Online booking &le; 2.5<br/>gini = 0.48<br/>samples = 5<br/>value = [2, 3]<br/>class = satisfied>, fillcolor="#bddef6"] ;
264 -> 266 ;
267 [label=<gini = 0.0<br/>samples = 2<br/>value = [0, 2]<br/>class = satisfied>, fillcolor="#399de5"] ;
266 -> 267 ;
268 [label=<Age &le; 44.5<br/>gini = 0.444<br/>samples = 3<br/>value = [2, 1]<br/>class = disatisfied>, fillcolor="#f2c09c"] ;
266 -> 268 ;
269 [label=<gini = 0.0<br/>samples = 1<br/>value = [0, 1]<br/>class = satisfied>, fillcolor="#399de5"] ;
268 -> 269 ;
270 [label=<gini = 0.0<br/>samples = 2<br/>value = [2, 0]<br/>class = disatisfied>, fillcolor="#e58139"] ;
268 -> 270 ;
271 [label=<gini = 0.0<br/>samples = 14<br/>value = [14, 0]<br/>class = disatisfied>, fillcolor="#e58139"] ;
263 -> 271 ;
272 [label=<Customer Type &le; 0.5<br/>gini = 0.417<br/>samples = 297<br/>value = [209, 88]<br/>class = disatisfied>, fillcolor="#f0b68c"] ;
116 -> 272 ;
273 [label=<Type of Travel &le; 0.5<br/>gini = 0.37<br/>samples = 110<br/>value = [27, 83]<br/>class = satisfied>, fillcolor="#79bded"] ;
272 -> 273 ;
274 [label=<gini = 0.0<br/>samples = 83<br/>value = [0, 83]<br/>class = satisfied>, fillcolor="#399de5"] ;
273 -> 274 ;
275 [label=<gini = 0.0<br/>samples = 27<br/>value = [27, 0]<br/>class = disatisfied>, fillcolor="#e58139"] ;
273 -> 275 ;
276 [label=<Age &le; 39.5<br/>gini = 0.052<br/>samples = 187<br/>value = [182, 5]<br/>class = disatisfied>, fillcolor="#e6843e"] ;
272 -> 276 ;
277 [label=<gini = 0.0<br/>samples = 139<br/>value = [139, 0]<br/>class = disatisfied>, fillcolor="#e58139"] ;
276 -> 277 ;
278 [label=<On-board service &le; 3.5<br/>gini = 0.187<br/>samples = 48<br/>value = [43, 5]<br/>class = disatisfied>, fillcolor="#e89050"] ;
276 -> 278 ;
279 [label=<Food and drink &le; 2.5<br/>gini = 0.355<br/>samples = 13<br/>value = [10, 3]<br/>class = disatisfied>, fillcolor="#eda774"] ;
278 -> 279 ;
280 [label=<gini = 0.0<br/>samples = 7<br/>value = [7, 0]<br/>class = disatisfied>, fillcolor="#e58139"] ;
279 -> 280 ;
281 [label=<Departure Delay in Minutes &le; 3.0<br/>gini = 0.5<br/>samples = 6<br/>value = [3, 3]<br/>class = disatisfied>, fillcolor="#ffffff"] ;
279 -> 281 ;
282 [label=<Age &le; 47.5<br/>gini = 0.375<br/>samples = 4<br/>value = [3, 1]<br/>class = disatisfied>, fillcolor="#eeab7b"] ;
281 -> 282 ;
283 [label=<Flight Distance &le; 704.0<br/>gini = 0.5<br/>samples = 2<br/>value = [1, 1]<br/>class = disatisfied>, fillcolor="#ffffff"] ;
282 -> 283 ;
284 [label=<gini = 0.0<br/>samples = 1<br/>value = [1, 0]<br/>class = disatisfied>, fillcolor="#e58139"] ;
283 -> 284 ;
285 [label=<gini = 0.0<br/>samples = 1<br/>value = [0, 1]<br/>class = satisfied>, fillcolor="#399de5"] ;
283 -> 285 ;
286 [label=<gini = 0.0<br/>samples = 2<br/>value = [2, 0]<br/>class = disatisfied>, fillcolor="#e58139"] ;
282 -> 286 ;
287 [label=<gini = 0.0<br/>samples = 2<br/>value = [0, 2]<br/>class = satisfied>, fillcolor="#399de5"] ;
281 -> 287 ;
288 [label=<Flight Distance &le; 996.5<br/>gini = 0.108<br/>samples = 35<br/>value = [33, 2]<br/>class = disatisfied>, fillcolor="#e78945"] ;
278 -> 288 ;
289 [label=<gini = 0.0<br/>samples = 25<br/>value = [25, 0]<br/>class = disatisfied>, fillcolor="#e58139"] ;
288 -> 289 ;
290 [label=<Departure Delay in Minutes &le; 4.0<br/>gini = 0.32<br/>samples = 10<br/>value = [8, 2]<br/>class = disatisfied>, fillcolor="#eca06a"] ;
288 -> 290 ;
291 [label=<Seat comfort &le; 2.5<br/>gini = 0.48<br/>samples = 5<br/>value = [3, 2]<br/>class = disatisfied>, fillcolor="#f6d5bd"] ;
290 -> 291 ;
292 [label=<Age &le; 47.0<br/>gini = 0.375<br/>samples = 4<br/>value = [3, 1]<br/>class = disatisfied>, fillcolor="#eeab7b"] ;
291 -> 292 ;
293 [label=<gini = 0.0<br/>samples = 3<br/>value = [3, 0]<br/>class = disatisfied>, fillcolor="#e58139"] ;
292 -> 293 ;
294 [label=<gini = 0.0<br/>samples = 1<br/>value = [0, 1]<br/>class = satisfied>, fillcolor="#399de5"] ;
292 -> 294 ;
295 [label=<gini = 0.0<br/>samples = 1<br/>value = [0, 1]<br/>class = satisfied>, fillcolor="#399de5"] ;
291 -> 295 ;
296 [label=<gini = 0.0<br/>samples = 5<br/>value = [5, 0]<br/>class = disatisfied>, fillcolor="#e58139"] ;
290 -> 296 ;
297 [label=<Flight Distance &le; 4973.0<br/>gini = 0.011<br/>samples = 3145<br/>value = [3128, 17]<br/>class = disatisfied>, fillcolor="#e5823a"] ;
9 -> 297 ;
298 [label=<Customer Type &le; 0.5<br/>gini = 0.01<br/>samples = 3144<br/>value = [3128, 16]<br/>class = disatisfied>, fillcolor="#e5823a"] ;
297 -> 298 ;
299 [label=<gini = 0.0<br/>samples = 2375<br/>value = [2375, 0]<br/>class = disatisfied>, fillcolor="#e58139"] ;
298 -> 299 ;
300 [label=<Age &le; 36.5<br/>gini = 0.041<br/>samples = 769<br/>value = [753, 16]<br/>class = disatisfied>, fillcolor="#e6843d"] ;
298 -> 300 ;
301 [label=<gini = 0.0<br/>samples = 441<br/>value = [441, 0]<br/>class = disatisfied>, fillcolor="#e58139"] ;
300 -> 301 ;
302 [label=<Arrival Delay in Minutes &le; 227.0<br/>gini = 0.093<br/>samples = 328<br/>value = [312, 16]<br/>class = disatisfied>, fillcolor="#e68743"] ;
300 -> 302 ;
303 [label=<Flight Distance &le; 97.5<br/>gini = 0.088<br/>samples = 327<br/>value = [312, 15]<br/>class = disatisfied>, fillcolor="#e68743"] ;
302 -> 303 ;
304 [label=<Inflight wifi service &le; 1.5<br/>gini = 0.5<br/>samples = 2<br/>value = [1, 1]<br/>class = disatisfied>, fillcolor="#ffffff"] ;
303 -> 304 ;
305 [label=<gini = 0.0<br/>samples = 1<br/>value = [1, 0]<br/>class = disatisfied>, fillcolor="#e58139"] ;
304 -> 305 ;
306 [label=<gini = 0.0<br/>samples = 1<br/>value = [0, 1]<br/>class = satisfied>, fillcolor="#399de5"] ;
304 -> 306 ;
307 [label=<Seat comfort &le; 2.5<br/>gini = 0.082<br/>samples = 325<br/>value = [311, 14]<br/>class = disatisfied>, fillcolor="#e68742"] ;
303 -> 307 ;
308 [label=<Departure Delay in Minutes &le; 3.5<br/>gini = 0.048<br/>samples = 205<br/>value = [200, 5]<br/>class = disatisfied>, fillcolor="#e6843e"] ;
307 -> 308 ;
309 [label=<Departure Delay in Minutes &le; 2.5<br/>gini = 0.075<br/>samples = 128<br/>value = [123, 5]<br/>class = disatisfied>, fillcolor="#e68641"] ;
308 -> 309 ;
310 [label=<Arrival Delay in Minutes &le; 15.0<br/>gini = 0.062<br/>samples = 125<br/>value = [121, 4]<br/>class = disatisfied>, fillcolor="#e68540"] ;
309 -> 310 ;
311 [label=<Age &le; 38.5<br/>gini = 0.05<br/>samples = 118<br/>value = [115, 3]<br/>class = disatisfied>, fillcolor="#e6843e"] ;
310 -> 311 ;
312 [label=<Checkin service &le; 4.5<br/>gini = 0.142<br/>samples = 26<br/>value = [24, 2]<br/>class = disatisfied>, fillcolor="#e78c49"] ;
311 -> 312 ;
313 [label=<gini = 0.0<br/>samples = 18<br/>value = [18, 0]<br/>class = disatisfied>, fillcolor="#e58139"] ;
312 -> 313 ;
314 [label=<Flight Distance &le; 354.0<br/>gini = 0.375<br/>samples = 8<br/>value = [6, 2]<br/>class = disatisfied>, fillcolor="#eeab7b"] ;
312 -> 314 ;
315 [label=<gini = 0.0<br/>samples = 1<br/>value = [0, 1]<br/>class = satisfied>, fillcolor="#399de5"] ;
314 -> 315 ;
316 [label=<Inflight entertainment &le; 1.5<br/>gini = 0.245<br/>samples = 7<br/>value = [6, 1]<br/>class = disatisfied>, fillcolor="#e9965a"] ;
314 -> 316 ;
317 [label=<gini = 0.5<br/>samples = 2<br/>value = [1, 1]<br/>class = disatisfied>, fillcolor="#ffffff"] ;
316 -> 317 ;
318 [label=<gini = 0.0<br/>samples = 5<br/>value = [5, 0]<br/>class = disatisfied>, fillcolor="#e58139"] ;
316 -> 318 ;
319 [label=<Online boarding &le; 2.5<br/>gini = 0.022<br/>samples = 92<br/>value = [91, 1]<br/>class = disatisfied>, fillcolor="#e5823b"] ;
311 -> 319 ;
320 [label=<gini = 0.0<br/>samples = 63<br/>value = [63, 0]<br/>class = disatisfied>, fillcolor="#e58139"] ;
319 -> 320 ;
321 [label=<Baggage handling &le; 4.5<br/>gini = 0.067<br/>samples = 29<br/>value = [28, 1]<br/>class = disatisfied>, fillcolor="#e68640"] ;
319 -> 321 ;
322 [label=<gini = 0.0<br/>samples = 21<br/>value = [21, 0]<br/>class = disatisfied>, fillcolor="#e58139"] ;
321 -> 322 ;
323 [label=<Flight Distance &le; 304.5<br/>gini = 0.219<br/>samples = 8<br/>value = [7, 1]<br/>class = disatisfied>, fillcolor="#e99355"] ;
321 -> 323 ;
324 [label=<gini = 0.444<br/>samples = 3<br/>value = [2, 1]<br/>class = disatisfied>, fillcolor="#f2c09c"] ;
323 -> 324 ;
325 [label=<gini = 0.0<br/>samples = 5<br/>value = [5, 0]<br/>class = disatisfied>, fillcolor="#e58139"] ;
323 -> 325 ;
326 [label=<Age &le; 53.0<br/>gini = 0.245<br/>samples = 7<br/>value = [6, 1]<br/>class = disatisfied>, fillcolor="#e9965a"] ;
310 -> 326 ;
327 [label=<gini = 0.0<br/>samples = 6<br/>value = [6, 0]<br/>class = disatisfied>, fillcolor="#e58139"] ;
326 -> 327 ;
328 [label=<gini = 0.0<br/>samples = 1<br/>value = [0, 1]<br/>class = satisfied>, fillcolor="#399de5"] ;
326 -> 328 ;
329 [label=<Food and drink &le; 1.5<br/>gini = 0.444<br/>samples = 3<br/>value = [2, 1]<br/>class = disatisfied>, fillcolor="#f2c09c"] ;
309 -> 329 ;
330 [label=<gini = 0.0<br/>samples = 1<br/>value = [0, 1]<br/>class = satisfied>, fillcolor="#399de5"] ;
329 -> 330 ;
331 [label=<gini = 0.0<br/>samples = 2<br/>value = [2, 0]<br/>class = disatisfied>, fillcolor="#e58139"] ;
329 -> 331 ;
332 [label=<gini = 0.0<br/>samples = 77<br/>value = [77, 0]<br/>class = disatisfied>, fillcolor="#e58139"] ;
308 -> 332 ;
333 [label=<Arrival Delay in Minutes &le; 58.5<br/>gini = 0.139<br/>samples = 120<br/>value = [111, 9]<br/>class = disatisfied>, fillcolor="#e78b49"] ;
307 -> 333 ;
334 [label=<Cleanliness &le; 1.5<br/>gini = 0.115<br/>samples = 114<br/>value = [107, 7]<br/>class = disatisfied>, fillcolor="#e78946"] ;
333 -> 334 ;
335 [label=<Seat comfort &le; 4.5<br/>gini = 0.444<br/>samples = 6<br/>value = [4, 2]<br/>class = disatisfied>, fillcolor="#f2c09c"] ;
334 -> 335 ;
336 [label=<Flight Distance &le; 492.5<br/>gini = 0.444<br/>samples = 3<br/>value = [1, 2]<br/>class = satisfied>, fillcolor="#9ccef2"] ;
335 -> 336 ;
337 [label=<gini = 0.0<br/>samples = 1<br/>value = [1, 0]<br/>class = disatisfied>, fillcolor="#e58139"] ;
336 -> 337 ;
338 [label=<gini = 0.0<br/>samples = 2<br/>value = [0, 2]<br/>class = satisfied>, fillcolor="#399de5"] ;
336 -> 338 ;
339 [label=<gini = 0.0<br/>samples = 3<br/>value = [3, 0]<br/>class = disatisfied>, fillcolor="#e58139"] ;
335 -> 339 ;
340 [label=<Age &le; 37.5<br/>gini = 0.088<br/>samples = 108<br/>value = [103, 5]<br/>class = disatisfied>, fillcolor="#e68743"] ;
334 -> 340 ;
341 [label=<Leg room service &le; 2.5<br/>gini = 0.278<br/>samples = 12<br/>value = [10, 2]<br/>class = disatisfied>, fillcolor="#ea9a61"] ;
340 -> 341 ;
342 [label=<Departure Delay in Minutes &le; 2.5<br/>gini = 0.444<br/>samples = 3<br/>value = [1, 2]<br/>class = satisfied>, fillcolor="#9ccef2"] ;
341 -> 342 ;
343 [label=<gini = 0.0<br/>samples = 1<br/>value = [1, 0]<br/>class = disatisfied>, fillcolor="#e58139"] ;
342 -> 343 ;
344 [label=<gini = 0.0<br/>samples = 2<br/>value = [0, 2]<br/>class = satisfied>, fillcolor="#399de5"] ;
342 -> 344 ;
345 [label=<gini = 0.0<br/>samples = 9<br/>value = [9, 0]<br/>class = disatisfied>, fillcolor="#e58139"] ;
341 -> 345 ;
346 [label=<Online boarding &le; 2.5<br/>gini = 0.061<br/>samples = 96<br/>value = [93, 3]<br/>class = disatisfied>, fillcolor="#e6853f"] ;
340 -> 346 ;
347 [label=<Age &le; 44.5<br/>gini = 0.117<br/>samples = 48<br/>value = [45, 3]<br/>class = disatisfied>, fillcolor="#e78946"] ;
346 -> 347 ;
348 [label=<Flight Distance &le; 1207.5<br/>gini = 0.05<br/>samples = 39<br/>value = [38, 1]<br/>class = disatisfied>, fillcolor="#e6843e"] ;
347 -> 348 ;
349 [label=<gini = 0.0<br/>samples = 33<br/>value = [33, 0]<br/>class = disatisfied>, fillcolor="#e58139"] ;
348 -> 349 ;
350 [label=<Flight Distance &le; 1360.5<br/>gini = 0.278<br/>samples = 6<br/>value = [5, 1]<br/>class = disatisfied>, fillcolor="#ea9a61"] ;
348 -> 350 ;
351 [label=<gini = 0.0<br/>samples = 1<br/>value = [0, 1]<br/>class = satisfied>, fillcolor="#399de5"] ;
350 -> 351 ;
352 [label=<gini = 0.0<br/>samples = 5<br/>value = [5, 0]<br/>class = disatisfied>, fillcolor="#e58139"] ;
350 -> 352 ;
353 [label=<Flight Distance &le; 389.0<br/>gini = 0.346<br/>samples = 9<br/>value = [7, 2]<br/>class = disatisfied>, fillcolor="#eca572"] ;
347 -> 353 ;
354 [label=<Flight Distance &le; 163.0<br/>gini = 0.5<br/>samples = 4<br/>value = [2, 2]<br/>class = disatisfied>, fillcolor="#ffffff"] ;
353 -> 354 ;
355 [label=<gini = 0.0<br/>samples = 2<br/>value = [2, 0]<br/>class = disatisfied>, fillcolor="#e58139"] ;
354 -> 355 ;
356 [label=<gini = 0.0<br/>samples = 2<br/>value = [0, 2]<br/>class = satisfied>, fillcolor="#399de5"] ;
354 -> 356 ;
357 [label=<gini = 0.0<br/>samples = 5<br/>value = [5, 0]<br/>class = disatisfied>, fillcolor="#e58139"] ;
353 -> 357 ;
358 [label=<gini = 0.0<br/>samples = 48<br/>value = [48, 0]<br/>class = disatisfied>, fillcolor="#e58139"] ;
346 -> 358 ;
359 [label=<Baggage handling &le; 4.5<br/>gini = 0.444<br/>samples = 6<br/>value = [4, 2]<br/>class = disatisfied>, fillcolor="#f2c09c"] ;
333 -> 359 ;
360 [label=<gini = 0.0<br/>samples = 3<br/>value = [3, 0]<br/>class = disatisfied>, fillcolor="#e58139"] ;
359 -> 360 ;
361 [label=<Flight Distance &le; 1801.5<br/>gini = 0.444<br/>samples = 3<br/>value = [1, 2]<br/>class = satisfied>, fillcolor="#9ccef2"] ;
359 -> 361 ;
362 [label=<gini = 0.0<br/>samples = 2<br/>value = [0, 2]<br/>class = satisfied>, fillcolor="#399de5"] ;
361 -> 362 ;
363 [label=<gini = 0.0<br/>samples = 1<br/>value = [1, 0]<br/>class = disatisfied>, fillcolor="#e58139"] ;
361 -> 363 ;
364 [label=<gini = 0.0<br/>samples = 1<br/>value = [0, 1]<br/>class = satisfied>, fillcolor="#399de5"] ;
302 -> 364 ;
365 [label=<gini = 0.0<br/>samples = 1<br/>value = [0, 1]<br/>class = satisfied>, fillcolor="#399de5"] ;
297 -> 365 ;
366 [label=<Type of Travel &le; 0.5<br/>gini = 0.45<br/>samples = 76<br/>value = [26, 50]<br/>class = satisfied>, fillcolor="#a0d0f3"] ;
8 -> 366 ;
367 [label=<Customer Type &le; 0.5<br/>gini = 0.191<br/>samples = 56<br/>value = [6, 50]<br/>class = satisfied>, fillcolor="#51a9e8"] ;
366 -> 367 ;
368 [label=<Flight Distance &le; 3872.0<br/>gini = 0.074<br/>samples = 52<br/>value = [2, 50]<br/>class = satisfied>, fillcolor="#41a1e6"] ;
367 -> 368 ;
369 [label=<Arrival Delay in Minutes &le; 122.5<br/>gini = 0.038<br/>samples = 51<br/>value = [1, 50]<br/>class = satisfied>, fillcolor="#3d9fe6"] ;
368 -> 369 ;
370 [label=<gini = 0.0<br/>samples = 50<br/>value = [0, 50]<br/>class = satisfied>, fillcolor="#399de5"] ;
369 -> 370 ;
371 [label=<gini = 0.0<br/>samples = 1<br/>value = [1, 0]<br/>class = disatisfied>, fillcolor="#e58139"] ;
369 -> 371 ;
372 [label=<gini = 0.0<br/>samples = 1<br/>value = [1, 0]<br/>class = disatisfied>, fillcolor="#e58139"] ;
368 -> 372 ;
373 [label=<gini = 0.0<br/>samples = 4<br/>value = [4, 0]<br/>class = disatisfied>, fillcolor="#e58139"] ;
367 -> 373 ;
374 [label=<gini = 0.0<br/>samples = 20<br/>value = [20, 0]<br/>class = disatisfied>, fillcolor="#e58139"] ;
366 -> 374 ;
375 [label=<Customer Type &le; 0.5<br/>gini = 0.497<br/>samples = 3846<br/>value = [2079, 1767]<br/>class = disatisfied>, fillcolor="#fbece1"] ;
7 -> 375 ;
376 [label=<Type of Travel &le; 0.5<br/>gini = 0.38<br/>samples = 2290<br/>value = [584, 1706]<br/>class = satisfied>, fillcolor="#7dbfee"] ;
375 -> 376 ;
377 [label=<Leg room service &le; 3.5<br/>gini = 0.193<br/>samples = 1913<br/>value = [207, 1706]<br/>class = satisfied>, fillcolor="#51a9e8"] ;
376 -> 377 ;
378 [label=<Baggage handling &le; 3.5<br/>gini = 0.317<br/>samples = 147<br/>value = [118, 29]<br/>class = disatisfied>, fillcolor="#eba06a"] ;
377 -> 378 ;
379 [label=<Flight Distance &le; 2848.0<br/>gini = 0.098<br/>samples = 77<br/>value = [73, 4]<br/>class = disatisfied>, fillcolor="#e68844"] ;
378 -> 379 ;
380 [label=<Inflight service &le; 4.5<br/>gini = 0.034<br/>samples = 58<br/>value = [57, 1]<br/>class = disatisfied>, fillcolor="#e5833c"] ;
379 -> 380 ;
381 [label=<gini = 0.0<br/>samples = 55<br/>value = [55, 0]<br/>class = disatisfied>, fillcolor="#e58139"] ;
380 -> 381 ;
382 [label=<On-board service &le; 4.5<br/>gini = 0.444<br/>samples = 3<br/>value = [2, 1]<br/>class = disatisfied>, fillcolor="#f2c09c"] ;
380 -> 382 ;
383 [label=<gini = 0.0<br/>samples = 1<br/>value = [0, 1]<br/>class = satisfied>, fillcolor="#399de5"] ;
382 -> 383 ;
384 [label=<gini = 0.0<br/>samples = 2<br/>value = [2, 0]<br/>class = disatisfied>, fillcolor="#e58139"] ;
382 -> 384 ;
385 [label=<Flight Distance &le; 3044.5<br/>gini = 0.266<br/>samples = 19<br/>value = [16, 3]<br/>class = disatisfied>, fillcolor="#ea995e"] ;
379 -> 385 ;
386 [label=<Age &le; 47.0<br/>gini = 0.444<br/>samples = 3<br/>value = [1, 2]<br/>class = satisfied>, fillcolor="#9ccef2"] ;
385 -> 386 ;
387 [label=<gini = 0.0<br/>samples = 2<br/>value = [0, 2]<br/>class = satisfied>, fillcolor="#399de5"] ;
386 -> 387 ;
388 [label=<gini = 0.0<br/>samples = 1<br/>value = [1, 0]<br/>class = disatisfied>, fillcolor="#e58139"] ;
386 -> 388 ;
389 [label=<Inflight wifi service &le; 2.5<br/>gini = 0.117<br/>samples = 16<br/>value = [15, 1]<br/>class = disatisfied>, fillcolor="#e78946"] ;
385 -> 389 ;
390 [label=<gini = 0.0<br/>samples = 14<br/>value = [14, 0]<br/>class = disatisfied>, fillcolor="#e58139"] ;
389 -> 390 ;
391 [label=<On-board service &le; 4.0<br/>gini = 0.5<br/>samples = 2<br/>value = [1, 1]<br/>class = disatisfied>, fillcolor="#ffffff"] ;
389 -> 391 ;
392 [label=<gini = 0.0<br/>samples = 1<br/>value = [1, 0]<br/>class = disatisfied>, fillcolor="#e58139"] ;
391 -> 392 ;
393 [label=<gini = 0.0<br/>samples = 1<br/>value = [0, 1]<br/>class = satisfied>, fillcolor="#399de5"] ;
391 -> 393 ;
394 [label=<Departure/Arrival time convenient &le; 0.5<br/>gini = 0.459<br/>samples = 70<br/>value = [45, 25]<br/>class = disatisfied>, fillcolor="#f3c7a7"] ;
378 -> 394 ;
395 [label=<gini = 0.0<br/>samples = 24<br/>value = [24, 0]<br/>class = disatisfied>, fillcolor="#e58139"] ;
394 -> 395 ;
396 [label=<Departure Delay in Minutes &le; 76.5<br/>gini = 0.496<br/>samples = 46<br/>value = [21, 25]<br/>class = satisfied>, fillcolor="#dfeffb"] ;
394 -> 396 ;
397 [label=<Gate location &le; 3.5<br/>gini = 0.32<br/>samples = 30<br/>value = [6, 24]<br/>class = satisfied>, fillcolor="#6ab6ec"] ;
396 -> 397 ;
398 [label=<Food and drink &le; 1.5<br/>gini = 0.198<br/>samples = 27<br/>value = [3, 24]<br/>class = satisfied>, fillcolor="#52a9e8"] ;
397 -> 398 ;
399 [label=<Online boarding &le; 2.0<br/>gini = 0.444<br/>samples = 3<br/>value = [2, 1]<br/>class = disatisfied>, fillcolor="#f2c09c"] ;
398 -> 399 ;
400 [label=<gini = 0.0<br/>samples = 2<br/>value = [2, 0]<br/>class = disatisfied>, fillcolor="#e58139"] ;
399 -> 400 ;
401 [label=<gini = 0.0<br/>samples = 1<br/>value = [0, 1]<br/>class = satisfied>, fillcolor="#399de5"] ;
399 -> 401 ;
402 [label=<On-board service &le; 4.5<br/>gini = 0.08<br/>samples = 24<br/>value = [1, 23]<br/>class = satisfied>, fillcolor="#42a1e6"] ;
398 -> 402 ;
403 [label=<gini = 0.0<br/>samples = 21<br/>value = [0, 21]<br/>class = satisfied>, fillcolor="#399de5"] ;
402 -> 403 ;
404 [label=<Departure/Arrival time convenient &le; 2.5<br/>gini = 0.444<br/>samples = 3<br/>value = [1, 2]<br/>class = satisfied>, fillcolor="#9ccef2"] ;
402 -> 404 ;
405 [label=<gini = 0.0<br/>samples = 2<br/>value = [0, 2]<br/>class = satisfied>, fillcolor="#399de5"] ;
404 -> 405 ;
406 [label=<gini = 0.0<br/>samples = 1<br/>value = [1, 0]<br/>class = disatisfied>, fillcolor="#e58139"] ;
404 -> 406 ;
407 [label=<gini = 0.0<br/>samples = 3<br/>value = [3, 0]<br/>class = disatisfied>, fillcolor="#e58139"] ;
397 -> 407 ;
408 [label=<Baggage handling &le; 4.5<br/>gini = 0.117<br/>samples = 16<br/>value = [15, 1]<br/>class = disatisfied>, fillcolor="#e78946"] ;
396 -> 408 ;
409 [label=<gini = 0.0<br/>samples = 15<br/>value = [15, 0]<br/>class = disatisfied>, fillcolor="#e58139"] ;
408 -> 409 ;
410 [label=<gini = 0.0<br/>samples = 1<br/>value = [0, 1]<br/>class = satisfied>, fillcolor="#399de5"] ;
408 -> 410 ;
411 [label=<Gate location &le; 3.5<br/>gini = 0.096<br/>samples = 1766<br/>value = [89, 1677]<br/>class = satisfied>, fillcolor="#44a2e6"] ;
377 -> 411 ;
412 [label=<Baggage handling &le; 2.5<br/>gini = 0.057<br/>samples = 1728<br/>value = [51, 1677]<br/>class = satisfied>, fillcolor="#3fa0e6"] ;
411 -> 412 ;
413 [label=<On-board service &le; 3.5<br/>gini = 0.269<br/>samples = 25<br/>value = [21, 4]<br/>class = disatisfied>, fillcolor="#ea995f"] ;
412 -> 413 ;
414 [label=<gini = 0.0<br/>samples = 3<br/>value = [0, 3]<br/>class = satisfied>, fillcolor="#399de5"] ;
413 -> 414 ;
415 [label=<Seat comfort &le; 1.5<br/>gini = 0.087<br/>samples = 22<br/>value = [21, 1]<br/>class = disatisfied>, fillcolor="#e68742"] ;
413 -> 415 ;
416 [label=<gini = 0.0<br/>samples = 1<br/>value = [0, 1]<br/>class = satisfied>, fillcolor="#399de5"] ;
415 -> 416 ;
417 [label=<gini = 0.0<br/>samples = 21<br/>value = [21, 0]<br/>class = disatisfied>, fillcolor="#e58139"] ;
415 -> 417 ;
418 [label=<Inflight service &le; 3.5<br/>gini = 0.035<br/>samples = 1703<br/>value = [30.0, 1673.0]<br/>class = satisfied>, fillcolor="#3d9fe5"] ;
412 -> 418 ;
419 [label=<Baggage handling &le; 4.5<br/>gini = 0.497<br/>samples = 41<br/>value = [22, 19]<br/>class = disatisfied>, fillcolor="#fbeee4"] ;
418 -> 419 ;
420 [label=<Age &le; 40.5<br/>gini = 0.391<br/>samples = 30<br/>value = [22, 8]<br/>class = disatisfied>, fillcolor="#eeaf81"] ;
419 -> 420 ;
421 [label=<Seat comfort &le; 3.5<br/>gini = 0.095<br/>samples = 20<br/>value = [19, 1]<br/>class = disatisfied>, fillcolor="#e68843"] ;
420 -> 421 ;
422 [label=<gini = 0.0<br/>samples = 18<br/>value = [18, 0]<br/>class = disatisfied>, fillcolor="#e58139"] ;
421 -> 422 ;
423 [label=<Departure Delay in Minutes &le; 4.0<br/>gini = 0.5<br/>samples = 2<br/>value = [1, 1]<br/>class = disatisfied>, fillcolor="#ffffff"] ;
421 -> 423 ;
424 [label=<gini = 0.0<br/>samples = 1<br/>value = [0, 1]<br/>class = satisfied>, fillcolor="#399de5"] ;
423 -> 424 ;
425 [label=<gini = 0.0<br/>samples = 1<br/>value = [1, 0]<br/>class = disatisfied>, fillcolor="#e58139"] ;
423 -> 425 ;
426 [label=<Inflight service &le; 2.5<br/>gini = 0.42<br/>samples = 10<br/>value = [3, 7]<br/>class = satisfied>, fillcolor="#8ec7f0"] ;
420 -> 426 ;
427 [label=<gini = 0.0<br/>samples = 3<br/>value = [3, 0]<br/>class = disatisfied>, fillcolor="#e58139"] ;
426 -> 427 ;
428 [label=<gini = 0.0<br/>samples = 7<br/>value = [0, 7]<br/>class = satisfied>, fillcolor="#399de5"] ;
426 -> 428 ;
429 [label=<gini = 0.0<br/>samples = 11<br/>value = [0, 11]<br/>class = satisfied>, fillcolor="#399de5"] ;
419 -> 429 ;
430 [label=<Baggage handling &le; 3.5<br/>gini = 0.01<br/>samples = 1662<br/>value = [8, 1654]<br/>class = satisfied>, fillcolor="#3a9de5"] ;
418 -> 430 ;
431 [label=<Inflight wifi service &le; 2.5<br/>gini = 0.193<br/>samples = 74<br/>value = [8, 66]<br/>class = satisfied>, fillcolor="#51a9e8"] ;
430 -> 431 ;
432 [label=<Departure Delay in Minutes &le; 104.0<br/>gini = 0.04<br/>samples = 49<br/>value = [1.0, 48.0]<br/>class = satisfied>, fillcolor="#3d9fe6"] ;
431 -> 432 ;
433 [label=<gini = 0.0<br/>samples = 48<br/>value = [0, 48]<br/>class = satisfied>, fillcolor="#399de5"] ;
432 -> 433 ;
434 [label=<gini = 0.0<br/>samples = 1<br/>value = [1, 0]<br/>class = disatisfied>, fillcolor="#e58139"] ;
432 -> 434 ;
435 [label=<Gate location &le; 2.5<br/>gini = 0.403<br/>samples = 25<br/>value = [7.0, 18.0]<br/>class = satisfied>, fillcolor="#86c3ef"] ;
431 -> 435 ;
436 [label=<gini = 0.0<br/>samples = 5<br/>value = [5, 0]<br/>class = disatisfied>, fillcolor="#e58139"] ;
435 -> 436 ;
437 [label=<Flight Distance &le; 3610.5<br/>gini = 0.18<br/>samples = 20<br/>value = [2, 18]<br/>class = satisfied>, fillcolor="#4fa8e8"] ;
435 -> 437 ;
438 [label=<Food and drink &le; 4.5<br/>gini = 0.1<br/>samples = 19<br/>value = [1, 18]<br/>class = satisfied>, fillcolor="#44a2e6"] ;
437 -> 438 ;
439 [label=<gini = 0.0<br/>samples = 15<br/>value = [0, 15]<br/>class = satisfied>, fillcolor="#399de5"] ;
438 -> 439 ;
440 [label=<Checkin service &le; 1.5<br/>gini = 0.375<br/>samples = 4<br/>value = [1, 3]<br/>class = satisfied>, fillcolor="#7bbeee"] ;
438 -> 440 ;
441 [label=<gini = 0.0<br/>samples = 1<br/>value = [1, 0]<br/>class = disatisfied>, fillcolor="#e58139"] ;
440 -> 441 ;
442 [label=<gini = 0.0<br/>samples = 3<br/>value = [0, 3]<br/>class = satisfied>, fillcolor="#399de5"] ;
440 -> 442 ;
443 [label=<gini = 0.0<br/>samples = 1<br/>value = [1, 0]<br/>class = disatisfied>, fillcolor="#e58139"] ;
437 -> 443 ;
444 [label=<gini = 0.0<br/>samples = 1588<br/>value = [0, 1588]<br/>class = satisfied>, fillcolor="#399de5"] ;
430 -> 444 ;
445 [label=<gini = 0.0<br/>samples = 38<br/>value = [38, 0]<br/>class = disatisfied>, fillcolor="#e58139"] ;
411 -> 445 ;
446 [label=<gini = 0.0<br/>samples = 377<br/>value = [377, 0]<br/>class = disatisfied>, fillcolor="#e58139"] ;
376 -> 446 ;
447 [label=<Age &le; 36.5<br/>gini = 0.075<br/>samples = 1556<br/>value = [1495, 61]<br/>class = disatisfied>, fillcolor="#e68641"] ;
375 -> 447 ;
448 [label=<gini = 0.0<br/>samples = 870<br/>value = [870, 0]<br/>class = disatisfied>, fillcolor="#e58139"] ;
447 -> 448 ;
449 [label=<Inflight wifi service &le; 1.5<br/>gini = 0.162<br/>samples = 686<br/>value = [625, 61]<br/>class = disatisfied>, fillcolor="#e88d4c"] ;
447 -> 449 ;
450 [label=<gini = 0.0<br/>samples = 142<br/>value = [142, 0]<br/>class = disatisfied>, fillcolor="#e58139"] ;
449 -> 450 ;
451 [label=<Flight Distance &le; 1560.0<br/>gini = 0.199<br/>samples = 544<br/>value = [483, 61]<br/>class = disatisfied>, fillcolor="#e89152"] ;
449 -> 451 ;
452 [label=<Leg room service &le; 2.5<br/>gini = 0.216<br/>samples = 494<br/>value = [433, 61]<br/>class = disatisfied>, fillcolor="#e99355"] ;
451 -> 452 ;
453 [label=<Departure Delay in Minutes &le; 115.5<br/>gini = 0.121<br/>samples = 155<br/>value = [145, 10]<br/>class = disatisfied>, fillcolor="#e78a47"] ;
452 -> 453 ;
454 [label=<Age &le; 64.5<br/>gini = 0.11<br/>samples = 154<br/>value = [145, 9]<br/>class = disatisfied>, fillcolor="#e78945"] ;
453 -> 454 ;
455 [label=<Flight Distance &le; 245.0<br/>gini = 0.1<br/>samples = 152<br/>value = [144, 8]<br/>class = disatisfied>, fillcolor="#e68844"] ;
454 -> 455 ;
456 [label=<gini = 0.0<br/>samples = 36<br/>value = [36, 0]<br/>class = disatisfied>, fillcolor="#e58139"] ;
455 -> 456 ;
457 [label=<Flight Distance &le; 254.5<br/>gini = 0.128<br/>samples = 116<br/>value = [108, 8]<br/>class = disatisfied>, fillcolor="#e78a48"] ;
455 -> 457 ;
458 [label=<gini = 0.0<br/>samples = 1<br/>value = [0, 1]<br/>class = satisfied>, fillcolor="#399de5"] ;
457 -> 458 ;
459 [label=<Arrival Delay in Minutes &le; 3.5<br/>gini = 0.114<br/>samples = 115<br/>value = [108, 7]<br/>class = disatisfied>, fillcolor="#e78946"] ;
457 -> 459 ;
460 [label=<Gate location &le; 2.5<br/>gini = 0.058<br/>samples = 67<br/>value = [65, 2]<br/>class = disatisfied>, fillcolor="#e6853f"] ;
459 -> 460 ;
461 [label=<Age &le; 41.0<br/>gini = 0.153<br/>samples = 24<br/>value = [22, 2]<br/>class = disatisfied>, fillcolor="#e78c4b"] ;
460 -> 461 ;
462 [label=<gini = 0.0<br/>samples = 12<br/>value = [12, 0]<br/>class = disatisfied>, fillcolor="#e58139"] ;
461 -> 462 ;
463 [label=<Gate location &le; 1.5<br/>gini = 0.278<br/>samples = 12<br/>value = [10, 2]<br/>class = disatisfied>, fillcolor="#ea9a61"] ;
461 -> 463 ;
464 [label=<gini = 0.0<br/>samples = 6<br/>value = [6, 0]<br/>class = disatisfied>, fillcolor="#e58139"] ;
463 -> 464 ;
465 [label=<Seat comfort &le; 4.5<br/>gini = 0.444<br/>samples = 6<br/>value = [4, 2]<br/>class = disatisfied>, fillcolor="#f2c09c"] ;
463 -> 465 ;
466 [label=<gini = 0.0<br/>samples = 3<br/>value = [3, 0]<br/>class = disatisfied>, fillcolor="#e58139"] ;
465 -> 466 ;
467 [label=<Inflight service &le; 4.5<br/>gini = 0.444<br/>samples = 3<br/>value = [1, 2]<br/>class = satisfied>, fillcolor="#9ccef2"] ;
465 -> 467 ;
468 [label=<gini = 0.0<br/>samples = 2<br/>value = [0, 2]<br/>class = satisfied>, fillcolor="#399de5"] ;
467 -> 468 ;
469 [label=<gini = 0.0<br/>samples = 1<br/>value = [1, 0]<br/>class = disatisfied>, fillcolor="#e58139"] ;
467 -> 469 ;
470 [label=<gini = 0.0<br/>samples = 43<br/>value = [43, 0]<br/>class = disatisfied>, fillcolor="#e58139"] ;
460 -> 470 ;
471 [label=<Arrival Delay in Minutes &le; 4.5<br/>gini = 0.187<br/>samples = 48<br/>value = [43, 5]<br/>class = disatisfied>, fillcolor="#e89050"] ;
459 -> 471 ;
472 [label=<Departure/Arrival time convenient &le; 2.5<br/>gini = 0.5<br/>samples = 4<br/>value = [2, 2]<br/>class = disatisfied>, fillcolor="#ffffff"] ;
471 -> 472 ;
473 [label=<gini = 0.0<br/>samples = 2<br/>value = [2, 0]<br/>class = disatisfied>, fillcolor="#e58139"] ;
472 -> 473 ;
474 [label=<gini = 0.0<br/>samples = 2<br/>value = [0, 2]<br/>class = satisfied>, fillcolor="#399de5"] ;
472 -> 474 ;
475 [label=<Inflight service &le; 1.5<br/>gini = 0.127<br/>samples = 44<br/>value = [41, 3]<br/>class = disatisfied>, fillcolor="#e78a47"] ;
471 -> 475 ;
476 [label=<Food and drink &le; 4.5<br/>gini = 0.5<br/>samples = 2<br/>value = [1, 1]<br/>class = disatisfied>, fillcolor="#ffffff"] ;
475 -> 476 ;
477 [label=<gini = 0.0<br/>samples = 1<br/>value = [0, 1]<br/>class = satisfied>, fillcolor="#399de5"] ;
476 -> 477 ;
478 [label=<gini = 0.0<br/>samples = 1<br/>value = [1, 0]<br/>class = disatisfied>, fillcolor="#e58139"] ;
476 -> 478 ;
479 [label=<Arrival Delay in Minutes &le; 8.5<br/>gini = 0.091<br/>samples = 42<br/>value = [40, 2]<br/>class = disatisfied>, fillcolor="#e68743"] ;
475 -> 479 ;
480 [label=<Gender &le; 0.5<br/>gini = 0.26<br/>samples = 13<br/>value = [11, 2]<br/>class = disatisfied>, fillcolor="#ea985d"] ;
479 -> 480 ;
481 [label=<Baggage handling &le; 3.5<br/>gini = 0.5<br/>samples = 2<br/>value = [1, 1]<br/>class = disatisfied>, fillcolor="#ffffff"] ;
480 -> 481 ;
482 [label=<gini = 0.0<br/>samples = 1<br/>value = [1, 0]<br/>class = disatisfied>, fillcolor="#e58139"] ;
481 -> 482 ;
483 [label=<gini = 0.0<br/>samples = 1<br/>value = [0, 1]<br/>class = satisfied>, fillcolor="#399de5"] ;
481 -> 483 ;
484 [label=<Checkin service &le; 4.5<br/>gini = 0.165<br/>samples = 11<br/>value = [10, 1]<br/>class = disatisfied>, fillcolor="#e88e4d"] ;
480 -> 484 ;
485 [label=<gini = 0.0<br/>samples = 9<br/>value = [9, 0]<br/>class = disatisfied>, fillcolor="#e58139"] ;
484 -> 485 ;
486 [label=<gini = 0.5<br/>samples = 2<br/>value = [1, 1]<br/>class = disatisfied>, fillcolor="#ffffff"] ;
484 -> 486 ;
487 [label=<gini = 0.0<br/>samples = 29<br/>value = [29, 0]<br/>class = disatisfied>, fillcolor="#e58139"] ;
479 -> 487 ;
488 [label=<Checkin service &le; 3.5<br/>gini = 0.5<br/>samples = 2<br/>value = [1, 1]<br/>class = disatisfied>, fillcolor="#ffffff"] ;
454 -> 488 ;
489 [label=<gini = 0.0<br/>samples = 1<br/>value = [1, 0]<br/>class = disatisfied>, fillcolor="#e58139"] ;
488 -> 489 ;
490 [label=<gini = 0.0<br/>samples = 1<br/>value = [0, 1]<br/>class = satisfied>, fillcolor="#399de5"] ;
488 -> 490 ;
491 [label=<gini = 0.0<br/>samples = 1<br/>value = [0, 1]<br/>class = satisfied>, fillcolor="#399de5"] ;
453 -> 491 ;
492 [label=<Flight Distance &le; 1552.0<br/>gini = 0.256<br/>samples = 339<br/>value = [288.0, 51.0]<br/>class = disatisfied>, fillcolor="#ea975c"] ;
452 -> 492 ;
493 [label=<Arrival Delay in Minutes &le; 0.5<br/>gini = 0.252<br/>samples = 338<br/>value = [288, 50]<br/>class = disatisfied>, fillcolor="#ea975b"] ;
492 -> 493 ;
494 [label=<Age &le; 49.5<br/>gini = 0.303<br/>samples = 193<br/>value = [157, 36]<br/>class = disatisfied>, fillcolor="#eb9e66"] ;
493 -> 494 ;
495 [label=<Departure Delay in Minutes &le; 2.5<br/>gini = 0.268<br/>samples = 163<br/>value = [137, 26]<br/>class = disatisfied>, fillcolor="#ea995f"] ;
494 -> 495 ;
496 [label=<Seat comfort &le; 4.5<br/>gini = 0.236<br/>samples = 139<br/>value = [120, 19]<br/>class = disatisfied>, fillcolor="#e99558"] ;
495 -> 496 ;
497 [label=<Flight Distance &le; 308.5<br/>gini = 0.293<br/>samples = 84<br/>value = [69, 15]<br/>class = disatisfied>, fillcolor="#eb9c64"] ;
496 -> 497 ;
498 [label=<Gate location &le; 1.5<br/>gini = 0.434<br/>samples = 22<br/>value = [15.0, 7.0]<br/>class = disatisfied>, fillcolor="#f1bc95"] ;
497 -> 498 ;
499 [label=<Age &le; 42.0<br/>gini = 0.32<br/>samples = 5<br/>value = [1, 4]<br/>class = satisfied>, fillcolor="#6ab6ec"] ;
498 -> 499 ;
500 [label=<gini = 0.0<br/>samples = 4<br/>value = [0, 4]<br/>class = satisfied>, fillcolor="#399de5"] ;
499 -> 500 ;
501 [label=<gini = 0.0<br/>samples = 1<br/>value = [1, 0]<br/>class = disatisfied>, fillcolor="#e58139"] ;
499 -> 501 ;
502 [label=<Age &le; 48.5<br/>gini = 0.291<br/>samples = 17<br/>value = [14, 3]<br/>class = disatisfied>, fillcolor="#eb9c63"] ;
498 -> 502 ;
503 [label=<Flight Distance &le; 243.5<br/>gini = 0.219<br/>samples = 16<br/>value = [14, 2]<br/>class = disatisfied>, fillcolor="#e99355"] ;
502 -> 503 ;
504 [label=<gini = 0.0<br/>samples = 10<br/>value = [10, 0]<br/>class = disatisfied>, fillcolor="#e58139"] ;
503 -> 504 ;
505 [label=<Flight Distance &le; 289.0<br/>gini = 0.444<br/>samples = 6<br/>value = [4, 2]<br/>class = disatisfied>, fillcolor="#f2c09c"] ;
503 -> 505 ;
506 [label=<gini = 0.444<br/>samples = 3<br/>value = [1, 2]<br/>class = satisfied>, fillcolor="#9ccef2"] ;
505 -> 506 ;
507 [label=<gini = 0.0<br/>samples = 3<br/>value = [3, 0]<br/>class = disatisfied>, fillcolor="#e58139"] ;
505 -> 507 ;
508 [label=<gini = 0.0<br/>samples = 1<br/>value = [0, 1]<br/>class = satisfied>, fillcolor="#399de5"] ;
502 -> 508 ;
509 [label=<Gender &le; 0.5<br/>gini = 0.225<br/>samples = 62<br/>value = [54, 8]<br/>class = disatisfied>, fillcolor="#e99456"] ;
497 -> 509 ;
510 [label=<Flight Distance &le; 591.5<br/>gini = 0.334<br/>samples = 33<br/>value = [26, 7]<br/>class = disatisfied>, fillcolor="#eca36e"] ;
509 -> 510 ;
511 [label=<gini = 0.0<br/>samples = 7<br/>value = [7, 0]<br/>class = disatisfied>, fillcolor="#e58139"] ;
510 -> 511 ;
512 [label=<Flight Distance &le; 596.5<br/>gini = 0.393<br/>samples = 26<br/>value = [19, 7]<br/>class = disatisfied>, fillcolor="#efaf82"] ;
510 -> 512 ;
513 [label=<gini = 0.0<br/>samples = 2<br/>value = [0, 2]<br/>class = satisfied>, fillcolor="#399de5"] ;
512 -> 513 ;
514 [label=<On-board service &le; 4.5<br/>gini = 0.33<br/>samples = 24<br/>value = [19, 5]<br/>class = disatisfied>, fillcolor="#eca26d"] ;
512 -> 514 ;
515 [label=<gini = 0.43<br/>samples = 16<br/>value = [11, 5]<br/>class = disatisfied>, fillcolor="#f1ba93"] ;
514 -> 515 ;
516 [label=<gini = 0.0<br/>samples = 8<br/>value = [8, 0]<br/>class = disatisfied>, fillcolor="#e58139"] ;
514 -> 516 ;
517 [label=<Gate location &le; 4.5<br/>gini = 0.067<br/>samples = 29<br/>value = [28, 1]<br/>class = disatisfied>, fillcolor="#e68640"] ;
509 -> 517 ;
518 [label=<gini = 0.0<br/>samples = 23<br/>value = [23, 0]<br/>class = disatisfied>, fillcolor="#e58139"] ;
517 -> 518 ;
519 [label=<Age &le; 38.0<br/>gini = 0.278<br/>samples = 6<br/>value = [5, 1]<br/>class = disatisfied>, fillcolor="#ea9a61"] ;
517 -> 519 ;
520 [label=<Inflight service &le; 4.5<br/>gini = 0.5<br/>samples = 2<br/>value = [1, 1]<br/>class = disatisfied>, fillcolor="#ffffff"] ;
519 -> 520 ;
521 [label=<gini = 0.0<br/>samples = 1<br/>value = [0, 1]<br/>class = satisfied>, fillcolor="#399de5"] ;
520 -> 521 ;
522 [label=<gini = 0.0<br/>samples = 1<br/>value = [1, 0]<br/>class = disatisfied>, fillcolor="#e58139"] ;
520 -> 522 ;
523 [label=<gini = 0.0<br/>samples = 4<br/>value = [4, 0]<br/>class = disatisfied>, fillcolor="#e58139"] ;
519 -> 523 ;
524 [label=<Flight Distance &le; 1018.5<br/>gini = 0.135<br/>samples = 55<br/>value = [51, 4]<br/>class = disatisfied>, fillcolor="#e78b49"] ;
496 -> 524 ;
525 [label=<On-board service &le; 3.5<br/>gini = 0.074<br/>samples = 52<br/>value = [50, 2]<br/>class = disatisfied>, fillcolor="#e68641"] ;
524 -> 525 ;
526 [label=<Flight Distance &le; 401.5<br/>gini = 0.172<br/>samples = 21<br/>value = [19, 2]<br/>class = disatisfied>, fillcolor="#e88e4e"] ;
525 -> 526 ;
527 [label=<Flight Distance &le; 295.0<br/>gini = 0.375<br/>samples = 8<br/>value = [6, 2]<br/>class = disatisfied>, fillcolor="#eeab7b"] ;
526 -> 527 ;
528 [label=<gini = 0.0<br/>samples = 6<br/>value = [6, 0]<br/>class = disatisfied>, fillcolor="#e58139"] ;
527 -> 528 ;
529 [label=<gini = 0.0<br/>samples = 2<br/>value = [0, 2]<br/>class = satisfied>, fillcolor="#399de5"] ;
527 -> 529 ;
530 [label=<gini = 0.0<br/>samples = 13<br/>value = [13, 0]<br/>class = disatisfied>, fillcolor="#e58139"] ;
526 -> 530 ;
531 [label=<gini = 0.0<br/>samples = 31<br/>value = [31, 0]<br/>class = disatisfied>, fillcolor="#e58139"] ;
525 -> 531 ;
532 [label=<Flight Distance &le; 1262.5<br/>gini = 0.444<br/>samples = 3<br/>value = [1, 2]<br/>class = satisfied>, fillcolor="#9ccef2"] ;
524 -> 532 ;
533 [label=<gini = 0.0<br/>samples = 2<br/>value = [0, 2]<br/>class = satisfied>, fillcolor="#399de5"] ;
532 -> 533 ;
534 [label=<gini = 0.0<br/>samples = 1<br/>value = [1, 0]<br/>class = disatisfied>, fillcolor="#e58139"] ;
532 -> 534 ;
535 [label=<Inflight wifi service &le; 2.5<br/>gini = 0.413<br/>samples = 24<br/>value = [17, 7]<br/>class = disatisfied>, fillcolor="#f0b58b"] ;
495 -> 535 ;
536 [label=<Leg room service &le; 3.5<br/>gini = 0.153<br/>samples = 12<br/>value = [11, 1]<br/>class = disatisfied>, fillcolor="#e78c4b"] ;
535 -> 536 ;
537 [label=<Departure Delay in Minutes &le; 10.0<br/>gini = 0.375<br/>samples = 4<br/>value = [3, 1]<br/>class = disatisfied>, fillcolor="#eeab7b"] ;
536 -> 537 ;
538 [label=<Departure Delay in Minutes &le; 5.0<br/>gini = 0.5<br/>samples = 2<br/>value = [1, 1]<br/>class = disatisfied>, fillcolor="#ffffff"] ;
537 -> 538 ;
539 [label=<gini = 0.0<br/>samples = 1<br/>value = [1, 0]<br/>class = disatisfied>, fillcolor="#e58139"] ;
538 -> 539 ;
540 [label=<gini = 0.0<br/>samples = 1<br/>value = [0, 1]<br/>class = satisfied>, fillcolor="#399de5"] ;
538 -> 540 ;
541 [label=<gini = 0.0<br/>samples = 2<br/>value = [2, 0]<br/>class = disatisfied>, fillcolor="#e58139"] ;
537 -> 541 ;
542 [label=<gini = 0.0<br/>samples = 8<br/>value = [8, 0]<br/>class = disatisfied>, fillcolor="#e58139"] ;
536 -> 542 ;
543 [label=<Departure Delay in Minutes &le; 3.5<br/>gini = 0.5<br/>samples = 12<br/>value = [6, 6]<br/>class = disatisfied>, fillcolor="#ffffff"] ;
535 -> 543 ;
544 [label=<gini = 0.0<br/>samples = 3<br/>value = [0, 3]<br/>class = satisfied>, fillcolor="#399de5"] ;
543 -> 544 ;
545 [label=<On-board service &le; 3.5<br/>gini = 0.444<br/>samples = 9<br/>value = [6, 3]<br/>class = disatisfied>, fillcolor="#f2c09c"] ;
543 -> 545 ;
546 [label=<Checkin service &le; 4.5<br/>gini = 0.375<br/>samples = 4<br/>value = [1, 3]<br/>class = satisfied>, fillcolor="#7bbeee"] ;
545 -> 546 ;
547 [label=<gini = 0.0<br/>samples = 3<br/>value = [0, 3]<br/>class = satisfied>, fillcolor="#399de5"] ;
546 -> 547 ;
548 [label=<gini = 0.0<br/>samples = 1<br/>value = [1, 0]<br/>class = disatisfied>, fillcolor="#e58139"] ;
546 -> 548 ;
549 [label=<gini = 0.0<br/>samples = 5<br/>value = [5, 0]<br/>class = disatisfied>, fillcolor="#e58139"] ;
545 -> 549 ;
550 [label=<Leg room service &le; 3.5<br/>gini = 0.444<br/>samples = 30<br/>value = [20, 10]<br/>class = disatisfied>, fillcolor="#f2c09c"] ;
494 -> 550 ;
551 [label=<Age &le; 60.0<br/>gini = 0.5<br/>samples = 14<br/>value = [7, 7]<br/>class = disatisfied>, fillcolor="#ffffff"] ;
550 -> 551 ;
552 [label=<Gate location &le; 4.5<br/>gini = 0.463<br/>samples = 11<br/>value = [4, 7]<br/>class = satisfied>, fillcolor="#aad5f4"] ;
551 -> 552 ;
553 [label=<Seat comfort &le; 1.5<br/>gini = 0.346<br/>samples = 9<br/>value = [2, 7]<br/>class = satisfied>, fillcolor="#72b9ec"] ;
552 -> 553 ;
554 [label=<gini = 0.0<br/>samples = 1<br/>value = [1, 0]<br/>class = disatisfied>, fillcolor="#e58139"] ;
553 -> 554 ;
555 [label=<Checkin service &le; 4.5<br/>gini = 0.219<br/>samples = 8<br/>value = [1, 7]<br/>class = satisfied>, fillcolor="#55abe9"] ;
553 -> 555 ;
556 [label=<gini = 0.0<br/>samples = 5<br/>value = [0, 5]<br/>class = satisfied>, fillcolor="#399de5"] ;
555 -> 556 ;
557 [label=<Gate location &le; 3.0<br/>gini = 0.444<br/>samples = 3<br/>value = [1, 2]<br/>class = satisfied>, fillcolor="#9ccef2"] ;
555 -> 557 ;
558 [label=<gini = 0.0<br/>samples = 1<br/>value = [1, 0]<br/>class = disatisfied>, fillcolor="#e58139"] ;
557 -> 558 ;
559 [label=<gini = 0.0<br/>samples = 2<br/>value = [0, 2]<br/>class = satisfied>, fillcolor="#399de5"] ;
557 -> 559 ;
560 [label=<gini = 0.0<br/>samples = 2<br/>value = [2, 0]<br/>class = disatisfied>, fillcolor="#e58139"] ;
552 -> 560 ;
561 [label=<gini = 0.0<br/>samples = 3<br/>value = [3, 0]<br/>class = disatisfied>, fillcolor="#e58139"] ;
551 -> 561 ;
562 [label=<Age &le; 63.0<br/>gini = 0.305<br/>samples = 16<br/>value = [13, 3]<br/>class = disatisfied>, fillcolor="#eb9e67"] ;
550 -> 562 ;
563 [label=<Inflight service &le; 4.5<br/>gini = 0.231<br/>samples = 15<br/>value = [13, 2]<br/>class = disatisfied>, fillcolor="#e99457"] ;
562 -> 563 ;
564 [label=<gini = 0.0<br/>samples = 10<br/>value = [10, 0]<br/>class = disatisfied>, fillcolor="#e58139"] ;
563 -> 564 ;
565 [label=<Cleanliness &le; 4.5<br/>gini = 0.48<br/>samples = 5<br/>value = [3, 2]<br/>class = disatisfied>, fillcolor="#f6d5bd"] ;
563 -> 565 ;
566 [label=<gini = 0.0<br/>samples = 2<br/>value = [0, 2]<br/>class = satisfied>, fillcolor="#399de5"] ;
565 -> 566 ;
567 [label=<gini = 0.0<br/>samples = 3<br/>value = [3, 0]<br/>class = disatisfied>, fillcolor="#e58139"] ;
565 -> 567 ;
568 [label=<gini = 0.0<br/>samples = 1<br/>value = [0, 1]<br/>class = satisfied>, fillcolor="#399de5"] ;
562 -> 568 ;
569 [label=<Flight Distance &le; 95.5<br/>gini = 0.174<br/>samples = 145<br/>value = [131, 14]<br/>class = disatisfied>, fillcolor="#e88e4e"] ;
493 -> 569 ;
570 [label=<gini = 0.0<br/>samples = 1<br/>value = [0, 1]<br/>class = satisfied>, fillcolor="#399de5"] ;
569 -> 570 ;
571 [label=<Online boarding &le; 1.5<br/>gini = 0.164<br/>samples = 144<br/>value = [131, 13]<br/>class = disatisfied>, fillcolor="#e88e4d"] ;
569 -> 571 ;
572 [label=<Leg room service &le; 4.0<br/>gini = 0.5<br/>samples = 2<br/>value = [1, 1]<br/>class = disatisfied>, fillcolor="#ffffff"] ;
571 -> 572 ;
573 [label=<gini = 0.0<br/>samples = 1<br/>value = [0, 1]<br/>class = satisfied>, fillcolor="#399de5"] ;
572 -> 573 ;
574 [label=<gini = 0.0<br/>samples = 1<br/>value = [1, 0]<br/>class = disatisfied>, fillcolor="#e58139"] ;
572 -> 574 ;
575 [label=<Departure Delay in Minutes &le; 17.5<br/>gini = 0.155<br/>samples = 142<br/>value = [130, 12]<br/>class = disatisfied>, fillcolor="#e78d4b"] ;
571 -> 575 ;
576 [label=<Arrival Delay in Minutes &le; 3.5<br/>gini = 0.057<br/>samples = 68<br/>value = [66, 2]<br/>class = disatisfied>, fillcolor="#e6853f"] ;
575 -> 576 ;
577 [label=<Age &le; 43.0<br/>gini = 0.172<br/>samples = 21<br/>value = [19, 2]<br/>class = disatisfied>, fillcolor="#e88e4e"] ;
576 -> 577 ;
578 [label=<gini = 0.0<br/>samples = 15<br/>value = [15, 0]<br/>class = disatisfied>, fillcolor="#e58139"] ;
577 -> 578 ;
579 [label=<Gate location &le; 3.5<br/>gini = 0.444<br/>samples = 6<br/>value = [4, 2]<br/>class = disatisfied>, fillcolor="#f2c09c"] ;
577 -> 579 ;
580 [label=<gini = 0.0<br/>samples = 4<br/>value = [4, 0]<br/>class = disatisfied>, fillcolor="#e58139"] ;
579 -> 580 ;
581 [label=<gini = 0.0<br/>samples = 2<br/>value = [0, 2]<br/>class = satisfied>, fillcolor="#399de5"] ;
579 -> 581 ;
582 [label=<gini = 0.0<br/>samples = 47<br/>value = [47, 0]<br/>class = disatisfied>, fillcolor="#e58139"] ;
576 -> 582 ;
583 [label=<Arrival Delay in Minutes &le; 18.5<br/>gini = 0.234<br/>samples = 74<br/>value = [64, 10]<br/>class = disatisfied>, fillcolor="#e99558"] ;
575 -> 583 ;
584 [label=<Age &le; 39.5<br/>gini = 0.415<br/>samples = 17<br/>value = [12, 5]<br/>class = disatisfied>, fillcolor="#f0b58b"] ;
583 -> 584 ;
585 [label=<Gate location &le; 3.5<br/>gini = 0.375<br/>samples = 4<br/>value = [1, 3]<br/>class = satisfied>, fillcolor="#7bbeee"] ;
584 -> 585 ;
586 [label=<gini = 0.0<br/>samples = 3<br/>value = [0, 3]<br/>class = satisfied>, fillcolor="#399de5"] ;
585 -> 586 ;
587 [label=<gini = 0.0<br/>samples = 1<br/>value = [1, 0]<br/>class = disatisfied>, fillcolor="#e58139"] ;
585 -> 587 ;
588 [label=<Gender &le; 0.5<br/>gini = 0.26<br/>samples = 13<br/>value = [11, 2]<br/>class = disatisfied>, fillcolor="#ea985d"] ;
584 -> 588 ;
589 [label=<gini = 0.0<br/>samples = 9<br/>value = [9, 0]<br/>class = disatisfied>, fillcolor="#e58139"] ;
588 -> 589 ;
590 [label=<Departure Delay in Minutes &le; 20.5<br/>gini = 0.5<br/>samples = 4<br/>value = [2, 2]<br/>class = disatisfied>, fillcolor="#ffffff"] ;
588 -> 590 ;
591 [label=<gini = 0.0<br/>samples = 2<br/>value = [0, 2]<br/>class = satisfied>, fillcolor="#399de5"] ;
590 -> 591 ;
592 [label=<gini = 0.0<br/>samples = 2<br/>value = [2, 0]<br/>class = disatisfied>, fillcolor="#e58139"] ;
590 -> 592 ;
593 [label=<Gate location &le; 2.5<br/>gini = 0.16<br/>samples = 57<br/>value = [52, 5]<br/>class = disatisfied>, fillcolor="#e88d4c"] ;
583 -> 593 ;
594 [label=<Departure Delay in Minutes &le; 42.5<br/>gini = 0.332<br/>samples = 19<br/>value = [15, 4]<br/>class = disatisfied>, fillcolor="#eca36e"] ;
593 -> 594 ;
595 [label=<gini = 0.0<br/>samples = 7<br/>value = [7, 0]<br/>class = disatisfied>, fillcolor="#e58139"] ;
594 -> 595 ;
596 [label=<Departure Delay in Minutes &le; 50.5<br/>gini = 0.444<br/>samples = 12<br/>value = [8, 4]<br/>class = disatisfied>, fillcolor="#f2c09c"] ;
594 -> 596 ;
597 [label=<Cleanliness &le; 4.5<br/>gini = 0.375<br/>samples = 4<br/>value = [1, 3]<br/>class = satisfied>, fillcolor="#7bbeee"] ;
596 -> 597 ;
598 [label=<gini = 0.0<br/>samples = 1<br/>value = [1, 0]<br/>class = disatisfied>, fillcolor="#e58139"] ;
597 -> 598 ;
599 [label=<gini = 0.0<br/>samples = 3<br/>value = [0, 3]<br/>class = satisfied>, fillcolor="#399de5"] ;
597 -> 599 ;
600 [label=<Checkin service &le; 4.5<br/>gini = 0.219<br/>samples = 8<br/>value = [7, 1]<br/>class = disatisfied>, fillcolor="#e99355"] ;
596 -> 600 ;
601 [label=<gini = 0.0<br/>samples = 6<br/>value = [6, 0]<br/>class = disatisfied>, fillcolor="#e58139"] ;
600 -> 601 ;
602 [label=<gini = 0.5<br/>samples = 2<br/>value = [1, 1]<br/>class = disatisfied>, fillcolor="#ffffff"] ;
600 -> 602 ;
603 [label=<Flight Distance &le; 1225.5<br/>gini = 0.051<br/>samples = 38<br/>value = [37, 1]<br/>class = disatisfied>, fillcolor="#e6843e"] ;
593 -> 603 ;
604 [label=<gini = 0.0<br/>samples = 36<br/>value = [36, 0]<br/>class = disatisfied>, fillcolor="#e58139"] ;
603 -> 604 ;
605 [label=<Departure Delay in Minutes &le; 47.5<br/>gini = 0.5<br/>samples = 2<br/>value = [1, 1]<br/>class = disatisfied>, fillcolor="#ffffff"] ;
603 -> 605 ;
606 [label=<gini = 0.0<br/>samples = 1<br/>value = [1, 0]<br/>class = disatisfied>, fillcolor="#e58139"] ;
605 -> 606 ;
607 [label=<gini = 0.0<br/>samples = 1<br/>value = [0, 1]<br/>class = satisfied>, fillcolor="#399de5"] ;
605 -> 607 ;
608 [label=<gini = 0.0<br/>samples = 1<br/>value = [0, 1]<br/>class = satisfied>, fillcolor="#399de5"] ;
492 -> 608 ;
609 [label=<gini = 0.0<br/>samples = 50<br/>value = [50, 0]<br/>class = disatisfied>, fillcolor="#e58139"] ;
451 -> 609 ;
610 [label=<Ease of Online booking &le; 3.5<br/>gini = 0.033<br/>samples = 32928<br/>value = [32382, 546]<br/>class = disatisfied>, fillcolor="#e5833c"] ;
6 -> 610 ;
611 [label=<Type of Travel &le; 0.5<br/>gini = 0.021<br/>samples = 30550<br/>value = [30225, 325]<br/>class = disatisfied>, fillcolor="#e5823b"] ;
610 -> 611 ;
612 [label=<Customer Type &le; 0.5<br/>gini = 0.055<br/>samples = 11496<br/>value = [11171, 325]<br/>class = disatisfied>, fillcolor="#e6853f"] ;
611 -> 612 ;
613 [label=<Checkin service &le; 4.5<br/>gini = 0.156<br/>samples = 3295<br/>value = [3015, 280]<br/>class = disatisfied>, fillcolor="#e78d4b"] ;
612 -> 613 ;
614 [label=<Baggage handling &le; 4.5<br/>gini = 0.126<br/>samples = 3232<br/>value = [3014, 218]<br/>class = disatisfied>, fillcolor="#e78a47"] ;
613 -> 614 ;
615 [label=<Inflight service &le; 4.5<br/>gini = 0.109<br/>samples = 3196<br/>value = [3012, 184]<br/>class = disatisfied>, fillcolor="#e78945"] ;
614 -> 615 ;
616 [label=<On-board service &le; 4.5<br/>gini = 0.097<br/>samples = 3173<br/>value = [3011, 162]<br/>class = disatisfied>, fillcolor="#e68844"] ;
615 -> 616 ;
617 [label=<Seat comfort &le; 4.5<br/>gini = 0.085<br/>samples = 3109<br/>value = [2971, 138]<br/>class = disatisfied>, fillcolor="#e68742"] ;
616 -> 617 ;
618 [label=<Cleanliness &le; 4.5<br/>gini = 0.076<br/>samples = 3074<br/>value = [2952, 122]<br/>class = disatisfied>, fillcolor="#e68641"] ;
617 -> 618 ;
619 [label=<Baggage handling &le; 2.5<br/>gini = 0.072<br/>samples = 3067<br/>value = [2952.0, 115.0]<br/>class = disatisfied>, fillcolor="#e68641"] ;
618 -> 619 ;
620 [label=<Inflight service &le; 3.5<br/>gini = 0.148<br/>samples = 819<br/>value = [753, 66]<br/>class = disatisfied>, fillcolor="#e78c4a"] ;
619 -> 620 ;
621 [label=<Arrival Delay in Minutes &le; 168.5<br/>gini = 0.126<br/>samples = 770<br/>value = [718.0, 52.0]<br/>class = disatisfied>, fillcolor="#e78a47"] ;
620 -> 621 ;
622 [label=<Inflight wifi service &le; 1.5<br/>gini = 0.116<br/>samples = 760<br/>value = [713, 47]<br/>class = disatisfied>, fillcolor="#e78946"] ;
621 -> 622 ;
623 [label=<Age &le; 38.0<br/>gini = 0.01<br/>samples = 196<br/>value = [195.0, 1.0]<br/>class = disatisfied>, fillcolor="#e5823a"] ;
622 -> 623 ;
624 [label=<Age &le; 36.5<br/>gini = 0.071<br/>samples = 27<br/>value = [26, 1]<br/>class = disatisfied>, fillcolor="#e68641"] ;
623 -> 624 ;
625 [label=<gini = 0.0<br/>samples = 25<br/>value = [25, 0]<br/>class = disatisfied>, fillcolor="#e58139"] ;
624 -> 625 ;
626 [label=<Baggage handling &le; 1.5<br/>gini = 0.5<br/>samples = 2<br/>value = [1, 1]<br/>class = disatisfied>, fillcolor="#ffffff"] ;
624 -> 626 ;
627 [label=<gini = 0.0<br/>samples = 1<br/>value = [0, 1]<br/>class = satisfied>, fillcolor="#399de5"] ;
626 -> 627 ;
628 [label=<gini = 0.0<br/>samples = 1<br/>value = [1, 0]<br/>class = disatisfied>, fillcolor="#e58139"] ;
626 -> 628 ;
629 [label=<gini = 0.0<br/>samples = 169<br/>value = [169, 0]<br/>class = disatisfied>, fillcolor="#e58139"] ;
623 -> 629 ;
630 [label=<Flight Distance &le; 1000.5<br/>gini = 0.15<br/>samples = 564<br/>value = [518.0, 46.0]<br/>class = disatisfied>, fillcolor="#e78c4b"] ;
622 -> 630 ;
631 [label=<Arrival Delay in Minutes &le; 8.5<br/>gini = 0.195<br/>samples = 412<br/>value = [367, 45]<br/>class = disatisfied>, fillcolor="#e89051"] ;
630 -> 631 ;
632 [label=<Online boarding &le; 2.5<br/>gini = 0.265<br/>samples = 242<br/>value = [204, 38]<br/>class = disatisfied>, fillcolor="#ea985e"] ;
631 -> 632 ;
633 [label=<gini = 0.37<br/>samples = 94<br/>value = [71, 23]<br/>class = disatisfied>, fillcolor="#edaa79"] ;
632 -> 633 ;
634 [label=<gini = 0.182<br/>samples = 148<br/>value = [133, 15]<br/>class = disatisfied>, fillcolor="#e88f4f"] ;
632 -> 634 ;
635 [label=<Online boarding &le; 1.5<br/>gini = 0.079<br/>samples = 170<br/>value = [163, 7]<br/>class = disatisfied>, fillcolor="#e68642"] ;
631 -> 635 ;
636 [label=<gini = 0.408<br/>samples = 7<br/>value = [5, 2]<br/>class = disatisfied>, fillcolor="#efb388"] ;
635 -> 636 ;
637 [label=<gini = 0.059<br/>samples = 163<br/>value = [158, 5]<br/>class = disatisfied>, fillcolor="#e6853f"] ;
635 -> 637 ;
638 [label=<Class &le; 1.5<br/>gini = 0.013<br/>samples = 152<br/>value = [151, 1]<br/>class = disatisfied>, fillcolor="#e5823a"] ;
630 -> 638 ;
639 [label=<gini = 0.0<br/>samples = 126<br/>value = [126, 0]<br/>class = disatisfied>, fillcolor="#e58139"] ;
638 -> 639 ;
640 [label=<Inflight entertainment &le; 2.5<br/>gini = 0.074<br/>samples = 26<br/>value = [25, 1]<br/>class = disatisfied>, fillcolor="#e68641"] ;
638 -> 640 ;
641 [label=<gini = 0.0<br/>samples = 18<br/>value = [18, 0]<br/>class = disatisfied>, fillcolor="#e58139"] ;
640 -> 641 ;
642 [label=<gini = 0.219<br/>samples = 8<br/>value = [7, 1]<br/>class = disatisfied>, fillcolor="#e99355"] ;
640 -> 642 ;
643 [label=<Flight Distance &le; 821.5<br/>gini = 0.5<br/>samples = 10<br/>value = [5, 5]<br/>class = disatisfied>, fillcolor="#ffffff"] ;
621 -> 643 ;
644 [label=<gini = 0.0<br/>samples = 5<br/>value = [5, 0]<br/>class = disatisfied>, fillcolor="#e58139"] ;
643 -> 644 ;
645 [label=<gini = 0.0<br/>samples = 5<br/>value = [0, 5]<br/>class = satisfied>, fillcolor="#399de5"] ;
643 -> 645 ;
646 [label=<Flight Distance &le; 1312.5<br/>gini = 0.408<br/>samples = 49<br/>value = [35, 14]<br/>class = disatisfied>, fillcolor="#efb388"] ;
620 -> 646 ;
647 [label=<Departure Delay in Minutes &le; 112.0<br/>gini = 0.401<br/>samples = 18<br/>value = [5, 13]<br/>class = satisfied>, fillcolor="#85c3ef"] ;
646 -> 647 ;
648 [label=<Seat comfort &le; 1.5<br/>gini = 0.231<br/>samples = 15<br/>value = [2, 13]<br/>class = satisfied>, fillcolor="#57ace9"] ;
647 -> 648 ;
649 [label=<gini = 0.0<br/>samples = 1<br/>value = [1, 0]<br/>class = disatisfied>, fillcolor="#e58139"] ;
648 -> 649 ;
650 [label=<Leg room service &le; 4.5<br/>gini = 0.133<br/>samples = 14<br/>value = [1, 13]<br/>class = satisfied>, fillcolor="#48a5e7"] ;
648 -> 650 ;
651 [label=<gini = 0.0<br/>samples = 12<br/>value = [0, 12]<br/>class = satisfied>, fillcolor="#399de5"] ;
650 -> 651 ;
652 [label=<Ease of Online booking &le; 2.5<br/>gini = 0.5<br/>samples = 2<br/>value = [1, 1]<br/>class = disatisfied>, fillcolor="#ffffff"] ;
650 -> 652 ;
653 [label=<gini = 0.0<br/>samples = 1<br/>value = [1, 0]<br/>class = disatisfied>, fillcolor="#e58139"] ;
652 -> 653 ;
654 [label=<gini = 0.0<br/>samples = 1<br/>value = [0, 1]<br/>class = satisfied>, fillcolor="#399de5"] ;
652 -> 654 ;
655 [label=<gini = 0.0<br/>samples = 3<br/>value = [3, 0]<br/>class = disatisfied>, fillcolor="#e58139"] ;
647 -> 655 ;
656 [label=<Cleanliness &le; 3.5<br/>gini = 0.062<br/>samples = 31<br/>value = [30, 1]<br/>class = disatisfied>, fillcolor="#e68540"] ;
646 -> 656 ;
657 [label=<gini = 0.0<br/>samples = 30<br/>value = [30, 0]<br/>class = disatisfied>, fillcolor="#e58139"] ;
656 -> 657 ;
658 [label=<gini = 0.0<br/>samples = 1<br/>value = [0, 1]<br/>class = satisfied>, fillcolor="#399de5"] ;
656 -> 658 ;
659 [label=<Inflight service &le; 2.5<br/>gini = 0.043<br/>samples = 2248<br/>value = [2199, 49]<br/>class = disatisfied>, fillcolor="#e6843d"] ;
619 -> 659 ;
660 [label=<Arrival Delay in Minutes &le; 6.0<br/>gini = 0.214<br/>samples = 148<br/>value = [130, 18]<br/>class = disatisfied>, fillcolor="#e99254"] ;
659 -> 660 ;
661 [label=<Baggage handling &le; 3.5<br/>gini = 0.394<br/>samples = 63<br/>value = [46, 17]<br/>class = disatisfied>, fillcolor="#efb082"] ;
660 -> 661 ;
662 [label=<Inflight service &le; 1.5<br/>gini = 0.256<br/>samples = 53<br/>value = [45, 8]<br/>class = disatisfied>, fillcolor="#ea975c"] ;
661 -> 662 ;
663 [label=<Seat comfort &le; 1.5<br/>gini = 0.32<br/>samples = 5<br/>value = [1, 4]<br/>class = satisfied>, fillcolor="#6ab6ec"] ;
662 -> 663 ;
664 [label=<gini = 0.0<br/>samples = 1<br/>value = [1, 0]<br/>class = disatisfied>, fillcolor="#e58139"] ;
663 -> 664 ;
665 [label=<gini = 0.0<br/>samples = 4<br/>value = [0, 4]<br/>class = satisfied>, fillcolor="#399de5"] ;
663 -> 665 ;
666 [label=<Leg room service &le; 2.5<br/>gini = 0.153<br/>samples = 48<br/>value = [44, 4]<br/>class = disatisfied>, fillcolor="#e78c4b"] ;
662 -> 666 ;
667 [label=<Arrival Delay in Minutes &le; 1.5<br/>gini = 0.375<br/>samples = 16<br/>value = [12, 4]<br/>class = disatisfied>, fillcolor="#eeab7b"] ;
666 -> 667 ;
668 [label=<gini = 0.32<br/>samples = 15<br/>value = [12, 3]<br/>class = disatisfied>, fillcolor="#eca06a"] ;
667 -> 668 ;
669 [label=<gini = 0.0<br/>samples = 1<br/>value = [0, 1]<br/>class = satisfied>, fillcolor="#399de5"] ;
667 -> 669 ;
670 [label=<gini = 0.0<br/>samples = 32<br/>value = [32, 0]<br/>class = disatisfied>, fillcolor="#e58139"] ;
666 -> 670 ;
671 [label=<Inflight entertainment &le; 1.5<br/>gini = 0.18<br/>samples = 10<br/>value = [1, 9]<br/>class = satisfied>, fillcolor="#4fa8e8"] ;
661 -> 671 ;
672 [label=<gini = 0.0<br/>samples = 1<br/>value = [1, 0]<br/>class = disatisfied>, fillcolor="#e58139"] ;
671 -> 672 ;
673 [label=<gini = 0.0<br/>samples = 9<br/>value = [0, 9]<br/>class = satisfied>, fillcolor="#399de5"] ;
671 -> 673 ;
674 [label=<Seat comfort &le; 3.5<br/>gini = 0.023<br/>samples = 85<br/>value = [84, 1]<br/>class = disatisfied>, fillcolor="#e5823b"] ;
660 -> 674 ;
675 [label=<gini = 0.0<br/>samples = 84<br/>value = [84, 0]<br/>class = disatisfied>, fillcolor="#e58139"] ;
674 -> 675 ;
676 [label=<gini = 0.0<br/>samples = 1<br/>value = [0, 1]<br/>class = satisfied>, fillcolor="#399de5"] ;
674 -> 676 ;
677 [label=<Flight Distance &le; 159.0<br/>gini = 0.029<br/>samples = 2100<br/>value = [2069, 31]<br/>class = disatisfied>, fillcolor="#e5833c"] ;
659 -> 677 ;
678 [label=<Flight Distance &le; 156.5<br/>gini = 0.157<br/>samples = 105<br/>value = [96, 9]<br/>class = disatisfied>, fillcolor="#e78d4c"] ;
677 -> 678 ;
679 [label=<Inflight wifi service &le; 2.5<br/>gini = 0.128<br/>samples = 102<br/>value = [95.0, 7.0]<br/>class = disatisfied>, fillcolor="#e78a48"] ;
678 -> 679 ;
680 [label=<Checkin service &le; 1.5<br/>gini = 0.032<br/>samples = 61<br/>value = [60, 1]<br/>class = disatisfied>, fillcolor="#e5833c"] ;
679 -> 680 ;
681 [label=<Ease of Online booking &le; 1.5<br/>gini = 0.198<br/>samples = 9<br/>value = [8, 1]<br/>class = disatisfied>, fillcolor="#e89152"] ;
680 -> 681 ;
682 [label=<gini = 0.5<br/>samples = 2<br/>value = [1, 1]<br/>class = disatisfied>, fillcolor="#ffffff"] ;
681 -> 682 ;
683 [label=<gini = 0.0<br/>samples = 7<br/>value = [7, 0]<br/>class = disatisfied>, fillcolor="#e58139"] ;
681 -> 683 ;
684 [label=<gini = 0.0<br/>samples = 52<br/>value = [52, 0]<br/>class = disatisfied>, fillcolor="#e58139"] ;
680 -> 684 ;
685 [label=<Arrival Delay in Minutes &le; 10.5<br/>gini = 0.25<br/>samples = 41<br/>value = [35, 6]<br/>class = disatisfied>, fillcolor="#e9975b"] ;
679 -> 685 ;
686 [label=<Departure Delay in Minutes &le; 4.0<br/>gini = 0.328<br/>samples = 29<br/>value = [23, 6]<br/>class = disatisfied>, fillcolor="#eca26d"] ;
685 -> 686 ;
687 [label=<gini = 0.204<br/>samples = 26<br/>value = [23, 3]<br/>class = disatisfied>, fillcolor="#e89153"] ;
686 -> 687 ;
688 [label=<gini = 0.0<br/>samples = 3<br/>value = [0, 3]<br/>class = satisfied>, fillcolor="#399de5"] ;
686 -> 688 ;
689 [label=<gini = 0.0<br/>samples = 12<br/>value = [12, 0]<br/>class = disatisfied>, fillcolor="#e58139"] ;
685 -> 689 ;
690 [label=<Baggage handling &le; 3.5<br/>gini = 0.444<br/>samples = 3<br/>value = [1, 2]<br/>class = satisfied>, fillcolor="#9ccef2"] ;
678 -> 690 ;
691 [label=<gini = 0.0<br/>samples = 1<br/>value = [1, 0]<br/>class = disatisfied>, fillcolor="#e58139"] ;
690 -> 691 ;
692 [label=<gini = 0.0<br/>samples = 2<br/>value = [0, 2]<br/>class = satisfied>, fillcolor="#399de5"] ;
690 -> 692 ;
693 [label=<Flight Distance &le; 2644.0<br/>gini = 0.022<br/>samples = 1995<br/>value = [1973, 22]<br/>class = disatisfied>, fillcolor="#e5823b"] ;
677 -> 693 ;
694 [label=<Cleanliness &le; 3.5<br/>gini = 0.021<br/>samples = 1992<br/>value = [1971, 21]<br/>class = disatisfied>, fillcolor="#e5823b"] ;
693 -> 694 ;
695 [label=<Food and drink &le; 3.5<br/>gini = 0.016<br/>samples = 1903<br/>value = [1888.0, 15.0]<br/>class = disatisfied>, fillcolor="#e5823b"] ;
694 -> 695 ;
696 [label=<Age &le; 38.5<br/>gini = 0.013<br/>samples = 1836<br/>value = [1824, 12]<br/>class = disatisfied>, fillcolor="#e5823a"] ;
695 -> 696 ;
697 [label=<gini = 0.002<br/>samples = 868<br/>value = [867, 1]<br/>class = disatisfied>, fillcolor="#e58139"] ;
696 -> 697 ;
698 [label=<gini = 0.022<br/>samples = 968<br/>value = [957, 11]<br/>class = disatisfied>, fillcolor="#e5823b"] ;
696 -> 698 ;
699 [label=<Flight Distance &le; 202.0<br/>gini = 0.086<br/>samples = 67<br/>value = [64, 3]<br/>class = disatisfied>, fillcolor="#e68742"] ;
695 -> 699 ;
700 [label=<gini = 0.5<br/>samples = 2<br/>value = [1, 1]<br/>class = disatisfied>, fillcolor="#ffffff"] ;
699 -> 700 ;
701 [label=<gini = 0.06<br/>samples = 65<br/>value = [63, 2]<br/>class = disatisfied>, fillcolor="#e6853f"] ;
699 -> 701 ;
702 [label=<Online boarding &le; 1.5<br/>gini = 0.126<br/>samples = 89<br/>value = [83, 6]<br/>class = disatisfied>, fillcolor="#e78a47"] ;
694 -> 702 ;
703 [label=<Food and drink &le; 3.5<br/>gini = 0.375<br/>samples = 16<br/>value = [12, 4]<br/>class = disatisfied>, fillcolor="#eeab7b"] ;
702 -> 703 ;
704 [label=<gini = 0.49<br/>samples = 7<br/>value = [3, 4]<br/>class = satisfied>, fillcolor="#cee6f8"] ;
703 -> 704 ;
705 [label=<gini = 0.0<br/>samples = 9<br/>value = [9, 0]<br/>class = disatisfied>, fillcolor="#e58139"] ;
703 -> 705 ;
706 [label=<Flight Distance &le; 353.5<br/>gini = 0.053<br/>samples = 73<br/>value = [71, 2]<br/>class = disatisfied>, fillcolor="#e6853f"] ;
702 -> 706 ;
707 [label=<gini = 0.198<br/>samples = 18<br/>value = [16, 2]<br/>class = disatisfied>, fillcolor="#e89152"] ;
706 -> 707 ;
708 [label=<gini = 0.0<br/>samples = 55<br/>value = [55, 0]<br/>class = disatisfied>, fillcolor="#e58139"] ;
706 -> 708 ;
709 [label=<Baggage handling &le; 3.5<br/>gini = 0.444<br/>samples = 3<br/>value = [2, 1]<br/>class = disatisfied>, fillcolor="#f2c09c"] ;
693 -> 709 ;
710 [label=<gini = 0.0<br/>samples = 2<br/>value = [2, 0]<br/>class = disatisfied>, fillcolor="#e58139"] ;
709 -> 710 ;
711 [label=<gini = 0.0<br/>samples = 1<br/>value = [0, 1]<br/>class = satisfied>, fillcolor="#399de5"] ;
709 -> 711 ;
712 [label=<gini = 0.0<br/>samples = 7<br/>value = [0, 7]<br/>class = satisfied>, fillcolor="#399de5"] ;
618 -> 712 ;
713 [label=<Inflight wifi service &le; 1.5<br/>gini = 0.496<br/>samples = 35<br/>value = [19, 16]<br/>class = disatisfied>, fillcolor="#fbebe0"] ;
617 -> 713 ;
714 [label=<gini = 0.0<br/>samples = 18<br/>value = [18, 0]<br/>class = disatisfied>, fillcolor="#e58139"] ;
713 -> 714 ;
715 [label=<Flight Distance &le; 116.0<br/>gini = 0.111<br/>samples = 17<br/>value = [1, 16]<br/>class = satisfied>, fillcolor="#45a3e7"] ;
713 -> 715 ;
716 [label=<gini = 0.0<br/>samples = 1<br/>value = [1, 0]<br/>class = disatisfied>, fillcolor="#e58139"] ;
715 -> 716 ;
717 [label=<gini = 0.0<br/>samples = 16<br/>value = [0, 16]<br/>class = satisfied>, fillcolor="#399de5"] ;
715 -> 717 ;
718 [label=<Arrival Delay in Minutes &le; 5.5<br/>gini = 0.469<br/>samples = 64<br/>value = [40, 24]<br/>class = disatisfied>, fillcolor="#f5cdb0"] ;
616 -> 718 ;
719 [label=<Flight Distance &le; 1987.0<br/>gini = 0.417<br/>samples = 27<br/>value = [8, 19]<br/>class = satisfied>, fillcolor="#8cc6f0"] ;
718 -> 719 ;
720 [label=<Departure Delay in Minutes &le; 7.0<br/>gini = 0.172<br/>samples = 21<br/>value = [2, 19]<br/>class = satisfied>, fillcolor="#4ea7e8"] ;
719 -> 720 ;
721 [label=<Age &le; 69.5<br/>gini = 0.095<br/>samples = 20<br/>value = [1, 19]<br/>class = satisfied>, fillcolor="#43a2e6"] ;
720 -> 721 ;
722 [label=<gini = 0.0<br/>samples = 19<br/>value = [0, 19]<br/>class = satisfied>, fillcolor="#399de5"] ;
721 -> 722 ;
723 [label=<gini = 0.0<br/>samples = 1<br/>value = [1, 0]<br/>class = disatisfied>, fillcolor="#e58139"] ;
721 -> 723 ;
724 [label=<gini = 0.0<br/>samples = 1<br/>value = [1, 0]<br/>class = disatisfied>, fillcolor="#e58139"] ;
720 -> 724 ;
725 [label=<gini = 0.0<br/>samples = 6<br/>value = [6, 0]<br/>class = disatisfied>, fillcolor="#e58139"] ;
719 -> 725 ;
726 [label=<Leg room service &le; 1.5<br/>gini = 0.234<br/>samples = 37<br/>value = [32, 5]<br/>class = disatisfied>, fillcolor="#e99558"] ;
718 -> 726 ;
727 [label=<Arrival Delay in Minutes &le; 21.5<br/>gini = 0.48<br/>samples = 5<br/>value = [2, 3]<br/>class = satisfied>, fillcolor="#bddef6"] ;
726 -> 727 ;
728 [label=<gini = 0.0<br/>samples = 3<br/>value = [0, 3]<br/>class = satisfied>, fillcolor="#399de5"] ;
727 -> 728 ;
