digraph Tree {
node [shape=box, style="filled, rounded", color="black", fontname="helvetica"] ;
edge [fontname="helvetica"] ;
0 [label=<Online boarding &le; 3.5<br/>gini = 0.491<br/>samples = 103594<br/>value = [58697, 44897]<br/>class = disatisfied>, fillcolor="#f9e1d0"] ;
1 [label=<Inflight wifi service &le; 0.5<br/>gini = 0.253<br/>samples = 52271<br/>value = [44487, 7784]<br/>class = disatisfied>, fillcolor="#ea975c"] ;
0 -> 1 [labeldistance=2.5, labelangle=45, headlabel="True"] ;
2 [label=<Cleanliness &le; 0.5<br/>gini = 0.009<br/>samples = 1764<br/>value = [8, 1756]<br/>class = satisfied>, fillcolor="#3a9de5"] ;
1 -> 2 ;
3 [label=<gini = 0.0<br/>samples = 8<br/>value = [8, 0]<br/>class = disatisfied>, fillcolor="#e58139"] ;
2 -> 3 ;
4 [label=<gini = 0.0<br/>samples = 1756<br/>value = [0, 1756]<br/>class = satisfied>, fillcolor="#399de5"] ;
2 -> 4 ;
5 [label=<Inflight wifi service &le; 3.5<br/>gini = 0.21<br/>samples = 50507<br/>value = [44479, 6028]<br/>class = disatisfied>, fillcolor="#e99254"] ;
1 -> 5 ;
6 [label=<Class &le; 0.5<br/>gini = 0.121<br/>samples = 45789<br/>value = [42817.0, 2972.0]<br/>class = disatisfied>, fillcolor="#e78a47"] ;
5 -> 6 ;
7 [label=<Inflight entertainment &le; 3.5<br/>gini = 0.306<br/>samples = 12861<br/>value = [10435, 2426]<br/>class = disatisfied>, fillcolor="#eb9e67"] ;
6 -> 7 ;
8 [label=<Cleanliness &le; 4.5<br/>gini = 0.136<br/>samples = 9015<br/>value = [8356, 659]<br/>class = disatisfied>, fillcolor="#e78b49"] ;
7 -> 8 ;
9 [label=<Gate location &le; 3.5<br/>gini = 0.127<br/>samples = 8939<br/>value = [8330, 609]<br/>class = disatisfied>, fillcolor="#e78a47"] ;
8 -> 9 ;
10 [label=<Inflight entertainment &le; 1.5<br/>gini = 0.183<br/>samples = 5794<br/>value = [5202, 592]<br/>class = disatisfied>, fillcolor="#e88f50"] ;
9 -> 10 ;
11 [label=<On-board service &le; 4.5<br/>gini = 0.036<br/>samples = 1417<br/>value = [1391, 26]<br/>class = disatisfied>, fillcolor="#e5833d"] ;
10 -> 11 ;
12 [label=<Seat comfort &le; 4.5<br/>gini = 0.026<br/>samples = 1278<br/>value = [1261, 17]<br/>class = disatisfied>, fillcolor="#e5833c"] ;
11 -> 12 ;
13 [label=<Inflight wifi service &le; 1.5<br/>gini = 0.024<br/>samples = 1259<br/>value = [1244, 15]<br/>class = disatisfied>, fillcolor="#e5833b"] ;
12 -> 13 ;
14 [label=<Departure Delay in Minutes &le; 132.0<br/>gini = 0.01<br/>samples = 824<br/>value = [820.0, 4.0]<br/>class = disatisfied>, fillcolor="#e5823a"] ;
13 -> 14 ;
15 [label=<Ease of Online booking &le; 4.5<br/>gini = 0.005<br/>samples = 816<br/>value = [814, 2]<br/>class = disatisfied>, fillcolor="#e58139"] ;
14 -> 15 ;
16 [label=<Age &le; 58.5<br/>gini = 0.003<br/>samples = 784<br/>value = [783.0, 1.0]<br/>class = disatisfied>, fillcolor="#e58139"] ;
15 -> 16 ;
17 [label=<gini = 0.0<br/>samples = 690<br/>value = [690, 0]<br/>class = disatisfied>, fillcolor="#e58139"] ;
16 -> 17 ;
18 [label=<Age &le; 59.5<br/>gini = 0.021<br/>samples = 94<br/>value = [93, 1]<br/>class = disatisfied>, fillcolor="#e5823b"] ;
16 -> 18 ;
19 [label=<Checkin service &le; 1.5<br/>gini = 0.153<br/>samples = 12<br/>value = [11, 1]<br/>class = disatisfied>, fillcolor="#e78c4b"] ;
18 -> 19 ;
20 [label=<Inflight service &le; 2.5<br/>gini = 0.5<br/>samples = 2<br/>value = [1, 1]<br/>class = disatisfied>, fillcolor="#ffffff"] ;
19 -> 20 ;
21 [label=<gini = 0.0<br/>samples = 1<br/>value = [0, 1]<br/>class = satisfied>, fillcolor="#399de5"] ;
20 -> 21 ;
22 [label=<gini = 0.0<br/>samples = 1<br/>value = [1, 0]<br/>class = disatisfied>, fillcolor="#e58139"] ;
20 -> 22 ;
23 [label=<gini = 0.0<br/>samples = 10<br/>value = [10, 0]<br/>class = disatisfied>, fillcolor="#e58139"] ;
19 -> 23 ;
24 [label=<gini = 0.0<br/>samples = 82<br/>value = [82, 0]<br/>class = disatisfied>, fillcolor="#e58139"] ;
18 -> 24 ;
25 [label=<Flight Distance &le; 3646.5<br/>gini = 0.061<br/>samples = 32<br/>value = [31, 1]<br/>class = disatisfied>, fillcolor="#e6853f"] ;
15 -> 25 ;
26 [label=<gini = 0.0<br/>samples = 29<br/>value = [29, 0]<br/>class = disatisfied>, fillcolor="#e58139"] ;
25 -> 26 ;
27 [label=<Baggage handling &le; 3.5<br/>gini = 0.444<br/>samples = 3<br/>value = [2, 1]<br/>class = disatisfied>, fillcolor="#f2c09c"] ;
25 -> 27 ;
28 [label=<gini = 0.0<br/>samples = 2<br/>value = [2, 0]<br/>class = disatisfied>, fillcolor="#e58139"] ;
27 -> 28 ;
29 [label=<gini = 0.0<br/>samples = 1<br/>value = [0, 1]<br/>class = satisfied>, fillcolor="#399de5"] ;
27 -> 29 ;
30 [label=<Arrival Delay in Minutes &le; 146.0<br/>gini = 0.375<br/>samples = 8<br/>value = [6, 2]<br/>class = disatisfied>, fillcolor="#eeab7b"] ;
14 -> 30 ;
31 [label=<gini = 0.0<br/>samples = 2<br/>value = [0, 2]<br/>class = satisfied>, fillcolor="#399de5"] ;
30 -> 31 ;
32 [label=<gini = 0.0<br/>samples = 6<br/>value = [6, 0]<br/>class = disatisfied>, fillcolor="#e58139"] ;
30 -> 32 ;
33 [label=<Baggage handling &le; 1.5<br/>gini = 0.049<br/>samples = 435<br/>value = [424, 11]<br/>class = disatisfied>, fillcolor="#e6843e"] ;
13 -> 33 ;
34 [label=<Leg room service &le; 4.5<br/>gini = 0.213<br/>samples = 33<br/>value = [29, 4]<br/>class = disatisfied>, fillcolor="#e99254"] ;
33 -> 34 ;
35 [label=<Flight Distance &le; 1988.5<br/>gini = 0.121<br/>samples = 31<br/>value = [29, 2]<br/>class = disatisfied>, fillcolor="#e78a47"] ;
34 -> 35 ;
36 [label=<gini = 0.0<br/>samples = 27<br/>value = [27, 0]<br/>class = disatisfied>, fillcolor="#e58139"] ;
35 -> 36 ;
37 [label=<Cleanliness &le; 2.0<br/>gini = 0.5<br/>samples = 4<br/>value = [2, 2]<br/>class = disatisfied>, fillcolor="#ffffff"] ;
35 -> 37 ;
38 [label=<gini = 0.0<br/>samples = 2<br/>value = [2, 0]<br/>class = disatisfied>, fillcolor="#e58139"] ;
37 -> 38 ;
39 [label=<gini = 0.0<br/>samples = 2<br/>value = [0, 2]<br/>class = satisfied>, fillcolor="#399de5"] ;
37 -> 39 ;
40 [label=<gini = 0.0<br/>samples = 2<br/>value = [0, 2]<br/>class = satisfied>, fillcolor="#399de5"] ;
34 -> 40 ;
41 [label=<Age &le; 27.5<br/>gini = 0.034<br/>samples = 402<br/>value = [395, 7]<br/>class = disatisfied>, fillcolor="#e5833d"] ;
33 -> 41 ;
42 [label=<gini = 0.0<br/>samples = 141<br/>value = [141, 0]<br/>class = disatisfied>, fillcolor="#e58139"] ;
41 -> 42 ;
43 [label=<Age &le; 28.5<br/>gini = 0.052<br/>samples = 261<br/>value = [254, 7]<br/>class = disatisfied>, fillcolor="#e6843e"] ;
41 -> 43 ;
44 [label=<Flight Distance &le; 1504.0<br/>gini = 0.231<br/>samples = 15<br/>value = [13, 2]<br/>class = disatisfied>, fillcolor="#e99457"] ;
43 -> 44 ;
45 [label=<gini = 0.0<br/>samples = 12<br/>value = [12, 0]<br/>class = disatisfied>, fillcolor="#e58139"] ;
44 -> 45 ;
46 [label=<Type of Travel &le; 0.5<br/>gini = 0.444<br/>samples = 3<br/>value = [1, 2]<br/>class = satisfied>, fillcolor="#9ccef2"] ;
44 -> 46 ;
47 [label=<gini = 0.0<br/>samples = 2<br/>value = [0, 2]<br/>class = satisfied>, fillcolor="#399de5"] ;
46 -> 47 ;
48 [label=<gini = 0.0<br/>samples = 1<br/>value = [1, 0]<br/>class = disatisfied>, fillcolor="#e58139"] ;
46 -> 48 ;
49 [label=<Age &le; 36.5<br/>gini = 0.04<br/>samples = 246<br/>value = [241, 5]<br/>class = disatisfied>, fillcolor="#e6843d"] ;
43 -> 49 ;
50 [label=<gini = 0.0<br/>samples = 93<br/>value = [93, 0]<br/>class = disatisfied>, fillcolor="#e58139"] ;
49 -> 50 ;
51 [label=<Inflight service &le; 3.5<br/>gini = 0.063<br/>samples = 153<br/>value = [148, 5]<br/>class = disatisfied>, fillcolor="#e68540"] ;
49 -> 51 ;
52 [label=<gini = 0.0<br/>samples = 61<br/>value = [61, 0]<br/>class = disatisfied>, fillcolor="#e58139"] ;
51 -> 52 ;
53 [label=<Checkin service &le; 4.5<br/>gini = 0.103<br/>samples = 92<br/>value = [87, 5]<br/>class = disatisfied>, fillcolor="#e68844"] ;
51 -> 53 ;
54 [label=<Checkin service &le; 2.5<br/>gini = 0.15<br/>samples = 61<br/>value = [56, 5]<br/>class = disatisfied>, fillcolor="#e78c4b"] ;
53 -> 54 ;
55 [label=<gini = 0.0<br/>samples = 14<br/>value = [14, 0]<br/>class = disatisfied>, fillcolor="#e58139"] ;
54 -> 55 ;
56 [label=<Arrival Delay in Minutes &le; 8.0<br/>gini = 0.19<br/>samples = 47<br/>value = [42, 5]<br/>class = disatisfied>, fillcolor="#e89051"] ;
54 -> 56 ;
57 [label=<On-board service &le; 3.5<br/>gini = 0.145<br/>samples = 38<br/>value = [35, 3]<br/>class = disatisfied>, fillcolor="#e78c4a"] ;
56 -> 57 ;
58 [label=<Departure Delay in Minutes &le; 6.0<br/>gini = 0.291<br/>samples = 17<br/>value = [14, 3]<br/>class = disatisfied>, fillcolor="#eb9c63"] ;
57 -> 58 ;
59 [label=<Checkin service &le; 3.5<br/>gini = 0.397<br/>samples = 11<br/>value = [8, 3]<br/>class = disatisfied>, fillcolor="#efb083"] ;
58 -> 59 ;
60 [label=<gini = 0.0<br/>samples = 5<br/>value = [5, 0]<br/>class = disatisfied>, fillcolor="#e58139"] ;
59 -> 60 ;
61 [label=<Baggage handling &le; 4.5<br/>gini = 0.5<br/>samples = 6<br/>value = [3, 3]<br/>class = disatisfied>, fillcolor="#ffffff"] ;
59 -> 61 ;
62 [label=<Departure Delay in Minutes &le; 2.5<br/>gini = 0.375<br/>samples = 4<br/>value = [3, 1]<br/>class = disatisfied>, fillcolor="#eeab7b"] ;
61 -> 62 ;
63 [label=<gini = 0.0<br/>samples = 3<br/>value = [3, 0]<br/>class = disatisfied>, fillcolor="#e58139"] ;
62 -> 63 ;
64 [label=<gini = 0.0<br/>samples = 1<br/>value = [0, 1]<br/>class = satisfied>, fillcolor="#399de5"] ;
62 -> 64 ;
65 [label=<gini = 0.0<br/>samples = 2<br/>value = [0, 2]<br/>class = satisfied>, fillcolor="#399de5"] ;
61 -> 65 ;
66 [label=<gini = 0.0<br/>samples = 6<br/>value = [6, 0]<br/>class = disatisfied>, fillcolor="#e58139"] ;
58 -> 66 ;
67 [label=<gini = 0.0<br/>samples = 21<br/>value = [21, 0]<br/>class = disatisfied>, fillcolor="#e58139"] ;
57 -> 67 ;
68 [label=<Flight Distance &le; 1400.0<br/>gini = 0.346<br/>samples = 9<br/>value = [7, 2]<br/>class = disatisfied>, fillcolor="#eca572"] ;
56 -> 68 ;
69 [label=<Age &le; 37.5<br/>gini = 0.219<br/>samples = 8<br/>value = [7, 1]<br/>class = disatisfied>, fillcolor="#e99355"] ;
68 -> 69 ;
70 [label=<Online boarding &le; 2.5<br/>gini = 0.5<br/>samples = 2<br/>value = [1, 1]<br/>class = disatisfied>, fillcolor="#ffffff"] ;
69 -> 70 ;
71 [label=<gini = 0.0<br/>samples = 1<br/>value = [0, 1]<br/>class = satisfied>, fillcolor="#399de5"] ;
70 -> 71 ;
72 [label=<gini = 0.0<br/>samples = 1<br/>value = [1, 0]<br/>class = disatisfied>, fillcolor="#e58139"] ;
70 -> 72 ;
73 [label=<gini = 0.0<br/>samples = 6<br/>value = [6, 0]<br/>class = disatisfied>, fillcolor="#e58139"] ;
69 -> 73 ;
74 [label=<gini = 0.0<br/>samples = 1<br/>value = [0, 1]<br/>class = satisfied>, fillcolor="#399de5"] ;
68 -> 74 ;
75 [label=<gini = 0.0<br/>samples = 31<br/>value = [31, 0]<br/>class = disatisfied>, fillcolor="#e58139"] ;
53 -> 75 ;
76 [label=<Flight Distance &le; 327.0<br/>gini = 0.188<br/>samples = 19<br/>value = [17, 2]<br/>class = disatisfied>, fillcolor="#e89050"] ;
12 -> 76 ;
77 [label=<gini = 0.0<br/>samples = 1<br/>value = [0, 1]<br/>class = satisfied>, fillcolor="#399de5"] ;
76 -> 77 ;
78 [label=<Flight Distance &le; 2659.5<br/>gini = 0.105<br/>samples = 18<br/>value = [17, 1]<br/>class = disatisfied>, fillcolor="#e78845"] ;
76 -> 78 ;
79 [label=<gini = 0.0<br/>samples = 17<br/>value = [17, 0]<br/>class = disatisfied>, fillcolor="#e58139"] ;
78 -> 79 ;
80 [label=<gini = 0.0<br/>samples = 1<br/>value = [0, 1]<br/>class = satisfied>, fillcolor="#399de5"] ;
78 -> 80 ;
81 [label=<Baggage handling &le; 1.5<br/>gini = 0.121<br/>samples = 139<br/>value = [130, 9]<br/>class = disatisfied>, fillcolor="#e78a47"] ;
11 -> 81 ;
82 [label=<Checkin service &le; 2.5<br/>gini = 0.5<br/>samples = 4<br/>value = [2, 2]<br/>class = disatisfied>, fillcolor="#ffffff"] ;
81 -> 82 ;
83 [label=<gini = 0.0<br/>samples = 2<br/>value = [2, 0]<br/>class = disatisfied>, fillcolor="#e58139"] ;
82 -> 83 ;
84 [label=<gini = 0.0<br/>samples = 2<br/>value = [0, 2]<br/>class = satisfied>, fillcolor="#399de5"] ;
82 -> 84 ;
85 [label=<Leg room service &le; 1.5<br/>gini = 0.098<br/>samples = 135<br/>value = [128, 7]<br/>class = disatisfied>, fillcolor="#e68844"] ;
81 -> 85 ;
86 [label=<Baggage handling &le; 2.5<br/>gini = 0.444<br/>samples = 6<br/>value = [4, 2]<br/>class = disatisfied>, fillcolor="#f2c09c"] ;
85 -> 86 ;
87 [label=<gini = 0.0<br/>samples = 3<br/>value = [3, 0]<br/>class = disatisfied>, fillcolor="#e58139"] ;
86 -> 87 ;
88 [label=<Checkin service &le; 1.5<br/>gini = 0.444<br/>samples = 3<br/>value = [1, 2]<br/>class = satisfied>, fillcolor="#9ccef2"] ;
86 -> 88 ;
89 [label=<gini = 0.0<br/>samples = 1<br/>value = [1, 0]<br/>class = disatisfied>, fillcolor="#e58139"] ;
88 -> 89 ;
90 [label=<gini = 0.0<br/>samples = 2<br/>value = [0, 2]<br/>class = satisfied>, fillcolor="#399de5"] ;
88 -> 90 ;
91 [label=<Gender &le; 0.5<br/>gini = 0.075<br/>samples = 129<br/>value = [124, 5]<br/>class = disatisfied>, fillcolor="#e68641"] ;
85 -> 91 ;
92 [label=<Baggage handling &le; 4.5<br/>gini = 0.146<br/>samples = 63<br/>value = [58, 5]<br/>class = disatisfied>, fillcolor="#e78c4a"] ;
91 -> 92 ;
93 [label=<Flight Distance &le; 927.5<br/>gini = 0.245<br/>samples = 35<br/>value = [30, 5]<br/>class = disatisfied>, fillcolor="#e9965a"] ;
92 -> 93 ;
94 [label=<Flight Distance &le; 611.5<br/>gini = 0.375<br/>samples = 20<br/>value = [15, 5]<br/>class = disatisfied>, fillcolor="#eeab7b"] ;
93 -> 94 ;
95 [label=<gini = 0.0<br/>samples = 12<br/>value = [12, 0]<br/>class = disatisfied>, fillcolor="#e58139"] ;
94 -> 95 ;
96 [label=<Gate location &le; 2.5<br/>gini = 0.469<br/>samples = 8<br/>value = [3, 5]<br/>class = satisfied>, fillcolor="#b0d8f5"] ;
94 -> 96 ;
97 [label=<gini = 0.0<br/>samples = 3<br/>value = [0, 3]<br/>class = satisfied>, fillcolor="#399de5"] ;
96 -> 97 ;
98 [label=<Departure Delay in Minutes &le; 9.0<br/>gini = 0.48<br/>samples = 5<br/>value = [3, 2]<br/>class = disatisfied>, fillcolor="#f6d5bd"] ;
96 -> 98 ;
99 [label=<gini = 0.0<br/>samples = 3<br/>value = [3, 0]<br/>class = disatisfied>, fillcolor="#e58139"] ;
98 -> 99 ;
100 [label=<gini = 0.0<br/>samples = 2<br/>value = [0, 2]<br/>class = satisfied>, fillcolor="#399de5"] ;
98 -> 100 ;
101 [label=<gini = 0.0<br/>samples = 15<br/>value = [15, 0]<br/>class = disatisfied>, fillcolor="#e58139"] ;
93 -> 101 ;
102 [label=<gini = 0.0<br/>samples = 28<br/>value = [28, 0]<br/>class = disatisfied>, fillcolor="#e58139"] ;
92 -> 102 ;
103 [label=<gini = 0.0<br/>samples = 66<br/>value = [66, 0]<br/>class = disatisfied>, fillcolor="#e58139"] ;
91 -> 103 ;
104 [label=<Inflight wifi service &le; 1.5<br/>gini = 0.225<br/>samples = 4377<br/>value = [3811, 566]<br/>class = disatisfied>, fillcolor="#e99456"] ;
10 -> 104 ;
105 [label=<Gate location &le; 1.5<br/>gini = 0.415<br/>samples = 596<br/>value = [421, 175]<br/>class = disatisfied>, fillcolor="#f0b58b"] ;
104 -> 105 ;
106 [label=<Customer Type &le; 0.5<br/>gini = 0.466<br/>samples = 278<br/>value = [103.0, 175.0]<br/>class = satisfied>, fillcolor="#aed7f4"] ;
105 -> 106 ;
107 [label=<Type of Travel &le; 0.5<br/>gini = 0.33<br/>samples = 221<br/>value = [46, 175]<br/>class = satisfied>, fillcolor="#6db7ec"] ;
106 -> 107 ;
108 [label=<Baggage handling &le; 1.5<br/>gini = 0.244<br/>samples = 204<br/>value = [29, 175]<br/>class = satisfied>, fillcolor="#5aade9"] ;
107 -> 108 ;
109 [label=<Age &le; 34.0<br/>gini = 0.365<br/>samples = 25<br/>value = [19, 6]<br/>class = disatisfied>, fillcolor="#eda978"] ;
108 -> 109 ;
110 [label=<Online boarding &le; 1.0<br/>gini = 0.245<br/>samples = 7<br/>value = [1, 6]<br/>class = satisfied>, fillcolor="#5aade9"] ;
109 -> 110 ;
111 [label=<gini = 0.0<br/>samples = 1<br/>value = [1, 0]<br/>class = disatisfied>, fillcolor="#e58139"] ;
110 -> 111 ;
112 [label=<gini = 0.0<br/>samples = 6<br/>value = [0, 6]<br/>class = satisfied>, fillcolor="#399de5"] ;
110 -> 112 ;
113 [label=<gini = 0.0<br/>samples = 18<br/>value = [18, 0]<br/>class = disatisfied>, fillcolor="#e58139"] ;
109 -> 113 ;
114 [label=<Seat comfort &le; 1.5<br/>gini = 0.105<br/>samples = 179<br/>value = [10, 169]<br/>class = satisfied>, fillcolor="#45a3e7"] ;
108 -> 114 ;
115 [label=<Departure Delay in Minutes &le; 20.5<br/>gini = 0.498<br/>samples = 17<br/>value = [9, 8]<br/>class = disatisfied>, fillcolor="#fcf1e9"] ;
114 -> 115 ;
116 [label=<Age &le; 38.5<br/>gini = 0.32<br/>samples = 10<br/>value = [2, 8]<br/>class = satisfied>, fillcolor="#6ab6ec"] ;
115 -> 116 ;
117 [label=<Departure/Arrival time convenient &le; 2.0<br/>gini = 0.444<br/>samples = 3<br/>value = [2, 1]<br/>class = disatisfied>, fillcolor="#f2c09c"] ;
116 -> 117 ;
118 [label=<gini = 0.0<br/>samples = 2<br/>value = [2, 0]<br/>class = disatisfied>, fillcolor="#e58139"] ;
117 -> 118 ;
119 [label=<gini = 0.0<br/>samples = 1<br/>value = [0, 1]<br/>class = satisfied>, fillcolor="#399de5"] ;
117 -> 119 ;
120 [label=<gini = 0.0<br/>samples = 7<br/>value = [0, 7]<br/>class = satisfied>, fillcolor="#399de5"] ;
116 -> 120 ;
121 [label=<gini = 0.0<br/>samples = 7<br/>value = [7, 0]<br/>class = disatisfied>, fillcolor="#e58139"] ;
115 -> 121 ;
122 [label=<Ease of Online booking &le; 0.5<br/>gini = 0.012<br/>samples = 162<br/>value = [1, 161]<br/>class = satisfied>, fillcolor="#3a9ee5"] ;
114 -> 122 ;
123 [label=<gini = 0.0<br/>samples = 1<br/>value = [1, 0]<br/>class = disatisfied>, fillcolor="#e58139"] ;
122 -> 123 ;
124 [label=<gini = 0.0<br/>samples = 161<br/>value = [0, 161]<br/>class = satisfied>, fillcolor="#399de5"] ;
122 -> 124 ;
125 [label=<gini = 0.0<br/>samples = 17<br/>value = [17, 0]<br/>class = disatisfied>, fillcolor="#e58139"] ;
107 -> 125 ;
126 [label=<gini = 0.0<br/>samples = 57<br/>value = [57, 0]<br/>class = disatisfied>, fillcolor="#e58139"] ;
106 -> 126 ;
127 [label=<gini = 0.0<br/>samples = 318<br/>value = [318, 0]<br/>class = disatisfied>, fillcolor="#e58139"] ;
105 -> 127 ;
128 [label=<Checkin service &le; 4.5<br/>gini = 0.185<br/>samples = 3781<br/>value = [3390, 391]<br/>class = disatisfied>, fillcolor="#e89050"] ;
104 -> 128 ;
129 [label=<Baggage handling &le; 4.5<br/>gini = 0.159<br/>samples = 3484<br/>value = [3181, 303]<br/>class = disatisfied>, fillcolor="#e78d4c"] ;
128 -> 129 ;
130 [label=<Seat comfort &le; 4.5<br/>gini = 0.128<br/>samples = 3161<br/>value = [2943, 218]<br/>class = disatisfied>, fillcolor="#e78a48"] ;
129 -> 130 ;
131 [label=<Inflight service &le; 4.5<br/>gini = 0.113<br/>samples = 3099<br/>value = [2913, 186]<br/>class = disatisfied>, fillcolor="#e78946"] ;
130 -> 131 ;
132 [label=<On-board service &le; 4.5<br/>gini = 0.091<br/>samples = 2932<br/>value = [2792, 140]<br/>class = disatisfied>, fillcolor="#e68743"] ;
131 -> 132 ;
133 [label=<Baggage handling &le; 1.5<br/>gini = 0.077<br/>samples = 2843<br/>value = [2729, 114]<br/>class = disatisfied>, fillcolor="#e68641"] ;
132 -> 133 ;
134 [label=<Flight Distance &le; 2686.5<br/>gini = 0.353<br/>samples = 48<br/>value = [37, 11]<br/>class = disatisfied>, fillcolor="#eda674"] ;
133 -> 134 ;
135 [label=<Inflight service &le; 2.5<br/>gini = 0.229<br/>samples = 38<br/>value = [33, 5]<br/>class = disatisfied>, fillcolor="#e99457"] ;
134 -> 135 ;
136 [label=<Leg room service &le; 4.5<br/>gini = 0.071<br/>samples = 27<br/>value = [26, 1]<br/>class = disatisfied>, fillcolor="#e68641"] ;
135 -> 136 ;
137 [label=<gini = 0.0<br/>samples = 22<br/>value = [22, 0]<br/>class = disatisfied>, fillcolor="#e58139"] ;
136 -> 137 ;
138 [label=<Checkin service &le; 3.0<br/>gini = 0.32<br/>samples = 5<br/>value = [4, 1]<br/>class = disatisfied>, fillcolor="#eca06a"] ;
136 -> 138 ;
139 [label=<gini = 0.0<br/>samples = 1<br/>value = [0, 1]<br/>class = satisfied>, fillcolor="#399de5"] ;
138 -> 139 ;
140 [label=<gini = 0.0<br/>samples = 4<br/>value = [4, 0]<br/>class = disatisfied>, fillcolor="#e58139"] ;
138 -> 140 ;
141 [label=<Arrival Delay in Minutes &le; 2.5<br/>gini = 0.463<br/>samples = 11<br/>value = [7, 4]<br/>class = disatisfied>, fillcolor="#f4c9aa"] ;
135 -> 141 ;
142 [label=<gini = 0.0<br/>samples = 4<br/>value = [4, 0]<br/>class = disatisfied>, fillcolor="#e58139"] ;
141 -> 142 ;
143 [label=<Type of Travel &le; 0.5<br/>gini = 0.49<br/>samples = 7<br/>value = [3, 4]<br/>class = satisfied>, fillcolor="#cee6f8"] ;
141 -> 143 ;
144 [label=<Ease of Online booking &le; 2.5<br/>gini = 0.32<br/>samples = 5<br/>value = [1, 4]<br/>class = satisfied>, fillcolor="#6ab6ec"] ;
143 -> 144 ;
145 [label=<gini = 0.0<br/>samples = 1<br/>value = [1, 0]<br/>class = disatisfied>, fillcolor="#e58139"] ;
144 -> 145 ;
146 [label=<gini = 0.0<br/>samples = 4<br/>value = [0, 4]<br/>class = satisfied>, fillcolor="#399de5"] ;
144 -> 146 ;
147 [label=<gini = 0.0<br/>samples = 2<br/>value = [2, 0]<br/>class = disatisfied>, fillcolor="#e58139"] ;
143 -> 147 ;
148 [label=<Gate location &le; 1.5<br/>gini = 0.48<br/>samples = 10<br/>value = [4, 6]<br/>class = satisfied>, fillcolor="#bddef6"] ;
134 -> 148 ;
149 [label=<gini = 0.0<br/>samples = 2<br/>value = [2, 0]<br/>class = disatisfied>, fillcolor="#e58139"] ;
148 -> 149 ;
150 [label=<Leg room service &le; 1.5<br/>gini = 0.375<br/>samples = 8<br/>value = [2, 6]<br/>class = satisfied>, fillcolor="#7bbeee"] ;
148 -> 150 ;
151 [label=<gini = 0.0<br/>samples = 1<br/>value = [1, 0]<br/>class = disatisfied>, fillcolor="#e58139"] ;
150 -> 151 ;
152 [label=<On-board service &le; 3.5<br/>gini = 0.245<br/>samples = 7<br/>value = [1, 6]<br/>class = satisfied>, fillcolor="#5aade9"] ;
150 -> 152 ;
153 [label=<gini = 0.0<br/>samples = 5<br/>value = [0, 5]<br/>class = satisfied>, fillcolor="#399de5"] ;
152 -> 153 ;
154 [label=<Seat comfort &le; 2.5<br/>gini = 0.5<br/>samples = 2<br/>value = [1, 1]<br/>class = disatisfied>, fillcolor="#ffffff"] ;
152 -> 154 ;
155 [label=<gini = 0.0<br/>samples = 1<br/>value = [1, 0]<br/>class = disatisfied>, fillcolor="#e58139"] ;
154 -> 155 ;
156 [label=<gini = 0.0<br/>samples = 1<br/>value = [0, 1]<br/>class = satisfied>, fillcolor="#399de5"] ;
154 -> 156 ;
157 [label=<Online boarding &le; 1.5<br/>gini = 0.071<br/>samples = 2795<br/>value = [2692.0, 103.0]<br/>class = disatisfied>, fillcolor="#e68641"] ;
133 -> 157 ;
158 [label=<Seat comfort &le; 3.5<br/>gini = 0.258<br/>samples = 125<br/>value = [106, 19]<br/>class = disatisfied>, fillcolor="#ea985c"] ;
157 -> 158 ;
159 [label=<Departure/Arrival time convenient &le; 4.5<br/>gini = 0.228<br/>samples = 122<br/>value = [106, 16]<br/>class = disatisfied>, fillcolor="#e99457"] ;
158 -> 159 ;
160 [label=<Arrival Delay in Minutes &le; 12.5<br/>gini = 0.208<br/>samples = 119<br/>value = [105, 14]<br/>class = disatisfied>, fillcolor="#e89253"] ;
159 -> 160 ;
161 [label=<Seat comfort &le; 2.5<br/>gini = 0.313<br/>samples = 67<br/>value = [54, 13]<br/>class = disatisfied>, fillcolor="#eb9f69"] ;
160 -> 161 ;
162 [label=<Gender &le; 0.5<br/>gini = 0.226<br/>samples = 54<br/>value = [47, 7]<br/>class = disatisfied>, fillcolor="#e99456"] ;
161 -> 162 ;
163 [label=<Leg room service &le; 3.5<br/>gini = 0.327<br/>samples = 34<br/>value = [27, 7]<br/>class = disatisfied>, fillcolor="#eca26c"] ;
162 -> 163 ;
164 [label=<Flight Distance &le; 3299.0<br/>gini = 0.211<br/>samples = 25<br/>value = [22, 3]<br/>class = disatisfied>, fillcolor="#e99254"] ;
163 -> 164 ;
165 [label=<Age &le; 51.5<br/>gini = 0.095<br/>samples = 20<br/>value = [19, 1]<br/>class = disatisfied>, fillcolor="#e68843"] ;
164 -> 165 ;
166 [label=<gini = 0.0<br/>samples = 15<br/>value = [15, 0]<br/>class = disatisfied>, fillcolor="#e58139"] ;
165 -> 166 ;
167 [label=<Inflight service &le; 2.5<br/>gini = 0.32<br/>samples = 5<br/>value = [4, 1]<br/>class = disatisfied>, fillcolor="#eca06a"] ;
165 -> 167 ;
168 [label=<gini = 0.0<br/>samples = 4<br/>value = [4, 0]<br/>class = disatisfied>, fillcolor="#e58139"] ;
167 -> 168 ;
169 [label=<gini = 0.0<br/>samples = 1<br/>value = [0, 1]<br/>class = satisfied>, fillcolor="#399de5"] ;
167 -> 169 ;
170 [label=<Gate location &le; 2.5<br/>gini = 0.48<br/>samples = 5<br/>value = [3, 2]<br/>class = disatisfied>, fillcolor="#f6d5bd"] ;
164 -> 170 ;
171 [label=<gini = 0.0<br/>samples = 3<br/>value = [3, 0]<br/>class = disatisfied>, fillcolor="#e58139"] ;
170 -> 171 ;
172 [label=<gini = 0.0<br/>samples = 2<br/>value = [0, 2]<br/>class = satisfied>, fillcolor="#399de5"] ;
170 -> 172 ;
173 [label=<Inflight entertainment &le; 2.5<br/>gini = 0.494<br/>samples = 9<br/>value = [5, 4]<br/>class = disatisfied>, fillcolor="#fae6d7"] ;
163 -> 173 ;
174 [label=<gini = 0.0<br/>samples = 5<br/>value = [5, 0]<br/>class = disatisfied>, fillcolor="#e58139"] ;
173 -> 174 ;
175 [label=<gini = 0.0<br/>samples = 4<br/>value = [0, 4]<br/>class = satisfied>, fillcolor="#399de5"] ;
173 -> 175 ;
176 [label=<gini = 0.0<br/>samples = 20<br/>value = [20, 0]<br/>class = disatisfied>, fillcolor="#e58139"] ;
162 -> 176 ;
177 [label=<Departure/Arrival time convenient &le; 1.5<br/>gini = 0.497<br/>samples = 13<br/>value = [7, 6]<br/>class = disatisfied>, fillcolor="#fbede3"] ;
161 -> 177 ;
178 [label=<gini = 0.0<br/>samples = 4<br/>value = [4, 0]<br/>class = disatisfied>, fillcolor="#e58139"] ;
177 -> 178 ;
179 [label=<Departure/Arrival time convenient &le; 3.5<br/>gini = 0.444<br/>samples = 9<br/>value = [3, 6]<br/>class = satisfied>, fillcolor="#9ccef2"] ;
177 -> 179 ;
180 [label=<Departure Delay in Minutes &le; 16.5<br/>gini = 0.245<br/>samples = 7<br/>value = [1, 6]<br/>class = satisfied>, fillcolor="#5aade9"] ;
179 -> 180 ;
181 [label=<gini = 0.0<br/>samples = 6<br/>value = [0, 6]<br/>class = satisfied>, fillcolor="#399de5"] ;
180 -> 181 ;
182 [label=<gini = 0.0<br/>samples = 1<br/>value = [1, 0]<br/>class = disatisfied>, fillcolor="#e58139"] ;
180 -> 182 ;
183 [label=<gini = 0.0<br/>samples = 2<br/>value = [2, 0]<br/>class = disatisfied>, fillcolor="#e58139"] ;
179 -> 183 ;
184 [label=<Food and drink &le; 1.5<br/>gini = 0.038<br/>samples = 52<br/>value = [51, 1]<br/>class = disatisfied>, fillcolor="#e6833d"] ;
160 -> 184 ;
185 [label=<Checkin service &le; 2.5<br/>gini = 0.219<br/>samples = 8<br/>value = [7, 1]<br/>class = disatisfied>, fillcolor="#e99355"] ;
184 -> 185 ;
186 [label=<gini = 0.0<br/>samples = 6<br/>value = [6, 0]<br/>class = disatisfied>, fillcolor="#e58139"] ;
185 -> 186 ;
187 [label=<Inflight service &le; 2.5<br/>gini = 0.5<br/>samples = 2<br/>value = [1, 1]<br/>class = disatisfied>, fillcolor="#ffffff"] ;
185 -> 187 ;
188 [label=<gini = 0.0<br/>samples = 1<br/>value = [1, 0]<br/>class = disatisfied>, fillcolor="#e58139"] ;
187 -> 188 ;
189 [label=<gini = 0.0<br/>samples = 1<br/>value = [0, 1]<br/>class = satisfied>, fillcolor="#399de5"] ;
187 -> 189 ;
190 [label=<gini = 0.0<br/>samples = 44<br/>value = [44, 0]<br/>class = disatisfied>, fillcolor="#e58139"] ;
184 -> 190 ;
191 [label=<Type of Travel &le; 0.5<br/>gini = 0.444<br/>samples = 3<br/>value = [1, 2]<br/>class = satisfied>, fillcolor="#9ccef2"] ;
159 -> 191 ;
192 [label=<gini = 0.0<br/>samples = 2<br/>value = [0, 2]<br/>class = satisfied>, fillcolor="#399de5"] ;
191 -> 192 ;
193 [label=<gini = 0.0<br/>samples = 1<br/>value = [1, 0]<br/>class = disatisfied>, fillcolor="#e58139"] ;
191 -> 193 ;
194 [label=<gini = 0.0<br/>samples = 3<br/>value = [0, 3]<br/>class = satisfied>, fillcolor="#399de5"] ;
158 -> 194 ;
195 [label=<Gate location &le; 1.5<br/>gini = 0.061<br/>samples = 2670<br/>value = [2586, 84]<br/>class = disatisfied>, fillcolor="#e6853f"] ;
157 -> 195 ;
196 [label=<Customer Type &le; 0.5<br/>gini = 0.005<br/>samples = 757<br/>value = [755, 2]<br/>class = disatisfied>, fillcolor="#e5813a"] ;
195 -> 196 ;
197 [label=<gini = 0.0<br/>samples = 729<br/>value = [729, 0]<br/>class = disatisfied>, fillcolor="#e58139"] ;
196 -> 197 ;
198 [label=<Departure Delay in Minutes &le; 15.0<br/>gini = 0.133<br/>samples = 28<br/>value = [26, 2]<br/>class = disatisfied>, fillcolor="#e78b48"] ;
196 -> 198 ;
199 [label=<gini = 0.0<br/>samples = 21<br/>value = [21, 0]<br/>class = disatisfied>, fillcolor="#e58139"] ;
198 -> 199 ;
200 [label=<Age &le; 36.0<br/>gini = 0.408<br/>samples = 7<br/>value = [5, 2]<br/>class = disatisfied>, fillcolor="#efb388"] ;
198 -> 200 ;
201 [label=<gini = 0.0<br/>samples = 4<br/>value = [4, 0]<br/>class = disatisfied>, fillcolor="#e58139"] ;
200 -> 201 ;
202 [label=<Arrival Delay in Minutes &le; 53.0<br/>gini = 0.444<br/>samples = 3<br/>value = [1, 2]<br/>class = satisfied>, fillcolor="#9ccef2"] ;
200 -> 202 ;
203 [label=<gini = 0.0<br/>samples = 2<br/>value = [0, 2]<br/>class = satisfied>, fillcolor="#399de5"] ;
202 -> 203 ;
204 [label=<gini = 0.0<br/>samples = 1<br/>value = [1, 0]<br/>class = disatisfied>, fillcolor="#e58139"] ;
202 -> 204 ;
205 [label=<Inflight service &le; 1.5<br/>gini = 0.082<br/>samples = 1913<br/>value = [1831, 82]<br/>class = disatisfied>, fillcolor="#e68742"] ;
195 -> 205 ;
206 [label=<Arrival Delay in Minutes &le; 0.5<br/>gini = 0.365<br/>samples = 25<br/>value = [19, 6]<br/>class = disatisfied>, fillcolor="#eda978"] ;
205 -> 206 ;
207 [label=<Flight Distance &le; 2853.5<br/>gini = 0.496<br/>samples = 11<br/>value = [6, 5]<br/>class = disatisfied>, fillcolor="#fbeade"] ;
206 -> 207 ;
208 [label=<On-board service &le; 1.5<br/>gini = 0.469<br/>samples = 8<br/>value = [3, 5]<br/>class = satisfied>, fillcolor="#b0d8f5"] ;
207 -> 208 ;
209 [label=<gini = 0.0<br/>samples = 2<br/>value = [2, 0]<br/>class = disatisfied>, fillcolor="#e58139"] ;
208 -> 209 ;
210 [label=<Checkin service &le; 1.5<br/>gini = 0.278<br/>samples = 6<br/>value = [1, 5]<br/>class = satisfied>, fillcolor="#61b1ea"] ;
208 -> 210 ;
211 [label=<gini = 0.0<br/>samples = 1<br/>value = [1, 0]<br/>class = disatisfied>, fillcolor="#e58139"] ;
210 -> 211 ;
212 [label=<gini = 0.0<br/>samples = 5<br/>value = [0, 5]<br/>class = satisfied>, fillcolor="#399de5"] ;
210 -> 212 ;
213 [label=<gini = 0.0<br/>samples = 3<br/>value = [3, 0]<br/>class = disatisfied>, fillcolor="#e58139"] ;
207 -> 213 ;
214 [label=<Age &le; 24.0<br/>gini = 0.133<br/>samples = 14<br/>value = [13, 1]<br/>class = disatisfied>, fillcolor="#e78b48"] ;
206 -> 214 ;
215 [label=<Gate location &le; 2.5<br/>gini = 0.5<br/>samples = 2<br/>value = [1, 1]<br/>class = disatisfied>, fillcolor="#ffffff"] ;
214 -> 215 ;
216 [label=<gini = 0.0<br/>samples = 1<br/>value = [0, 1]<br/>class = satisfied>, fillcolor="#399de5"] ;
215 -> 216 ;
217 [label=<gini = 0.0<br/>samples = 1<br/>value = [1, 0]<br/>class = disatisfied>, fillcolor="#e58139"] ;
215 -> 217 ;
218 [label=<gini = 0.0<br/>samples = 12<br/>value = [12, 0]<br/>class = disatisfied>, fillcolor="#e58139"] ;
214 -> 218 ;
219 [label=<Leg room service &le; 3.5<br/>gini = 0.077<br/>samples = 1888<br/>value = [1812, 76]<br/>class = disatisfied>, fillcolor="#e68641"] ;
205 -> 219 ;
220 [label=<Age &le; 27.5<br/>gini = 0.062<br/>samples = 1498<br/>value = [1450.0, 48.0]<br/>class = disatisfied>, fillcolor="#e68540"] ;
219 -> 220 ;
221 [label=<Inflight service &le; 2.5<br/>gini = 0.112<br/>samples = 302<br/>value = [284, 18]<br/>class = disatisfied>, fillcolor="#e78946"] ;
220 -> 221 ;
222 [label=<Leg room service &le; 2.5<br/>gini = 0.337<br/>samples = 28<br/>value = [22, 6]<br/>class = disatisfied>, fillcolor="#eca36f"] ;
221 -> 222 ;
223 [label=<Inflight entertainment &le; 2.5<br/>gini = 0.18<br/>samples = 20<br/>value = [18, 2]<br/>class = disatisfied>, fillcolor="#e88f4f"] ;
222 -> 223 ;
224 [label=<gini = 0.0<br/>samples = 14<br/>value = [14, 0]<br/>class = disatisfied>, fillcolor="#e58139"] ;
223 -> 224 ;
225 [label=<Checkin service &le; 3.0<br/>gini = 0.444<br/>samples = 6<br/>value = [4, 2]<br/>class = disatisfied>, fillcolor="#f2c09c"] ;
223 -> 225 ;
226 [label=<On-board service &le; 3.0<br/>gini = 0.444<br/>samples = 3<br/>value = [1, 2]<br/>class = satisfied>, fillcolor="#9ccef2"] ;
225 -> 226 ;
227 [label=<gini = 0.0<br/>samples = 2<br/>value = [0, 2]<br/>class = satisfied>, fillcolor="#399de5"] ;
226 -> 227 ;
228 [label=<gini = 0.0<br/>samples = 1<br/>value = [1, 0]<br/>class = disatisfied>, fillcolor="#e58139"] ;
226 -> 228 ;
229 [label=<gini = 0.0<br/>samples = 3<br/>value = [3, 0]<br/>class = disatisfied>, fillcolor="#e58139"] ;
225 -> 229 ;
230 [label=<Departure Delay in Minutes &le; 13.5<br/>gini = 0.5<br/>samples = 8<br/>value = [4, 4]<br/>class = disatisfied>, fillcolor="#ffffff"] ;
222 -> 230 ;
231 [label=<Flight Distance &le; 2357.0<br/>gini = 0.32<br/>samples = 5<br/>value = [1, 4]<br/>class = satisfied>, fillcolor="#6ab6ec"] ;
230 -> 231 ;
232 [label=<gini = 0.0<br/>samples = 4<br/>value = [0, 4]<br/>class = satisfied>, fillcolor="#399de5"] ;
231 -> 232 ;
233 [label=<gini = 0.0<br/>samples = 1<br/>value = [1, 0]<br/>class = disatisfied>, fillcolor="#e58139"] ;
231 -> 233 ;
234 [label=<gini = 0.0<br/>samples = 3<br/>value = [3, 0]<br/>class = disatisfied>, fillcolor="#e58139"] ;
230 -> 234 ;
235 [label=<Age &le; 22.5<br/>gini = 0.084<br/>samples = 274<br/>value = [262, 12]<br/>class = disatisfied>, fillcolor="#e68742"] ;
221 -> 235 ;
236 [label=<Checkin service &le; 3.5<br/>gini = 0.014<br/>samples = 146<br/>value = [145, 1]<br/>class = disatisfied>, fillcolor="#e5823a"] ;
235 -> 236 ;
237 [label=<gini = 0.0<br/>samples = 111<br/>value = [111, 0]<br/>class = disatisfied>, fillcolor="#e58139"] ;
236 -> 237 ;
238 [label=<Flight Distance &le; 1051.5<br/>gini = 0.056<br/>samples = 35<br/>value = [34, 1]<br/>class = disatisfied>, fillcolor="#e6853f"] ;
236 -> 238 ;
239 [label=<Flight Distance &le; 991.0<br/>gini = 0.198<br/>samples = 9<br/>value = [8, 1]<br/>class = disatisfied>, fillcolor="#e89152"] ;
238 -> 239 ;
240 [label=<gini = 0.0<br/>samples = 8<br/>value = [8, 0]<br/>class = disatisfied>, fillcolor="#e58139"] ;
239 -> 240 ;
241 [label=<gini = 0.0<br/>samples = 1<br/>value = [0, 1]<br/>class = satisfied>, fillcolor="#399de5"] ;
239 -> 241 ;
242 [label=<gini = 0.0<br/>samples = 26<br/>value = [26, 0]<br/>class = disatisfied>, fillcolor="#e58139"] ;
238 -> 242 ;
243 [label=<Inflight service &le; 3.5<br/>gini = 0.157<br/>samples = 128<br/>value = [117, 11]<br/>class = disatisfied>, fillcolor="#e78d4c"] ;
235 -> 243 ;
244 [label=<Departure/Arrival time convenient &le; 3.5<br/>gini = 0.033<br/>samples = 60<br/>value = [59, 1]<br/>class = disatisfied>, fillcolor="#e5833c"] ;
243 -> 244 ;
245 [label=<gini = 0.0<br/>samples = 55<br/>value = [55, 0]<br/>class = disatisfied>, fillcolor="#e58139"] ;
244 -> 245 ;
246 [label=<On-board service &le; 1.5<br/>gini = 0.32<br/>samples = 5<br/>value = [4, 1]<br/>class = disatisfied>, fillcolor="#eca06a"] ;
244 -> 246 ;
247 [label=<gini = 0.0<br/>samples = 1<br/>value = [0, 1]<br/>class = satisfied>, fillcolor="#399de5"] ;
246 -> 247 ;
248 [label=<gini = 0.0<br/>samples = 4<br/>value = [4, 0]<br/>class = disatisfied>, fillcolor="#e58139"] ;
246 -> 248 ;
249 [label=<Baggage handling &le; 2.5<br/>gini = 0.251<br/>samples = 68<br/>value = [58, 10]<br/>class = disatisfied>, fillcolor="#e9975b"] ;
243 -> 249 ;
250 [label=<gini = 0.0<br/>samples = 1<br/>value = [0, 1]<br/>class = satisfied>, fillcolor="#399de5"] ;
249 -> 250 ;
251 [label=<Arrival Delay in Minutes &le; 11.5<br/>gini = 0.233<br/>samples = 67<br/>value = [58.0, 9.0]<br/>class = disatisfied>, fillcolor="#e99558"] ;
249 -> 251 ;
252 [label=<Arrival Delay in Minutes &le; 9.0<br/>gini = 0.326<br/>samples = 39<br/>value = [31.0, 8.0]<br/>class = disatisfied>, fillcolor="#eca26c"] ;
251 -> 252 ;
253 [label=<Flight Distance &le; 1065.0<br/>gini = 0.278<br/>samples = 36<br/>value = [30, 6]<br/>class = disatisfied>, fillcolor="#ea9a61"] ;
252 -> 253 ;
254 [label=<gini = 0.0<br/>samples = 14<br/>value = [14, 0]<br/>class = disatisfied>, fillcolor="#e58139"] ;
253 -> 254 ;
255 [label=<Gender &le; 0.5<br/>gini = 0.397<br/>samples = 22<br/>value = [16, 6]<br/>class = disatisfied>, fillcolor="#efb083"] ;
253 -> 255 ;
256 [label=<Age &le; 23.5<br/>gini = 0.142<br/>samples = 13<br/>value = [12, 1]<br/>class = disatisfied>, fillcolor="#e78c49"] ;
255 -> 256 ;
257 [label=<Online boarding &le; 2.5<br/>gini = 0.375<br/>samples = 4<br/>value = [3, 1]<br/>class = disatisfied>, fillcolor="#eeab7b"] ;
256 -> 257 ;
258 [label=<gini = 0.0<br/>samples = 1<br/>value = [0, 1]<br/>class = satisfied>, fillcolor="#399de5"] ;
257 -> 258 ;
259 [label=<gini = 0.0<br/>samples = 3<br/>value = [3, 0]<br/>class = disatisfied>, fillcolor="#e58139"] ;
257 -> 259 ;
260 [label=<gini = 0.0<br/>samples = 9<br/>value = [9, 0]<br/>class = disatisfied>, fillcolor="#e58139"] ;
256 -> 260 ;
261 [label=<Leg room service &le; 1.5<br/>gini = 0.494<br/>samples = 9<br/>value = [4, 5]<br/>class = satisfied>, fillcolor="#d7ebfa"] ;
255 -> 261 ;
262 [label=<gini = 0.0<br/>samples = 3<br/>value = [3, 0]<br/>class = disatisfied>, fillcolor="#e58139"] ;
261 -> 262 ;
263 [label=<Baggage handling &le; 3.5<br/>gini = 0.278<br/>samples = 6<br/>value = [1, 5]<br/>class = satisfied>, fillcolor="#61b1ea"] ;
261 -> 263 ;
264 [label=<gini = 0.0<br/>samples = 1<br/>value = [1, 0]<br/>class = disatisfied>, fillcolor="#e58139"] ;
263 -> 264 ;
265 [label=<gini = 0.0<br/>samples = 5<br/>value = [0, 5]<br/>class = satisfied>, fillcolor="#399de5"] ;
263 -> 265 ;
266 [label=<On-board service &le; 2.0<br/>gini = 0.444<br/>samples = 3<br/>value = [1, 2]<br/>class = satisfied>, fillcolor="#9ccef2"] ;
252 -> 266 ;
267 [label=<gini = 0.0<br/>samples = 1<br/>value = [1, 0]<br/>class = disatisfied>, fillcolor="#e58139"] ;
266 -> 267 ;
268 [label=<gini = 0.0<br/>samples = 2<br/>value = [0, 2]<br/>class = satisfied>, fillcolor="#399de5"] ;
266 -> 268 ;
269 [label=<Flight Distance &le; 481.0<br/>gini = 0.069<br/>samples = 28<br/>value = [27, 1]<br/>class = disatisfied>, fillcolor="#e68640"] ;
251 -> 269 ;
270 [label=<Arrival Delay in Minutes &le; 34.0<br/>gini = 0.375<br/>samples = 4<br/>value = [3, 1]<br/>class = disatisfied>, fillcolor="#eeab7b"] ;
269 -> 270 ;
271 [label=<gini = 0.0<br/>samples = 1<br/>value = [0, 1]<br/>class = satisfied>, fillcolor="#399de5"] ;
270 -> 271 ;
272 [label=<gini = 0.0<br/>samples = 3<br/>value = [3, 0]<br/>class = disatisfied>, fillcolor="#e58139"] ;
270 -> 272 ;
273 [label=<gini = 0.0<br/>samples = 24<br/>value = [24, 0]<br/>class = disatisfied>, fillcolor="#e58139"] ;
269 -> 273 ;
274 [label=<Checkin service &le; 3.5<br/>gini = 0.049<br/>samples = 1196<br/>value = [1166, 30]<br/>class = disatisfied>, fillcolor="#e6843e"] ;
220 -> 274 ;
275 [label=<Flight Distance &le; 3979.5<br/>gini = 0.033<br/>samples = 905<br/>value = [890, 15]<br/>class = disatisfied>, fillcolor="#e5833c"] ;
274 -> 275 ;
276 [label=<Seat comfort &le; 1.5<br/>gini = 0.031<br/>samples = 902<br/>value = [888, 14]<br/>class = disatisfied>, fillcolor="#e5833c"] ;
275 -> 276 ;
277 [label=<Departure Delay in Minutes &le; 1.0<br/>gini = 0.159<br/>samples = 23<br/>value = [21, 2]<br/>class = disatisfied>, fillcolor="#e78d4c"] ;
276 -> 277 ;
278 [label=<Cleanliness &le; 2.5<br/>gini = 0.444<br/>samples = 6<br/>value = [4, 2]<br/>class = disatisfied>, fillcolor="#f2c09c"] ;
277 -> 278 ;
279 [label=<gini = 0.0<br/>samples = 3<br/>value = [3, 0]<br/>class = disatisfied>, fillcolor="#e58139"] ;
278 -> 279 ;
280 [label=<Ease of Online booking &le; 2.5<br/>gini = 0.444<br/>samples = 3<br/>value = [1, 2]<br/>class = satisfied>, fillcolor="#9ccef2"] ;
278 -> 280 ;
281 [label=<gini = 0.0<br/>samples = 2<br/>value = [0, 2]<br/>class = satisfied>, fillcolor="#399de5"] ;
280 -> 281 ;
282 [label=<gini = 0.0<br/>samples = 1<br/>value = [1, 0]<br/>class = disatisfied>, fillcolor="#e58139"] ;
280 -> 282 ;
283 [label=<gini = 0.0<br/>samples = 17<br/>value = [17, 0]<br/>class = disatisfied>, fillcolor="#e58139"] ;
277 -> 283 ;
284 [label=<Inflight entertainment &le; 2.5<br/>gini = 0.027<br/>samples = 879<br/>value = [867, 12]<br/>class = disatisfied>, fillcolor="#e5833c"] ;
276 -> 284 ;
285 [label=<Inflight wifi service &le; 2.5<br/>gini = 0.048<br/>samples = 450<br/>value = [439, 11]<br/>class = disatisfied>, fillcolor="#e6843e"] ;
284 -> 285 ;
286 [label=<Ease of Online booking &le; 3.5<br/>gini = 0.02<br/>samples = 401<br/>value = [397, 4]<br/>class = disatisfied>, fillcolor="#e5823b"] ;
285 -> 286 ;
287 [label=<Flight Distance &le; 942.5<br/>gini = 0.011<br/>samples = 378<br/>value = [376, 2]<br/>class = disatisfied>, fillcolor="#e5823a"] ;
286 -> 287 ;
288 [label=<Flight Distance &le; 931.0<br/>gini = 0.034<br/>samples = 116<br/>value = [114, 2]<br/>class = disatisfied>, fillcolor="#e5833c"] ;
287 -> 288 ;
289 [label=<Flight Distance &le; 776.0<br/>gini = 0.017<br/>samples = 115<br/>value = [114, 1]<br/>class = disatisfied>, fillcolor="#e5823b"] ;
288 -> 289 ;
290 [label=<gini = 0.0<br/>samples = 101<br/>value = [101, 0]<br/>class = disatisfied>, fillcolor="#e58139"] ;
289 -> 290 ;
291 [label=<Flight Distance &le; 783.0<br/>gini = 0.133<br/>samples = 14<br/>value = [13, 1]<br/>class = disatisfied>, fillcolor="#e78b48"] ;
289 -> 291 ;
292 [label=<gini = 0.0<br/>samples = 1<br/>value = [0, 1]<br/>class = satisfied>, fillcolor="#399de5"] ;
291 -> 292 ;
293 [label=<gini = 0.0<br/>samples = 13<br/>value = [13, 0]<br/>class = disatisfied>, fillcolor="#e58139"] ;
291 -> 293 ;
294 [label=<gini = 0.0<br/>samples = 1<br/>value = [0, 1]<br/>class = satisfied>, fillcolor="#399de5"] ;
288 -> 294 ;
295 [label=<gini = 0.0<br/>samples = 262<br/>value = [262, 0]<br/>class = disatisfied>, fillcolor="#e58139"] ;
287 -> 295 ;
296 [label=<Baggage handling &le; 3.5<br/>gini = 0.159<br/>samples = 23<br/>value = [21, 2]<br/>class = disatisfied>, fillcolor="#e78d4c"] ;
286 -> 296 ;
297 [label=<Food and drink &le; 4.5<br/>gini = 0.087<br/>samples = 22<br/>value = [21, 1]<br/>class = disatisfied>, fillcolor="#e68742"] ;
296 -> 297 ;
298 [label=<gini = 0.0<br/>samples = 20<br/>value = [20, 0]<br/>class = disatisfied>, fillcolor="#e58139"] ;
297 -> 298 ;
299 [label=<Age &le; 50.5<br/>gini = 0.5<br/>samples = 2<br/>value = [1, 1]<br/>class = disatisfied>, fillcolor="#ffffff"] ;
297 -> 299 ;
300 [label=<gini = 0.0<br/>samples = 1<br/>value = [1, 0]<br/>class = disatisfied>, fillcolor="#e58139"] ;
299 -> 300 ;
301 [label=<gini = 0.0<br/>samples = 1<br/>value = [0, 1]<br/>class = satisfied>, fillcolor="#399de5"] ;
299 -> 301 ;
302 [label=<gini = 0.0<br/>samples = 1<br/>value = [0, 1]<br/>class = satisfied>, fillcolor="#399de5"] ;
296 -> 302 ;
303 [label=<Flight Distance &le; 1255.5<br/>gini = 0.245<br/>samples = 49<br/>value = [42, 7]<br/>class = disatisfied>, fillcolor="#e9965a"] ;
285 -> 303 ;
304 [label=<gini = 0.0<br/>samples = 32<br/>value = [32, 0]<br/>class = disatisfied>, fillcolor="#e58139"] ;
303 -> 304 ;
305 [label=<Departure/Arrival time convenient &le; 2.5<br/>gini = 0.484<br/>samples = 17<br/>value = [10, 7]<br/>class = disatisfied>, fillcolor="#f7d9c4"] ;
303 -> 305 ;
306 [label=<gini = 0.0<br/>samples = 7<br/>value = [7, 0]<br/>class = disatisfied>, fillcolor="#e58139"] ;
305 -> 306 ;
307 [label=<Departure Delay in Minutes &le; 11.0<br/>gini = 0.42<br/>samples = 10<br/>value = [3, 7]<br/>class = satisfied>, fillcolor="#8ec7f0"] ;
305 -> 307 ;
308 [label=<gini = 0.0<br/>samples = 6<br/>value = [0, 6]<br/>class = satisfied>, fillcolor="#399de5"] ;
307 -> 308 ;
309 [label=<Online boarding &le; 2.5<br/>gini = 0.375<br/>samples = 4<br/>value = [3, 1]<br/>class = disatisfied>, fillcolor="#eeab7b"] ;
307 -> 309 ;
310 [label=<gini = 0.0<br/>samples = 1<br/>value = [0, 1]<br/>class = satisfied>, fillcolor="#399de5"] ;
309 -> 310 ;
311 [label=<gini = 0.0<br/>samples = 3<br/>value = [3, 0]<br/>class = disatisfied>, fillcolor="#e58139"] ;
309 -> 311 ;
312 [label=<Food and drink &le; 4.5<br/>gini = 0.005<br/>samples = 429<br/>value = [428, 1]<br/>class = disatisfied>, fillcolor="#e58139"] ;
284 -> 312 ;
313 [label=<gini = 0.0<br/>samples = 358<br/>value = [358, 0]<br/>class = disatisfied>, fillcolor="#e58139"] ;
312 -> 313 ;
314 [label=<Flight Distance &le; 474.5<br/>gini = 0.028<br/>samples = 71<br/>value = [70, 1]<br/>class = disatisfied>, fillcolor="#e5833c"] ;
312 -> 314 ;
315 [label=<Flight Distance &le; 459.0<br/>gini = 0.105<br/>samples = 18<br/>value = [17, 1]<br/>class = disatisfied>, fillcolor="#e78845"] ;
314 -> 315 ;
316 [label=<gini = 0.0<br/>samples = 17<br/>value = [17, 0]<br/>class = disatisfied>, fillcolor="#e58139"] ;
315 -> 316 ;
317 [label=<gini = 0.0<br/>samples = 1<br/>value = [0, 1]<br/>class = satisfied>, fillcolor="#399de5"] ;
315 -> 317 ;
318 [label=<gini = 0.0<br/>samples = 53<br/>value = [53, 0]<br/>class = disatisfied>, fillcolor="#e58139"] ;
314 -> 318 ;
319 [label=<Ease of Online booking &le; 2.0<br/>gini = 0.444<br/>samples = 3<br/>value = [2, 1]<br/>class = disatisfied>, fillcolor="#f2c09c"] ;
275 -> 319 ;
320 [label=<gini = 0.0<br/>samples = 1<br/>value = [0, 1]<br/>class = satisfied>, fillcolor="#399de5"] ;
319 -> 320 ;
321 [label=<gini = 0.0<br/>samples = 2<br/>value = [2, 0]<br/>class = disatisfied>, fillcolor="#e58139"] ;
319 -> 321 ;
322 [label=<Departure/Arrival time convenient &le; 4.5<br/>gini = 0.098<br/>samples = 291<br/>value = [276, 15]<br/>class = disatisfied>, fillcolor="#e68844"] ;
274 -> 322 ;
323 [label=<Arrival Delay in Minutes &le; 0.5<br/>gini = 0.092<br/>samples = 289<br/>value = [275, 14]<br/>class = disatisfied>, fillcolor="#e68743"] ;
322 -> 323 ;
324 [label=<Departure Delay in Minutes &le; 0.5<br/>gini = 0.138<br/>samples = 134<br/>value = [124, 10]<br/>class = disatisfied>, fillcolor="#e78b49"] ;
323 -> 324 ;
325 [label=<Seat comfort &le; 1.5<br/>gini = 0.075<br/>samples = 103<br/>value = [99.0, 4.0]<br/>class = disatisfied>, fillcolor="#e68641"] ;
324 -> 325 ;
326 [label=<Online boarding &le; 2.5<br/>gini = 0.5<br/>samples = 2<br/>value = [1, 1]<br/>class = disatisfied>, fillcolor="#ffffff"] ;
325 -> 326 ;
327 [label=<gini = 0.0<br/>samples = 1<br/>value = [1, 0]<br/>class = disatisfied>, fillcolor="#e58139"] ;
326 -> 327 ;
328 [label=<gini = 0.0<br/>samples = 1<br/>value = [0, 1]<br/>class = satisfied>, fillcolor="#399de5"] ;
326 -> 328 ;
329 [label=<Inflight wifi service &le; 2.5<br/>gini = 0.058<br/>samples = 101<br/>value = [98, 3]<br/>class = disatisfied>, fillcolor="#e6853f"] ;
325 -> 329 ;
330 [label=<gini = 0.0<br/>samples = 55<br/>value = [55, 0]<br/>class = disatisfied>, fillcolor="#e58139"] ;
329 -> 330 ;
331 [label=<Baggage handling &le; 2.5<br/>gini = 0.122<br/>samples = 46<br/>value = [43, 3]<br/>class = disatisfied>, fillcolor="#e78a47"] ;
329 -> 331 ;
332 [label=<gini = 0.0<br/>samples = 2<br/>value = [0, 2]<br/>class = satisfied>, fillcolor="#399de5"] ;
331 -> 332 ;
333 [label=<Food and drink &le; 4.5<br/>gini = 0.044<br/>samples = 44<br/>value = [43, 1]<br/>class = disatisfied>, fillcolor="#e6843e"] ;
331 -> 333 ;
334 [label=<gini = 0.0<br/>samples = 35<br/>value = [35, 0]<br/>class = disatisfied>, fillcolor="#e58139"] ;
333 -> 334 ;
335 [label=<Flight Distance &le; 2200.5<br/>gini = 0.198<br/>samples = 9<br/>value = [8, 1]<br/>class = disatisfied>, fillcolor="#e89152"] ;
333 -> 335 ;
336 [label=<gini = 0.0<br/>samples = 7<br/>value = [7, 0]<br/>class = disatisfied>, fillcolor="#e58139"] ;
335 -> 336 ;
337 [label=<Gender &le; 0.5<br/>gini = 0.5<br/>samples = 2<br/>value = [1, 1]<br/>class = disatisfied>, fillcolor="#ffffff"] ;
335 -> 337 ;
338 [label=<gini = 0.0<br/>samples = 1<br/>value = [0, 1]<br/>class = satisfied>, fillcolor="#399de5"] ;
337 -> 338 ;
339 [label=<gini = 0.0<br/>samples = 1<br/>value = [1, 0]<br/>class = disatisfied>, fillcolor="#e58139"] ;
337 -> 339 ;
340 [label=<On-board service &le; 2.5<br/>gini = 0.312<br/>samples = 31<br/>value = [25, 6]<br/>class = disatisfied>, fillcolor="#eb9f69"] ;
324 -> 340 ;
341 [label=<gini = 0.0<br/>samples = 12<br/>value = [12, 0]<br/>class = disatisfied>, fillcolor="#e58139"] ;
340 -> 341 ;
342 [label=<Inflight wifi service &le; 2.5<br/>gini = 0.432<br/>samples = 19<br/>value = [13, 6]<br/>class = disatisfied>, fillcolor="#f1bb94"] ;
340 -> 342 ;
343 [label=<Flight Distance &le; 1048.5<br/>gini = 0.408<br/>samples = 7<br/>value = [2, 5]<br/>class = satisfied>, fillcolor="#88c4ef"] ;
342 -> 343 ;
344 [label=<gini = 0.0<br/>samples = 2<br/>value = [2, 0]<br/>class = disatisfied>, fillcolor="#e58139"] ;
343 -> 344 ;
345 [label=<gini = 0.0<br/>samples = 5<br/>value = [0, 5]<br/>class = satisfied>, fillcolor="#399de5"] ;
343 -> 345 ;
346 [label=<Age &le; 34.0<br/>gini = 0.153<br/>samples = 12<br/>value = [11, 1]<br/>class = disatisfied>, fillcolor="#e78c4b"] ;
342 -> 346 ;
347 [label=<Gender &le; 0.5<br/>gini = 0.5<br/>samples = 2<br/>value = [1, 1]<br/>class = disatisfied>, fillcolor="#ffffff"] ;
346 -> 347 ;
348 [label=<gini = 0.0<br/>samples = 1<br/>value = [1, 0]<br/>class = disatisfied>, fillcolor="#e58139"] ;
347 -> 348 ;
349 [label=<gini = 0.0<br/>samples = 1<br/>value = [0, 1]<br/>class = satisfied>, fillcolor="#399de5"] ;
347 -> 349 ;
350 [label=<gini = 0.0<br/>samples = 10<br/>value = [10, 0]<br/>class = disatisfied>, fillcolor="#e58139"] ;
346 -> 350 ;
351 [label=<Departure/Arrival time convenient &le; 1.5<br/>gini = 0.05<br/>samples = 155<br/>value = [151, 4]<br/>class = disatisfied>, fillcolor="#e6843e"] ;
323 -> 351 ;
352 [label=<Departure Delay in Minutes &le; 67.0<br/>gini = 0.375<br/>samples = 4<br/>value = [3, 1]<br/>class = disatisfied>, fillcolor="#eeab7b"] ;
351 -> 352 ;
353 [label=<gini = 0.0<br/>samples = 3<br/>value = [3, 0]<br/>class = disatisfied>, fillcolor="#e58139"] ;
352 -> 353 ;
354 [label=<gini = 0.0<br/>samples = 1<br/>value = [0, 1]<br/>class = satisfied>, fillcolor="#399de5"] ;
352 -> 354 ;
355 [label=<Leg room service &le; 1.5<br/>gini = 0.039<br/>samples = 151<br/>value = [148, 3]<br/>class = disatisfied>, fillcolor="#e6843d"] ;
351 -> 355 ;
356 [label=<On-board service &le; 3.0<br/>gini = 0.278<br/>samples = 6<br/>value = [5, 1]<br/>class = disatisfied>, fillcolor="#ea9a61"] ;
355 -> 356 ;
357 [label=<gini = 0.0<br/>samples = 5<br/>value = [5, 0]<br/>class = disatisfied>, fillcolor="#e58139"] ;
356 -> 357 ;
358 [label=<gini = 0.0<br/>samples = 1<br/>value = [0, 1]<br/>class = satisfied>, fillcolor="#399de5"] ;
356 -> 358 ;
359 [label=<Arrival Delay in Minutes &le; 32.5<br/>gini = 0.027<br/>samples = 145<br/>value = [143, 2]<br/>class = disatisfied>, fillcolor="#e5833c"] ;
355 -> 359 ;
360 [label=<gini = 0.0<br/>samples = 92<br/>value = [92, 0]<br/>class = disatisfied>, fillcolor="#e58139"] ;
359 -> 360 ;
361 [label=<Departure Delay in Minutes &le; 4.0<br/>gini = 0.073<br/>samples = 53<br/>value = [51, 2]<br/>class = disatisfied>, fillcolor="#e68641"] ;
359 -> 361 ;
362 [label=<Arrival Delay in Minutes &le; 51.0<br/>gini = 0.5<br/>samples = 2<br/>value = [1, 1]<br/>class = disatisfied>, fillcolor="#ffffff"] ;
361 -> 362 ;
363 [label=<gini = 0.0<br/>samples = 1<br/>value = [0, 1]<br/>class = satisfied>, fillcolor="#399de5"] ;
362 -> 363 ;
364 [label=<gini = 0.0<br/>samples = 1<br/>value = [1, 0]<br/>class = disatisfied>, fillcolor="#e58139"] ;
362 -> 364 ;
365 [label=<Arrival Delay in Minutes &le; 33.5<br/>gini = 0.038<br/>samples = 51<br/>value = [50, 1]<br/>class = disatisfied>, fillcolor="#e6843d"] ;
361 -> 365 ;
366 [label=<Flight Distance &le; 502.0<br/>gini = 0.444<br/>samples = 3<br/>value = [2, 1]<br/>class = disatisfied>, fillcolor="#f2c09c"] ;
365 -> 366 ;
367 [label=<gini = 0.0<br/>samples = 1<br/>value = [0, 1]<br/>class = satisfied>, fillcolor="#399de5"] ;
366 -> 367 ;
368 [label=<gini = 0.0<br/>samples = 2<br/>value = [2, 0]<br/>class = disatisfied>, fillcolor="#e58139"] ;
366 -> 368 ;
369 [label=<gini = 0.0<br/>samples = 48<br/>value = [48, 0]<br/>class = disatisfied>, fillcolor="#e58139"] ;
365 -> 369 ;
370 [label=<Type of Travel &le; 0.5<br/>gini = 0.5<br/>samples = 2<br/>value = [1, 1]<br/>class = disatisfied>, fillcolor="#ffffff"] ;
322 -> 370 ;
371 [label=<gini = 0.0<br/>samples = 1<br/>value = [0, 1]<br/>class = satisfied>, fillcolor="#399de5"] ;
370 -> 371 ;
372 [label=<gini = 0.0<br/>samples = 1<br/>value = [1, 0]<br/>class = disatisfied>, fillcolor="#e58139"] ;
370 -> 372 ;
373 [label=<Food and drink &le; 3.5<br/>gini = 0.133<br/>samples = 390<br/>value = [362.0, 28.0]<br/>class = disatisfied>, fillcolor="#e78b48"] ;
219 -> 373 ;
374 [label=<Cleanliness &le; 3.5<br/>gini = 0.101<br/>samples = 374<br/>value = [354, 20]<br/>class = disatisfied>, fillcolor="#e68844"] ;
373 -> 374 ;
375 [label=<Flight Distance &le; 3990.5<br/>gini = 0.092<br/>samples = 372<br/>value = [354, 18]<br/>class = disatisfied>, fillcolor="#e68743"] ;
374 -> 375 ;
376 [label=<Age &le; 70.5<br/>gini = 0.087<br/>samples = 371<br/>value = [354, 17]<br/>class = disatisfied>, fillcolor="#e68743"] ;
375 -> 376 ;
377 [label=<Ease of Online booking &le; 1.5<br/>gini = 0.083<br/>samples = 370<br/>value = [354, 16]<br/>class = disatisfied>, fillcolor="#e68742"] ;
376 -> 377 ;
378 [label=<Inflight entertainment &le; 2.5<br/>gini = 0.5<br/>samples = 2<br/>value = [1, 1]<br/>class = disatisfied>, fillcolor="#ffffff"] ;
377 -> 378 ;
379 [label=<gini = 0.0<br/>samples = 1<br/>value = [1, 0]<br/>class = disatisfied>, fillcolor="#e58139"] ;
378 -> 379 ;
380 [label=<gini = 0.0<br/>samples = 1<br/>value = [0, 1]<br/>class = satisfied>, fillcolor="#399de5"] ;
378 -> 380 ;
381 [label=<Cleanliness &le; 1.5<br/>gini = 0.078<br/>samples = 368<br/>value = [353, 15]<br/>class = disatisfied>, fillcolor="#e68641"] ;
377 -> 381 ;
382 [label=<Age &le; 47.0<br/>gini = 0.408<br/>samples = 7<br/>value = [5, 2]<br/>class = disatisfied>, fillcolor="#efb388"] ;
381 -> 382 ;
383 [label=<gini = 0.0<br/>samples = 4<br/>value = [4, 0]<br/>class = disatisfied>, fillcolor="#e58139"] ;
382 -> 383 ;
384 [label=<Inflight service &le; 3.5<br/>gini = 0.444<br/>samples = 3<br/>value = [1, 2]<br/>class = satisfied>, fillcolor="#9ccef2"] ;
382 -> 384 ;
385 [label=<gini = 0.0<br/>samples = 2<br/>value = [0, 2]<br/>class = satisfied>, fillcolor="#399de5"] ;
384 -> 385 ;
386 [label=<gini = 0.0<br/>samples = 1<br/>value = [1, 0]<br/>class = disatisfied>, fillcolor="#e58139"] ;
384 -> 386 ;
387 [label=<Inflight service &le; 3.5<br/>gini = 0.069<br/>samples = 361<br/>value = [348.0, 13.0]<br/>class = disatisfied>, fillcolor="#e68640"] ;
381 -> 387 ;
388 [label=<Departure Delay in Minutes &le; 60.0<br/>gini = 0.011<br/>samples = 187<br/>value = [186.0, 1.0]<br/>class = disatisfied>, fillcolor="#e5823a"] ;
387 -> 388 ;
389 [label=<gini = 0.0<br/>samples = 164<br/>value = [164, 0]<br/>class = disatisfied>, fillcolor="#e58139"] ;
388 -> 389 ;
390 [label=<Departure Delay in Minutes &le; 63.0<br/>gini = 0.083<br/>samples = 23<br/>value = [22, 1]<br/>class = disatisfied>, fillcolor="#e68742"] ;
388 -> 390 ;
391 [label=<gini = 0.0<br/>samples = 1<br/>value = [0, 1]<br/>class = satisfied>, fillcolor="#399de5"] ;
390 -> 391 ;
392 [label=<gini = 0.0<br/>samples = 22<br/>value = [22, 0]<br/>class = disatisfied>, fillcolor="#e58139"] ;
390 -> 392 ;
393 [label=<Flight Distance &le; 937.5<br/>gini = 0.128<br/>samples = 174<br/>value = [162, 12]<br/>class = disatisfied>, fillcolor="#e78a48"] ;
387 -> 393 ;
394 [label=<gini = 0.0<br/>samples = 60<br/>value = [60, 0]<br/>class = disatisfied>, fillcolor="#e58139"] ;
393 -> 394 ;
395 [label=<Flight Distance &le; 948.0<br/>gini = 0.188<br/>samples = 114<br/>value = [102, 12]<br/>class = disatisfied>, fillcolor="#e89050"] ;
393 -> 395 ;
396 [label=<gini = 0.0<br/>samples = 1<br/>value = [0, 1]<br/>class = satisfied>, fillcolor="#399de5"] ;
395 -> 396 ;
397 [label=<On-board service &le; 2.5<br/>gini = 0.176<br/>samples = 113<br/>value = [102, 11]<br/>class = disatisfied>, fillcolor="#e88f4e"] ;
395 -> 397 ;
398 [label=<Flight Distance &le; 3504.5<br/>gini = 0.044<br/>samples = 44<br/>value = [43, 1]<br/>class = disatisfied>, fillcolor="#e6843e"] ;
397 -> 398 ;
399 [label=<gini = 0.0<br/>samples = 39<br/>value = [39, 0]<br/>class = disatisfied>, fillcolor="#e58139"] ;
398 -> 399 ;
400 [label=<Flight Distance &le; 3552.5<br/>gini = 0.32<br/>samples = 5<br/>value = [4, 1]<br/>class = disatisfied>, fillcolor="#eca06a"] ;
398 -> 400 ;
401 [label=<gini = 0.0<br/>samples = 1<br/>value = [0, 1]<br/>class = satisfied>, fillcolor="#399de5"] ;
400 -> 401 ;
402 [label=<gini = 0.0<br/>samples = 4<br/>value = [4, 0]<br/>class = disatisfied>, fillcolor="#e58139"] ;
400 -> 402 ;
403 [label=<Arrival Delay in Minutes &le; 16.5<br/>gini = 0.248<br/>samples = 69<br/>value = [59, 10]<br/>class = disatisfied>, fillcolor="#e9965b"] ;
397 -> 403 ;
404 [label=<Departure Delay in Minutes &le; 13.0<br/>gini = 0.311<br/>samples = 52<br/>value = [42, 10]<br/>class = disatisfied>, fillcolor="#eb9f68"] ;
403 -> 404 ;
405 [label=<Age &le; 44.5<br/>gini = 0.201<br/>samples = 44<br/>value = [39, 5]<br/>class = disatisfied>, fillcolor="#e89152"] ;
404 -> 405 ;
406 [label=<Departure Delay in Minutes &le; 0.5<br/>gini = 0.169<br/>samples = 43<br/>value = [39, 4]<br/>class = disatisfied>, fillcolor="#e88e4d"] ;
405 -> 406 ;
407 [label=<Food and drink &le; 2.5<br/>gini = 0.219<br/>samples = 32<br/>value = [28, 4]<br/>class = disatisfied>, fillcolor="#e99355"] ;
406 -> 407 ;
408 [label=<Age &le; 20.0<br/>gini = 0.105<br/>samples = 18<br/>value = [17, 1]<br/>class = disatisfied>, fillcolor="#e78845"] ;
407 -> 408 ;
409 [label=<Gate location &le; 2.5<br/>gini = 0.444<br/>samples = 3<br/>value = [2, 1]<br/>class = disatisfied>, fillcolor="#f2c09c"] ;
408 -> 409 ;
410 [label=<gini = 0.0<br/>samples = 1<br/>value = [0, 1]<br/>class = satisfied>, fillcolor="#399de5"] ;
409 -> 410 ;
411 [label=<gini = 0.0<br/>samples = 2<br/>value = [2, 0]<br/>class = disatisfied>, fillcolor="#e58139"] ;
409 -> 411 ;
412 [label=<gini = 0.0<br/>samples = 15<br/>value = [15, 0]<br/>class = disatisfied>, fillcolor="#e58139"] ;
408 -> 412 ;
413 [label=<Age &le; 26.5<br/>gini = 0.337<br/>samples = 14<br/>value = [11, 3]<br/>class = disatisfied>, fillcolor="#eca36f"] ;
407 -> 413 ;
414 [label=<gini = 0.0<br/>samples = 6<br/>value = [6, 0]<br/>class = disatisfied>, fillcolor="#e58139"] ;
413 -> 414 ;
415 [label=<Customer Type &le; 0.5<br/>gini = 0.469<br/>samples = 8<br/>value = [5, 3]<br/>class = disatisfied>, fillcolor="#f5cdb0"] ;
413 -> 415 ;
416 [label=<Gender &le; 0.5<br/>gini = 0.48<br/>samples = 5<br/>value = [2, 3]<br/>class = satisfied>, fillcolor="#bddef6"] ;
415 -> 416 ;
417 [label=<Age &le; 30.5<br/>gini = 0.444<br/>samples = 3<br/>value = [2, 1]<br/>class = disatisfied>, fillcolor="#f2c09c"] ;
416 -> 417 ;
418 [label=<gini = 0.0<br/>samples = 2<br/>value = [2, 0]<br/>class = disatisfied>, fillcolor="#e58139"] ;
417 -> 418 ;
419 [label=<gini = 0.0<br/>samples = 1<br/>value = [0, 1]<br/>class = satisfied>, fillcolor="#399de5"] ;
417 -> 419 ;
420 [label=<gini = 0.0<br/>samples = 2<br/>value = [0, 2]<br/>class = satisfied>, fillcolor="#399de5"] ;
416 -> 420 ;
421 [label=<gini = 0.0<br/>samples = 3<br/>value = [3, 0]<br/>class = disatisfied>, fillcolor="#e58139"] ;
415 -> 421 ;
422 [label=<gini = 0.0<br/>samples = 11<br/>value = [11, 0]<br/>class = disatisfied>, fillcolor="#e58139"] ;
406 -> 422 ;
423 [label=<gini = 0.0<br/>samples = 1<br/>value = [0, 1]<br/>class = satisfied>, fillcolor="#399de5"] ;
405 -> 423 ;
424 [label=<Ease of Online booking &le; 2.5<br/>gini = 0.469<br/>samples = 8<br/>value = [3, 5]<br/>class = satisfied>, fillcolor="#b0d8f5"] ;
404 -> 424 ;
425 [label=<Age &le; 30.5<br/>gini = 0.48<br/>samples = 5<br/>value = [3, 2]<br/>class = disatisfied>, fillcolor="#f6d5bd"] ;
424 -> 425 ;
426 [label=<gini = 0.0<br/>samples = 2<br/>value = [2, 0]<br/>class = disatisfied>, fillcolor="#e58139"] ;
425 -> 426 ;
427 [label=<Arrival Delay in Minutes &le; 13.5<br/>gini = 0.444<br/>samples = 3<br/>value = [1, 2]<br/>class = satisfied>, fillcolor="#9ccef2"] ;
425 -> 427 ;
428 [label=<gini = 0.0<br/>samples = 2<br/>value = [0, 2]<br/>class = satisfied>, fillcolor="#399de5"] ;
427 -> 428 ;
429 [label=<gini = 0.0<br/>samples = 1<br/>value = [1, 0]<br/>class = disatisfied>, fillcolor="#e58139"] ;
427 -> 429 ;
430 [label=<gini = 0.0<br/>samples = 3<br/>value = [0, 3]<br/>class = satisfied>, fillcolor="#399de5"] ;
424 -> 430 ;
431 [label=<gini = 0.0<br/>samples = 17<br/>value = [17, 0]<br/>class = disatisfied>, fillcolor="#e58139"] ;
403 -> 431 ;
432 [label=<gini = 0.0<br/>samples = 1<br/>value = [0, 1]<br/>class = satisfied>, fillcolor="#399de5"] ;
376 -> 432 ;
433 [label=<gini = 0.0<br/>samples = 1<br/>value = [0, 1]<br/>class = satisfied>, fillcolor="#399de5"] ;
375 -> 433 ;
434 [label=<gini = 0.0<br/>samples = 2<br/>value = [0, 2]<br/>class = satisfied>, fillcolor="#399de5"] ;
374 -> 434 ;
435 [label=<Age &le; 59.5<br/>gini = 0.5<br/>samples = 16<br/>value = [8, 8]<br/>class = disatisfied>, fillcolor="#ffffff"] ;
373 -> 435 ;
436 [label=<Inflight wifi service &le; 2.5<br/>gini = 0.444<br/>samples = 12<br/>value = [4, 8]<br/>class = satisfied>, fillcolor="#9ccef2"] ;
435 -> 436 ;
437 [label=<gini = 0.0<br/>samples = 4<br/>value = [0, 4]<br/>class = satisfied>, fillcolor="#399de5"] ;
436 -> 437 ;
438 [label=<Departure Delay in Minutes &le; 13.0<br/>gini = 0.5<br/>samples = 8<br/>value = [4, 4]<br/>class = disatisfied>, fillcolor="#ffffff"] ;
436 -> 438 ;
439 [label=<Ease of Online booking &le; 4.0<br/>gini = 0.32<br/>samples = 5<br/>value = [4, 1]<br/>class = disatisfied>, fillcolor="#eca06a"] ;
438 -> 439 ;
440 [label=<gini = 0.0<br/>samples = 4<br/>value = [4, 0]<br/>class = disatisfied>, fillcolor="#e58139"] ;
439 -> 440 ;
441 [label=<gini = 0.0<br/>samples = 1<br/>value = [0, 1]<br/>class = satisfied>, fillcolor="#399de5"] ;
439 -> 441 ;
442 [label=<gini = 0.0<br/>samples = 3<br/>value = [0, 3]<br/>class = satisfied>, fillcolor="#399de5"] ;
438 -> 442 ;
443 [label=<gini = 0.0<br/>samples = 4<br/>value = [4, 0]<br/>class = disatisfied>, fillcolor="#e58139"] ;
435 -> 443 ;
444 [label=<Customer Type &le; 0.5<br/>gini = 0.414<br/>samples = 89<br/>value = [63.0, 26.0]<br/>class = disatisfied>, fillcolor="#f0b58b"] ;
132 -> 444 ;
445 [label=<Departure Delay in Minutes &le; 114.0<br/>gini = 0.497<br/>samples = 52<br/>value = [28, 24]<br/>class = disatisfied>, fillcolor="#fbede3"] ;
444 -> 445 ;
446 [label=<Departure/Arrival time convenient &le; 3.5<br/>gini = 0.485<br/>samples = 41<br/>value = [17, 24]<br/>class = satisfied>, fillcolor="#c5e2f7"] ;
445 -> 446 ;
447 [label=<Age &le; 38.0<br/>gini = 0.415<br/>samples = 34<br/>value = [10, 24]<br/>class = satisfied>, fillcolor="#8bc6f0"] ;
446 -> 447 ;
448 [label=<Leg room service &le; 2.5<br/>gini = 0.252<br/>samples = 27<br/>value = [4, 23]<br/>class = satisfied>, fillcolor="#5baeea"] ;
447 -> 448 ;
449 [label=<Inflight service &le; 3.5<br/>gini = 0.494<br/>samples = 9<br/>value = [4, 5]<br/>class = satisfied>, fillcolor="#d7ebfa"] ;
448 -> 449 ;
450 [label=<Flight Distance &le; 2323.0<br/>gini = 0.32<br/>samples = 5<br/>value = [4, 1]<br/>class = disatisfied>, fillcolor="#eca06a"] ;
449 -> 450 ;
451 [label=<gini = 0.0<br/>samples = 1<br/>value = [0, 1]<br/>class = satisfied>, fillcolor="#399de5"] ;
450 -> 451 ;
452 [label=<gini = 0.0<br/>samples = 4<br/>value = [4, 0]<br/>class = disatisfied>, fillcolor="#e58139"] ;
450 -> 452 ;
453 [label=<gini = 0.0<br/>samples = 4<br/>value = [0, 4]<br/>class = satisfied>, fillcolor="#399de5"] ;
449 -> 453 ;
454 [label=<gini = 0.0<br/>samples = 18<br/>value = [0, 18]<br/>class = satisfied>, fillcolor="#399de5"] ;
448 -> 454 ;
455 [label=<Flight Distance &le; 2530.5<br/>gini = 0.245<br/>samples = 7<br/>value = [6, 1]<br/>class = disatisfied>, fillcolor="#e9965a"] ;
447 -> 455 ;
456 [label=<gini = 0.0<br/>samples = 6<br/>value = [6, 0]<br/>class = disatisfied>, fillcolor="#e58139"] ;
455 -> 456 ;
457 [label=<gini = 0.0<br/>samples = 1<br/>value = [0, 1]<br/>class = satisfied>, fillcolor="#399de5"] ;
455 -> 457 ;
458 [label=<gini = 0.0<br/>samples = 7<br/>value = [7, 0]<br/>class = disatisfied>, fillcolor="#e58139"] ;
446 -> 458 ;
459 [label=<gini = 0.0<br/>samples = 11<br/>value = [11, 0]<br/>class = disatisfied>, fillcolor="#e58139"] ;
445 -> 459 ;
460 [label=<Age &le; 41.0<br/>gini = 0.102<br/>samples = 37<br/>value = [35, 2]<br/>class = disatisfied>, fillcolor="#e68844"] ;
444 -> 460 ;
461 [label=<gini = 0.0<br/>samples = 33<br/>value = [33, 0]<br/>class = disatisfied>, fillcolor="#e58139"] ;
460 -> 461 ;
462 [label=<Leg room service &le; 2.5<br/>gini = 0.5<br/>samples = 4<br/>value = [2, 2]<br/>class = disatisfied>, fillcolor="#ffffff"] ;
460 -> 462 ;
463 [label=<gini = 0.0<br/>samples = 2<br/>value = [0, 2]<br/>class = satisfied>, fillcolor="#399de5"] ;
462 -> 463 ;
464 [label=<gini = 0.0<br/>samples = 2<br/>value = [2, 0]<br/>class = disatisfied>, fillcolor="#e58139"] ;
462 -> 464 ;
465 [label=<Customer Type &le; 0.5<br/>gini = 0.399<br/>samples = 167<br/>value = [121.0, 46.0]<br/>class = disatisfied>, fillcolor="#efb184"] ;
131 -> 465 ;
466 [label=<Type of Travel &le; 0.5<br/>gini = 0.388<br/>samples = 57<br/>value = [15, 42]<br/>class = satisfied>, fillcolor="#80c0ee"] ;
465 -> 466 ;
467 [label=<gini = 0.0<br/>samples = 42<br/>value = [0, 42]<br/>class = satisfied>, fillcolor="#399de5"] ;
466 -> 467 ;
468 [label=<gini = 0.0<br/>samples = 15<br/>value = [15, 0]<br/>class = disatisfied>, fillcolor="#e58139"] ;
466 -> 468 ;
469 [label=<Age &le; 37.5<br/>gini = 0.07<br/>samples = 110<br/>value = [106, 4]<br/>class = disatisfied>, fillcolor="#e68640"] ;
465 -> 469 ;
470 [label=<gini = 0.0<br/>samples = 64<br/>value = [64, 0]<br/>class = disatisfied>, fillcolor="#e58139"] ;
469 -> 470 ;
471 [label=<Seat comfort &le; 2.5<br/>gini = 0.159<br/>samples = 46<br/>value = [42, 4]<br/>class = disatisfied>, fillcolor="#e78d4c"] ;
469 -> 471 ;
472 [label=<gini = 0.0<br/>samples = 22<br/>value = [22, 0]<br/>class = disatisfied>, fillcolor="#e58139"] ;
471 -> 472 ;
473 [label=<Flight Distance &le; 413.5<br/>gini = 0.278<br/>samples = 24<br/>value = [20, 4]<br/>class = disatisfied>, fillcolor="#ea9a61"] ;
471 -> 473 ;
474 [label=<gini = 0.0<br/>samples = 9<br/>value = [9, 0]<br/>class = disatisfied>, fillcolor="#e58139"] ;
473 -> 474 ;
475 [label=<Flight Distance &le; 440.0<br/>gini = 0.391<br/>samples = 15<br/>value = [11, 4]<br/>class = disatisfied>, fillcolor="#eeaf81"] ;
473 -> 475 ;
476 [label=<gini = 0.0<br/>samples = 1<br/>value = [0, 1]<br/>class = satisfied>, fillcolor="#399de5"] ;
475 -> 476 ;
477 [label=<Age &le; 39.5<br/>gini = 0.337<br/>samples = 14<br/>value = [11, 3]<br/>class = disatisfied>, fillcolor="#eca36f"] ;
475 -> 477 ;
478 [label=<Inflight wifi service &le; 2.5<br/>gini = 0.48<br/>samples = 5<br/>value = [3, 2]<br/>class = disatisfied>, fillcolor="#f6d5bd"] ;
477 -> 478 ;
479 [label=<Flight Distance &le; 1914.0<br/>gini = 0.444<br/>samples = 3<br/>value = [1, 2]<br/>class = satisfied>, fillcolor="#9ccef2"] ;
478 -> 479 ;
480 [label=<gini = 0.0<br/>samples = 2<br/>value = [0, 2]<br/>class = satisfied>, fillcolor="#399de5"] ;
479 -> 480 ;
481 [label=<gini = 0.0<br/>samples = 1<br/>value = [1, 0]<br/>class = disatisfied>, fillcolor="#e58139"] ;
479 -> 481 ;
482 [label=<gini = 0.0<br/>samples = 2<br/>value = [2, 0]<br/>class = disatisfied>, fillcolor="#e58139"] ;
478 -> 482 ;
483 [label=<Departure Delay in Minutes &le; 9.5<br/>gini = 0.198<br/>samples = 9<br/>value = [8, 1]<br/>class = disatisfied>, fillcolor="#e89152"] ;
477 -> 483 ;
484 [label=<gini = 0.0<br/>samples = 7<br/>value = [7, 0]<br/>class = disatisfied>, fillcolor="#e58139"] ;
483 -> 484 ;
485 [label=<On-board service &le; 4.5<br/>gini = 0.5<br/>samples = 2<br/>value = [1, 1]<br/>class = disatisfied>, fillcolor="#ffffff"] ;
483 -> 485 ;
486 [label=<gini = 0.0<br/>samples = 1<br/>value = [0, 1]<br/>class = satisfied>, fillcolor="#399de5"] ;
485 -> 486 ;
487 [label=<gini = 0.0<br/>samples = 1<br/>value = [1, 0]<br/>class = disatisfied>, fillcolor="#e58139"] ;
485 -> 487 ;
488 [label=<Flight Distance &le; 1364.5<br/>gini = 0.499<br/>samples = 62<br/>value = [30, 32]<br/>class = satisfied>, fillcolor="#f3f9fd"] ;
130 -> 488 ;
489 [label=<Age &le; 37.0<br/>gini = 0.346<br/>samples = 36<br/>value = [28, 8]<br/>class = disatisfied>, fillcolor="#eca572"] ;
488 -> 489 ;
490 [label=<gini = 0.0<br/>samples = 14<br/>value = [14, 0]<br/>class = disatisfied>, fillcolor="#e58139"] ;
489 -> 490 ;
491 [label=<Gender &le; 0.5<br/>gini = 0.463<br/>samples = 22<br/>value = [14, 8]<br/>class = disatisfied>, fillcolor="#f4c9aa"] ;
489 -> 491 ;
492 [label=<Leg room service &le; 4.5<br/>gini = 0.463<br/>samples = 11<br/>value = [4, 7]<br/>class = satisfied>, fillcolor="#aad5f4"] ;
491 -> 492 ;
493 [label=<Flight Distance &le; 779.5<br/>gini = 0.346<br/>samples = 9<br/>value = [2, 7]<br/>class = satisfied>, fillcolor="#72b9ec"] ;
492 -> 493 ;
494 [label=<gini = 0.0<br/>samples = 6<br/>value = [0, 6]<br/>class = satisfied>, fillcolor="#399de5"] ;
493 -> 494 ;
495 [label=<Checkin service &le; 2.5<br/>gini = 0.444<br/>samples = 3<br/>value = [2, 1]<br/>class = disatisfied>, fillcolor="#f2c09c"] ;
493 -> 495 ;
496 [label=<gini = 0.0<br/>samples = 1<br/>value = [0, 1]<br/>class = satisfied>, fillcolor="#399de5"] ;
495 -> 496 ;
497 [label=<gini = 0.0<br/>samples = 2<br/>value = [2, 0]<br/>class = disatisfied>, fillcolor="#e58139"] ;
495 -> 497 ;
498 [label=<gini = 0.0<br/>samples = 2<br/>value = [2, 0]<br/>class = disatisfied>, fillcolor="#e58139"] ;
492 -> 498 ;
499 [label=<Flight Distance &le; 439.0<br/>gini = 0.165<br/>samples = 11<br/>value = [10, 1]<br/>class = disatisfied>, fillcolor="#e88e4d"] ;
491 -> 499 ;
500 [label=<Gate location &le; 2.5<br/>gini = 0.444<br/>samples = 3<br/>value = [2, 1]<br/>class = disatisfied>, fillcolor="#f2c09c"] ;
499 -> 500 ;
501 [label=<gini = 0.0<br/>samples = 1<br/>value = [0, 1]<br/>class = satisfied>, fillcolor="#399de5"] ;
500 -> 501 ;
502 [label=<gini = 0.0<br/>samples = 2<br/>value = [2, 0]<br/>class = disatisfied>, fillcolor="#e58139"] ;
500 -> 502 ;
503 [label=<gini = 0.0<br/>samples = 8<br/>value = [8, 0]<br/>class = disatisfied>, fillcolor="#e58139"] ;
499 -> 503 ;
504 [label=<On-board service &le; 3.5<br/>gini = 0.142<br/>samples = 26<br/>value = [2, 24]<br/>class = satisfied>, fillcolor="#49a5e7"] ;
488 -> 504 ;
505 [label=<gini = 0.0<br/>samples = 24<br/>value = [0, 24]<br/>class = satisfied>, fillcolor="#399de5"] ;
504 -> 505 ;
506 [label=<gini = 0.0<br/>samples = 2<br/>value = [2, 0]<br/>class = disatisfied>, fillcolor="#e58139"] ;
504 -> 506 ;
507 [label=<Customer Type &le; 0.5<br/>gini = 0.388<br/>samples = 323<br/>value = [238, 85]<br/>class = disatisfied>, fillcolor="#eeae80"] ;
129 -> 507 ;
508 [label=<Type of Travel &le; 0.5<br/>gini = 0.44<br/>samples = 113<br/>value = [37, 76]<br/>class = satisfied>, fillcolor="#99cdf2"] ;
507 -> 508 ;
509 [label=<Gate location &le; 1.5<br/>gini = 0.026<br/>samples = 77<br/>value = [1, 76]<br/>class = satisfied>, fillcolor="#3c9ee5"] ;
508 -> 509 ;
510 [label=<gini = 0.0<br/>samples = 1<br/>value = [1, 0]<br/>class = disatisfied>, fillcolor="#e58139"] ;
509 -> 510 ;
511 [label=<gini = 0.0<br/>samples = 76<br/>value = [0, 76]<br/>class = satisfied>, fillcolor="#399de5"] ;
509 -> 511 ;
512 [label=<gini = 0.0<br/>samples = 36<br/>value = [36, 0]<br/>class = disatisfied>, fillcolor="#e58139"] ;
508 -> 512 ;
513 [label=<Age &le; 37.5<br/>gini = 0.082<br/>samples = 210<br/>value = [201, 9]<br/>class = disatisfied>, fillcolor="#e68742"] ;
507 -> 513 ;
514 [label=<gini = 0.0<br/>samples = 127<br/>value = [127, 0]<br/>class = disatisfied>, fillcolor="#e58139"] ;
513 -> 514 ;
515 [label=<Flight Distance &le; 676.0<br/>gini = 0.193<br/>samples = 83<br/>value = [74, 9]<br/>class = disatisfied>, fillcolor="#e89051"] ;
513 -> 515 ;
516 [label=<Arrival Delay in Minutes &le; 11.0<br/>gini = 0.074<br/>samples = 52<br/>value = [50, 2]<br/>class = disatisfied>, fillcolor="#e68641"] ;
515 -> 516 ;
517 [label=<gini = 0.0<br/>samples = 38<br/>value = [38, 0]<br/>class = disatisfied>, fillcolor="#e58139"] ;
516 -> 517 ;
518 [label=<Inflight service &le; 4.5<br/>gini = 0.245<br/>samples = 14<br/>value = [12, 2]<br/>class = disatisfied>, fillcolor="#e9965a"] ;
516 -> 518 ;
519 [label=<gini = 0.0<br/>samples = 8<br/>value = [8, 0]<br/>class = disatisfied>, fillcolor="#e58139"] ;
518 -> 519 ;
520 [label=<Departure/Arrival time convenient &le; 2.5<br/>gini = 0.444<br/>samples = 6<br/>value = [4, 2]<br/>class = disatisfied>, fillcolor="#f2c09c"] ;
518 -> 520 ;
521 [label=<gini = 0.0<br/>samples = 3<br/>value = [3, 0]<br/>class = disatisfied>, fillcolor="#e58139"] ;
520 -> 521 ;
522 [label=<Seat comfort &le; 2.5<br/>gini = 0.444<br/>samples = 3<br/>value = [1, 2]<br/>class = satisfied>, fillcolor="#9ccef2"] ;
520 -> 522 ;
523 [label=<gini = 0.0<br/>samples = 1<br/>value = [1, 0]<br/>class = disatisfied>, fillcolor="#e58139"] ;
522 -> 523 ;
524 [label=<gini = 0.0<br/>samples = 2<br/>value = [0, 2]<br/>class = satisfied>, fillcolor="#399de5"] ;
522 -> 524 ;
525 [label=<Flight Distance &le; 848.0<br/>gini = 0.35<br/>samples = 31<br/>value = [24, 7]<br/>class = disatisfied>, fillcolor="#eda673"] ;
515 -> 525 ;
526 [label=<Age &le; 44.5<br/>gini = 0.5<br/>samples = 8<br/>value = [4, 4]<br/>class = disatisfied>, fillcolor="#ffffff"] ;
525 -> 526 ;
527 [label=<Online boarding &le; 2.5<br/>gini = 0.32<br/>samples = 5<br/>value = [1, 4]<br/>class = satisfied>, fillcolor="#6ab6ec"] ;
526 -> 527 ;
528 [label=<Inflight service &le; 4.5<br/>gini = 0.5<br/>samples = 2<br/>value = [1, 1]<br/>class = disatisfied>, fillcolor="#ffffff"] ;
527 -> 528 ;
529 [label=<gini = 0.0<br/>samples = 1<br/>value = [0, 1]<br/>class = satisfied>, fillcolor="#399de5"] ;
528 -> 529 ;
530 [label=<gini = 0.0<br/>samples = 1<br/>value = [1, 0]<br/>class = disatisfied>, fillcolor="#e58139"] ;
528 -> 530 ;
531 [label=<gini = 0.0<br/>samples = 3<br/>value = [0, 3]<br/>class = satisfied>, fillcolor="#399de5"] ;
527 -> 531 ;
532 [label=<gini = 0.0<br/>samples = 3<br/>value = [3, 0]<br/>class = disatisfied>, fillcolor="#e58139"] ;
526 -> 532 ;
533 [label=<Leg room service &le; 3.5<br/>gini = 0.227<br/>samples = 23<br/>value = [20, 3]<br/>class = disatisfied>, fillcolor="#e99457"] ;
525 -> 533 ;
534 [label=<On-board service &le; 3.5<br/>gini = 0.444<br/>samples = 9<br/>value = [6, 3]<br/>class = disatisfied>, fillcolor="#f2c09c"] ;
533 -> 534 ;
535 [label=<gini = 0.0<br/>samples = 4<br/>value = [4, 0]<br/>class = disatisfied>, fillcolor="#e58139"] ;
534 -> 535 ;
536 [label=<Inflight wifi service &le; 2.5<br/>gini = 0.48<br/>samples = 5<br/>value = [2, 3]<br/>class = satisfied>, fillcolor="#bddef6"] ;
534 -> 536 ;
537 [label=<gini = 0.0<br/>samples = 2<br/>value = [0, 2]<br/>class = satisfied>, fillcolor="#399de5"] ;
536 -> 537 ;
538 [label=<Age &le; 44.5<br/>gini = 0.444<br/>samples = 3<br/>value = [2, 1]<br/>class = disatisfied>, fillcolor="#f2c09c"] ;
536 -> 538 ;
539 [label=<gini = 0.0<br/>samples = 1<br/>value = [0, 1]<br/>class = satisfied>, fillcolor="#399de5"] ;
538 -> 539 ;
540 [label=<gini = 0.0<br/>samples = 2<br/>value = [2, 0]<br/>class = disatisfied>, fillcolor="#e58139"] ;
538 -> 540 ;
541 [label=<gini = 0.0<br/>samples = 14<br/>value = [14, 0]<br/>class = disatisfied>, fillcolor="#e58139"] ;
533 -> 541 ;
542 [label=<Customer Type &le; 0.5<br/>gini = 0.417<br/>samples = 297<br/>value = [209, 88]<br/>class = disatisfied>, fillcolor="#f0b68c"] ;
128 -> 542 ;
543 [label=<Type of Travel &le; 0.5<br/>gini = 0.37<br/>samples = 110<br/>value = [27, 83]<br/>class = satisfied>, fillcolor="#79bded"] ;
542 -> 543 ;
544 [label=<gini = 0.0<br/>samples = 83<br/>value = [0, 83]<br/>class = satisfied>, fillcolor="#399de5"] ;
543 -> 544 ;
545 [label=<gini = 0.0<br/>samples = 27<br/>value = [27, 0]<br/>class = disatisfied>, fillcolor="#e58139"] ;
543 -> 545 ;
546 [label=<Age &le; 39.5<br/>gini = 0.052<br/>samples = 187<br/>value = [182, 5]<br/>class = disatisfied>, fillcolor="#e6843e"] ;
542 -> 546 ;
547 [label=<gini = 0.0<br/>samples = 139<br/>value = [139, 0]<br/>class = disatisfied>, fillcolor="#e58139"] ;
546 -> 547 ;
548 [label=<On-board service &le; 3.5<br/>gini = 0.187<br/>samples = 48<br/>value = [43, 5]<br/>class = disatisfied>, fillcolor="#e89050"] ;
546 -> 548 ;
549 [label=<Food and drink &le; 2.5<br/>gini = 0.355<br/>samples = 13<br/>value = [10, 3]<br/>class = disatisfied>, fillcolor="#eda774"] ;
548 -> 549 ;
550 [label=<gini = 0.0<br/>samples = 7<br/>value = [7, 0]<br/>class = disatisfied>, fillcolor="#e58139"] ;
549 -> 550 ;
551 [label=<Gate location &le; 2.5<br/>gini = 0.5<br/>samples = 6<br/>value = [3, 3]<br/>class = disatisfied>, fillcolor="#ffffff"] ;
549 -> 551 ;
552 [label=<gini = 0.0<br/>samples = 2<br/>value = [0, 2]<br/>class = satisfied>, fillcolor="#399de5"] ;
551 -> 552 ;
553 [label=<Leg room service &le; 3.5<br/>gini = 0.375<br/>samples = 4<br/>value = [3, 1]<br/>class = disatisfied>, fillcolor="#eeab7b"] ;
551 -> 553 ;
554 [label=<gini = 0.0<br/>samples = 2<br/>value = [2, 0]<br/>class = disatisfied>, fillcolor="#e58139"] ;
553 -> 554 ;
555 [label=<Baggage handling &le; 4.5<br/>gini = 0.5<br/>samples = 2<br/>value = [1, 1]<br/>class = disatisfied>, fillcolor="#ffffff"] ;
553 -> 555 ;
556 [label=<gini = 0.0<br/>samples = 1<br/>value = [0, 1]<br/>class = satisfied>, fillcolor="#399de5"] ;
555 -> 556 ;
557 [label=<gini = 0.0<br/>samples = 1<br/>value = [1, 0]<br/>class = disatisfied>, fillcolor="#e58139"] ;
555 -> 557 ;
558 [label=<Flight Distance &le; 996.5<br/>gini = 0.108<br/>samples = 35<br/>value = [33, 2]<br/>class = disatisfied>, fillcolor="#e78945"] ;
548 -> 558 ;
559 [label=<gini = 0.0<br/>samples = 25<br/>value = [25, 0]<br/>class = disatisfied>, fillcolor="#e58139"] ;
558 -> 559 ;
560 [label=<Departure Delay in Minutes &le; 4.0<br/>gini = 0.32<br/>samples = 10<br/>value = [8, 2]<br/>class = disatisfied>, fillcolor="#eca06a"] ;
558 -> 560 ;
561 [label=<Age &le; 47.0<br/>gini = 0.48<br/>samples = 5<br/>value = [3, 2]<br/>class = disatisfied>, fillcolor="#f6d5bd"] ;
560 -> 561 ;
562 [label=<Cleanliness &le; 2.5<br/>gini = 0.375<br/>samples = 4<br/>value = [3, 1]<br/>class = disatisfied>, fillcolor="#eeab7b"] ;
561 -> 562 ;
563 [label=<gini = 0.0<br/>samples = 3<br/>value = [3, 0]<br/>class = disatisfied>, fillcolor="#e58139"] ;
562 -> 563 ;
564 [label=<gini = 0.0<br/>samples = 1<br/>value = [0, 1]<br/>class = satisfied>, fillcolor="#399de5"] ;
562 -> 564 ;
565 [label=<gini = 0.0<br/>samples = 1<br/>value = [0, 1]<br/>class = satisfied>, fillcolor="#399de5"] ;
561 -> 565 ;
566 [label=<gini = 0.0<br/>samples = 5<br/>value = [5, 0]<br/>class = disatisfied>, fillcolor="#e58139"] ;
560 -> 566 ;
567 [label=<Flight Distance &le; 4973.0<br/>gini = 0.011<br/>samples = 3145<br/>value = [3128, 17]<br/>class = disatisfied>, fillcolor="#e5823a"] ;
9 -> 567 ;
568 [label=<Customer Type &le; 0.5<br/>gini = 0.01<br/>samples = 3144<br/>value = [3128, 16]<br/>class = disatisfied>, fillcolor="#e5823a"] ;
567 -> 568 ;
569 [label=<gini = 0.0<br/>samples = 2375<br/>value = [2375, 0]<br/>class = disatisfied>, fillcolor="#e58139"] ;
568 -> 569 ;
570 [label=<Age &le; 36.5<br/>gini = 0.041<br/>samples = 769<br/>value = [753, 16]<br/>class = disatisfied>, fillcolor="#e6843d"] ;
568 -> 570 ;
571 [label=<gini = 0.0<br/>samples = 441<br/>value = [441, 0]<br/>class = disatisfied>, fillcolor="#e58139"] ;
570 -> 571 ;
572 [label=<Arrival Delay in Minutes &le; 227.0<br/>gini = 0.093<br/>samples = 328<br/>value = [312, 16]<br/>class = disatisfied>, fillcolor="#e68743"] ;
570 -> 572 ;
573 [label=<Flight Distance &le; 97.5<br/>gini = 0.088<br/>samples = 327<br/>value = [312, 15]<br/>class = disatisfied>, fillcolor="#e68743"] ;
572 -> 573 ;
574 [label=<On-board service &le; 4.0<br/>gini = 0.5<br/>samples = 2<br/>value = [1, 1]<br/>class = disatisfied>, fillcolor="#ffffff"] ;
573 -> 574 ;
575 [label=<gini = 0.0<br/>samples = 1<br/>value = [0, 1]<br/>class = satisfied>, fillcolor="#399de5"] ;
574 -> 575 ;
576 [label=<gini = 0.0<br/>samples = 1<br/>value = [1, 0]<br/>class = disatisfied>, fillcolor="#e58139"] ;
574 -> 576 ;
577 [label=<Seat comfort &le; 2.5<br/>gini = 0.082<br/>samples = 325<br/>value = [311, 14]<br/>class = disatisfied>, fillcolor="#e68742"] ;
573 -> 577 ;
578 [label=<Flight Distance &le; 639.0<br/>gini = 0.048<br/>samples = 205<br/>value = [200, 5]<br/>class = disatisfied>, fillcolor="#e6843e"] ;
577 -> 578 ;
579 [label=<Flight Distance &le; 627.0<br/>gini = 0.075<br/>samples = 128<br/>value = [123, 5]<br/>class = disatisfied>, fillcolor="#e68641"] ;
578 -> 579 ;
580 [label=<Flight Distance &le; 303.0<br/>gini = 0.061<br/>samples = 126<br/>value = [122, 4]<br/>class = disatisfied>, fillcolor="#e6853f"] ;
579 -> 580 ;
581 [label=<gini = 0.0<br/>samples = 57<br/>value = [57, 0]<br/>class = disatisfied>, fillcolor="#e58139"] ;
580 -> 581 ;
582 [label=<Flight Distance &le; 344.5<br/>gini = 0.109<br/>samples = 69<br/>value = [65, 4]<br/>class = disatisfied>, fillcolor="#e78945"] ;
580 -> 582 ;
583 [label=<Flight Distance &le; 339.5<br/>gini = 0.32<br/>samples = 15<br/>value = [12, 3]<br/>class = disatisfied>, fillcolor="#eca06a"] ;
582 -> 583 ;
584 [label=<Baggage handling &le; 4.5<br/>gini = 0.245<br/>samples = 14<br/>value = [12, 2]<br/>class = disatisfied>, fillcolor="#e9965a"] ;
583 -> 584 ;
585 [label=<gini = 0.0<br/>samples = 9<br/>value = [9, 0]<br/>class = disatisfied>, fillcolor="#e58139"] ;
584 -> 585 ;
586 [label=<Seat comfort &le; 1.5<br/>gini = 0.48<br/>samples = 5<br/>value = [3, 2]<br/>class = disatisfied>, fillcolor="#f6d5bd"] ;
584 -> 586 ;
587 [label=<gini = 0.0<br/>samples = 2<br/>value = [2, 0]<br/>class = disatisfied>, fillcolor="#e58139"] ;
586 -> 587 ;
588 [label=<Departure Delay in Minutes &le; 11.5<br/>gini = 0.444<br/>samples = 3<br/>value = [1, 2]<br/>class = satisfied>, fillcolor="#9ccef2"] ;
586 -> 588 ;
589 [label=<gini = 0.0<br/>samples = 2<br/>value = [0, 2]<br/>class = satisfied>, fillcolor="#399de5"] ;
588 -> 589 ;
590 [label=<gini = 0.0<br/>samples = 1<br/>value = [1, 0]<br/>class = disatisfied>, fillcolor="#e58139"] ;
588 -> 590 ;
591 [label=<gini = 0.0<br/>samples = 1<br/>value = [0, 1]<br/>class = satisfied>, fillcolor="#399de5"] ;
583 -> 591 ;
592 [label=<On-board service &le; 4.5<br/>gini = 0.036<br/>samples = 54<br/>value = [53, 1]<br/>class = disatisfied>, fillcolor="#e5833d"] ;
582 -> 592 ;
593 [label=<gini = 0.0<br/>samples = 42<br/>value = [42, 0]<br/>class = disatisfied>, fillcolor="#e58139"] ;
592 -> 593 ;
594 [label=<Age &le; 48.5<br/>gini = 0.153<br/>samples = 12<br/>value = [11, 1]<br/>class = disatisfied>, fillcolor="#e78c4b"] ;
592 -> 594 ;
595 [label=<gini = 0.0<br/>samples = 11<br/>value = [11, 0]<br/>class = disatisfied>, fillcolor="#e58139"] ;
594 -> 595 ;
596 [label=<gini = 0.0<br/>samples = 1<br/>value = [0, 1]<br/>class = satisfied>, fillcolor="#399de5"] ;
594 -> 596 ;
597 [label=<Inflight wifi service &le; 2.5<br/>gini = 0.5<br/>samples = 2<br/>value = [1, 1]<br/>class = disatisfied>, fillcolor="#ffffff"] ;
579 -> 597 ;
598 [label=<gini = 0.0<br/>samples = 1<br/>value = [1, 0]<br/>class = disatisfied>, fillcolor="#e58139"] ;
597 -> 598 ;
599 [label=<gini = 0.0<br/>samples = 1<br/>value = [0, 1]<br/>class = satisfied>, fillcolor="#399de5"] ;
597 -> 599 ;
600 [label=<gini = 0.0<br/>samples = 77<br/>value = [77, 0]<br/>class = disatisfied>, fillcolor="#e58139"] ;
578 -> 600 ;
601 [label=<Arrival Delay in Minutes &le; 58.5<br/>gini = 0.139<br/>samples = 120<br/>value = [111, 9]<br/>class = disatisfied>, fillcolor="#e78b49"] ;
577 -> 601 ;
602 [label=<Food and drink &le; 1.5<br/>gini = 0.115<br/>samples = 114<br/>value = [107, 7]<br/>class = disatisfied>, fillcolor="#e78946"] ;
601 -> 602 ;
603 [label=<Flight Distance &le; 492.5<br/>gini = 0.444<br/>samples = 6<br/>value = [4, 2]<br/>class = disatisfied>, fillcolor="#f2c09c"] ;
602 -> 603 ;
604 [label=<gini = 0.0<br/>samples = 3<br/>value = [3, 0]<br/>class = disatisfied>, fillcolor="#e58139"] ;
603 -> 604 ;
605 [label=<Age &le; 54.0<br/>gini = 0.444<br/>samples = 3<br/>value = [1, 2]<br/>class = satisfied>, fillcolor="#9ccef2"] ;
603 -> 605 ;
606 [label=<gini = 0.0<br/>samples = 2<br/>value = [0, 2]<br/>class = satisfied>, fillcolor="#399de5"] ;
605 -> 606 ;
607 [label=<gini = 0.0<br/>samples = 1<br/>value = [1, 0]<br/>class = disatisfied>, fillcolor="#e58139"] ;
605 -> 607 ;
608 [label=<Age &le; 37.5<br/>gini = 0.088<br/>samples = 108<br/>value = [103, 5]<br/>class = disatisfied>, fillcolor="#e68743"] ;
602 -> 608 ;
609 [label=<Leg room service &le; 2.5<br/>gini = 0.278<br/>samples = 12<br/>value = [10, 2]<br/>class = disatisfied>, fillcolor="#ea9a61"] ;
608 -> 609 ;
610 [label=<Departure Delay in Minutes &le; 2.5<br/>gini = 0.444<br/>samples = 3<br/>value = [1, 2]<br/>class = satisfied>, fillcolor="#9ccef2"] ;
609 -> 610 ;
611 [label=<gini = 0.0<br/>samples = 1<br/>value = [1, 0]<br/>class = disatisfied>, fillcolor="#e58139"] ;
610 -> 611 ;
612 [label=<gini = 0.0<br/>samples = 2<br/>value = [0, 2]<br/>class = satisfied>, fillcolor="#399de5"] ;
610 -> 612 ;
613 [label=<gini = 0.0<br/>samples = 9<br/>value = [9, 0]<br/>class = disatisfied>, fillcolor="#e58139"] ;
609 -> 613 ;
614 [label=<Online boarding &le; 2.5<br/>gini = 0.061<br/>samples = 96<br/>value = [93, 3]<br/>class = disatisfied>, fillcolor="#e6853f"] ;
608 -> 614 ;
615 [label=<Age &le; 44.5<br/>gini = 0.117<br/>samples = 48<br/>value = [45, 3]<br/>class = disatisfied>, fillcolor="#e78946"] ;
614 -> 615 ;
616 [label=<Flight Distance &le; 1207.5<br/>gini = 0.05<br/>samples = 39<br/>value = [38, 1]<br/>class = disatisfied>, fillcolor="#e6843e"] ;
615 -> 616 ;
617 [label=<gini = 0.0<br/>samples = 33<br/>value = [33, 0]<br/>class = disatisfied>, fillcolor="#e58139"] ;
616 -> 617 ;
618 [label=<Gender &le; 0.5<br/>gini = 0.278<br/>samples = 6<br/>value = [5, 1]<br/>class = disatisfied>, fillcolor="#ea9a61"] ;
616 -> 618 ;
619 [label=<gini = 0.0<br/>samples = 5<br/>value = [5, 0]<br/>class = disatisfied>, fillcolor="#e58139"] ;
618 -> 619 ;
620 [label=<gini = 0.0<br/>samples = 1<br/>value = [0, 1]<br/>class = satisfied>, fillcolor="#399de5"] ;
618 -> 620 ;
621 [label=<Flight Distance &le; 389.0<br/>gini = 0.346<br/>samples = 9<br/>value = [7, 2]<br/>class = disatisfied>, fillcolor="#eca572"] ;
615 -> 621 ;
622 [label=<Flight Distance &le; 163.0<br/>gini = 0.5<br/>samples = 4<br/>value = [2, 2]<br/>class = disatisfied>, fillcolor="#ffffff"] ;
621 -> 622 ;
623 [label=<gini = 0.0<br/>samples = 2<br/>value = [2, 0]<br/>class = disatisfied>, fillcolor="#e58139"] ;
622 -> 623 ;
624 [label=<gini = 0.0<br/>samples = 2<br/>value = [0, 2]<br/>class = satisfied>, fillcolor="#399de5"] ;
622 -> 624 ;
625 [label=<gini = 0.0<br/>samples = 5<br/>value = [5, 0]<br/>class = disatisfied>, fillcolor="#e58139"] ;
621 -> 625 ;
626 [label=<gini = 0.0<br/>samples = 48<br/>value = [48, 0]<br/>class = disatisfied>, fillcolor="#e58139"] ;
614 -> 626 ;
627 [label=<Arrival Delay in Minutes &le; 101.0<br/>gini = 0.444<br/>samples = 6<br/>value = [4, 2]<br/>class = disatisfied>, fillcolor="#f2c09c"] ;
601 -> 627 ;
628 [label=<Food and drink &le; 2.0<br/>gini = 0.444<br/>samples = 3<br/>value = [1, 2]<br/>class = satisfied>, fillcolor="#9ccef2"] ;
627 -> 628 ;
629 [label=<gini = 0.0<br/>samples = 1<br/>value = [1, 0]<br/>class = disatisfied>, fillcolor="#e58139"] ;
628 -> 629 ;
630 [label=<gini = 0.0<br/>samples = 2<br/>value = [0, 2]<br/>class = satisfied>, fillcolor="#399de5"] ;
628 -> 630 ;
631 [label=<gini = 0.0<br/>samples = 3<br/>value = [3, 0]<br/>class = disatisfied>, fillcolor="#e58139"] ;
627 -> 631 ;
632 [label=<gini = 0.0<br/>samples = 1<br/>value = [0, 1]<br/>class = satisfied>, fillcolor="#399de5"] ;
572 -> 632 ;
633 [label=<gini = 0.0<br/>samples = 1<br/>value = [0, 1]<br/>class = satisfied>, fillcolor="#399de5"] ;
567 -> 633 ;
634 [label=<Type of Travel &le; 0.5<br/>gini = 0.45<br/>samples = 76<br/>value = [26, 50]<br/>class = satisfied>, fillcolor="#a0d0f3"] ;
8 -> 634 ;
635 [label=<Customer Type &le; 0.5<br/>gini = 0.191<br/>samples = 56<br/>value = [6, 50]<br/>class = satisfied>, fillcolor="#51a9e8"] ;
634 -> 635 ;
636 [label=<Inflight entertainment &le; 1.5<br/>gini = 0.074<br/>samples = 52<br/>value = [2, 50]<br/>class = satisfied>, fillcolor="#41a1e6"] ;
635 -> 636 ;
637 [label=<gini = 0.0<br/>samples = 1<br/>value = [1, 0]<br/>class = disatisfied>, fillcolor="#e58139"] ;
636 -> 637 ;
638 [label=<Flight Distance &le; 3872.0<br/>gini = 0.038<br/>samples = 51<br/>value = [1, 50]<br/>class = satisfied>, fillcolor="#3d9fe6"] ;
636 -> 638 ;
639 [label=<gini = 0.0<br/>samples = 50<br/>value = [0, 50]<br/>class = satisfied>, fillcolor="#399de5"] ;
638 -> 639 ;
640 [label=<gini = 0.0<br/>samples = 1<br/>value = [1, 0]<br/>class = disatisfied>, fillcolor="#e58139"] ;
638 -> 640 ;
641 [label=<gini = 0.0<br/>samples = 4<br/>value = [4, 0]<br/>class = disatisfied>, fillcolor="#e58139"] ;
635 -> 641 ;
642 [label=<gini = 0.0<br/>samples = 20<br/>value = [20, 0]<br/>class = disatisfied>, fillcolor="#e58139"] ;
634 -> 642 ;
643 [label=<Customer Type &le; 0.5<br/>gini = 0.497<br/>samples = 3846<br/>value = [2079, 1767]<br/>class = disatisfied>, fillcolor="#fbece1"] ;
7 -> 643 ;
644 [label=<Type of Travel &le; 0.5<br/>gini = 0.38<br/>samples = 2290<br/>value = [584, 1706]<br/>class = satisfied>, fillcolor="#7dbfee"] ;
643 -> 644 ;
645 [label=<Leg room service &le; 3.5<br/>gini = 0.193<br/>samples = 1913<br/>value = [207, 1706]<br/>class = satisfied>, fillcolor="#51a9e8"] ;
644 -> 645 ;
646 [label=<Baggage handling &le; 3.5<br/>gini = 0.317<br/>samples = 147<br/>value = [118, 29]<br/>class = disatisfied>, fillcolor="#eba06a"] ;
645 -> 646 ;
647 [label=<Flight Distance &le; 2848.0<br/>gini = 0.098<br/>samples = 77<br/>value = [73, 4]<br/>class = disatisfied>, fillcolor="#e68844"] ;
646 -> 647 ;
648 [label=<Inflight service &le; 4.5<br/>gini = 0.034<br/>samples = 58<br/>value = [57, 1]<br/>class = disatisfied>, fillcolor="#e5833c"] ;
647 -> 648 ;
649 [label=<gini = 0.0<br/>samples = 55<br/>value = [55, 0]<br/>class = disatisfied>, fillcolor="#e58139"] ;
648 -> 649 ;
650 [label=<On-board service &le; 4.5<br/>gini = 0.444<br/>samples = 3<br/>value = [2, 1]<br/>class = disatisfied>, fillcolor="#f2c09c"] ;
648 -> 650 ;
651 [label=<gini = 0.0<br/>samples = 1<br/>value = [0, 1]<br/>class = satisfied>, fillcolor="#399de5"] ;
650 -> 651 ;
652 [label=<gini = 0.0<br/>samples = 2<br/>value = [2, 0]<br/>class = disatisfied>, fillcolor="#e58139"] ;
650 -> 652 ;
653 [label=<Inflight wifi service &le; 2.5<br/>gini = 0.266<br/>samples = 19<br/>value = [16, 3]<br/>class = disatisfied>, fillcolor="#ea995e"] ;
647 -> 653 ;
654 [label=<Inflight entertainment &le; 4.5<br/>gini = 0.117<br/>samples = 16<br/>value = [15, 1]<br/>class = disatisfied>, fillcolor="#e78946"] ;
653 -> 654 ;
655 [label=<gini = 0.0<br/>samples = 14<br/>value = [14, 0]<br/>class = disatisfied>, fillcolor="#e58139"] ;
654 -> 655 ;
656 [label=<Baggage handling &le; 2.5<br/>gini = 0.5<br/>samples = 2<br/>value = [1, 1]<br/>class = disatisfied>, fillcolor="#ffffff"] ;
654 -> 656 ;
657 [label=<gini = 0.0<br/>samples = 1<br/>value = [0, 1]<br/>class = satisfied>, fillcolor="#399de5"] ;
656 -> 657 ;
658 [label=<gini = 0.0<br/>samples = 1<br/>value = [1, 0]<br/>class = disatisfied>, fillcolor="#e58139"] ;
656 -> 658 ;
659 [label=<Departure/Arrival time convenient &le; 4.5<br/>gini = 0.444<br/>samples = 3<br/>value = [1, 2]<br/>class = satisfied>, fillcolor="#9ccef2"] ;
653 -> 659 ;
660 [label=<gini = 0.0<br/>samples = 2<br/>value = [0, 2]<br/>class = satisfied>, fillcolor="#399de5"] ;
659 -> 660 ;
661 [label=<gini = 0.0<br/>samples = 1<br/>value = [1, 0]<br/>class = disatisfied>, fillcolor="#e58139"] ;
659 -> 661 ;
662 [label=<Ease of Online booking &le; 0.5<br/>gini = 0.459<br/>samples = 70<br/>value = [45, 25]<br/>class = disatisfied>, fillcolor="#f3c7a7"] ;
646 -> 662 ;
663 [label=<gini = 0.0<br/>samples = 24<br/>value = [24, 0]<br/>class = disatisfied>, fillcolor="#e58139"] ;
662 -> 663 ;
664 [label=<Arrival Delay in Minutes &le; 107.0<br/>gini = 0.496<br/>samples = 46<br/>value = [21, 25]<br/>class = satisfied>, fillcolor="#dfeffb"] ;
662 -> 664 ;
665 [label=<Departure/Arrival time convenient &le; 3.5<br/>gini = 0.32<br/>samples = 30<br/>value = [6, 24]<br/>class = satisfied>, fillcolor="#6ab6ec"] ;
664 -> 665 ;
666 [label=<Food and drink &le; 1.5<br/>gini = 0.198<br/>samples = 27<br/>value = [3, 24]<br/>class = satisfied>, fillcolor="#52a9e8"] ;
665 -> 666 ;
667 [label=<Online boarding &le; 2.0<br/>gini = 0.444<br/>samples = 3<br/>value = [2, 1]<br/>class = disatisfied>, fillcolor="#f2c09c"] ;
666 -> 667 ;
668 [label=<gini = 0.0<br/>samples = 2<br/>value = [2, 0]<br/>class = disatisfied>, fillcolor="#e58139"] ;
667 -> 668 ;
669 [label=<gini = 0.0<br/>samples = 1<br/>value = [0, 1]<br/>class = satisfied>, fillcolor="#399de5"] ;
667 -> 669 ;
670 [label=<On-board service &le; 4.5<br/>gini = 0.08<br/>samples = 24<br/>value = [1, 23]<br/>class = satisfied>, fillcolor="#42a1e6"] ;
666 -> 670 ;
671 [label=<gini = 0.0<br/>samples = 21<br/>value = [0, 21]<br/>class = satisfied>, fillcolor="#399de5"] ;
670 -> 671 ;
672 [label=<Gate location &le; 2.5<br/>gini = 0.444<br/>samples = 3<br/>value = [1, 2]<br/>class = satisfied>, fillcolor="#9ccef2"] ;
670 -> 672 ;
673 [label=<gini = 0.0<br/>samples = 2<br/>value = [0, 2]<br/>class = satisfied>, fillcolor="#399de5"] ;
672 -> 673 ;
674 [label=<gini = 0.0<br/>samples = 1<br/>value = [1, 0]<br/>class = disatisfied>, fillcolor="#e58139"] ;
672 -> 674 ;
675 [label=<gini = 0.0<br/>samples = 3<br/>value = [3, 0]<br/>class = disatisfied>, fillcolor="#e58139"] ;
665 -> 675 ;
676 [label=<Baggage handling &le; 4.5<br/>gini = 0.117<br/>samples = 16<br/>value = [15, 1]<br/>class = disatisfied>, fillcolor="#e78946"] ;
664 -> 676 ;
677 [label=<gini = 0.0<br/>samples = 15<br/>value = [15, 0]<br/>class = disatisfied>, fillcolor="#e58139"] ;
676 -> 677 ;
678 [label=<gini = 0.0<br/>samples = 1<br/>value = [0, 1]<br/>class = satisfied>, fillcolor="#399de5"] ;
676 -> 678 ;
679 [label=<Gate location &le; 3.5<br/>gini = 0.096<br/>samples = 1766<br/>value = [89, 1677]<br/>class = satisfied>, fillcolor="#44a2e6"] ;
645 -> 679 ;
680 [label=<Baggage handling &le; 2.5<br/>gini = 0.057<br/>samples = 1728<br/>value = [51, 1677]<br/>class = satisfied>, fillcolor="#3fa0e6"] ;
679 -> 680 ;
681 [label=<Leg room service &le; 4.5<br/>gini = 0.269<br/>samples = 25<br/>value = [21, 4]<br/>class = disatisfied>, fillcolor="#ea995f"] ;
680 -> 681 ;
682 [label=<Inflight wifi service &le; 2.5<br/>gini = 0.087<br/>samples = 22<br/>value = [21, 1]<br/>class = disatisfied>, fillcolor="#e68742"] ;
681 -> 682 ;
683 [label=<gini = 0.0<br/>samples = 21<br/>value = [21, 0]<br/>class = disatisfied>, fillcolor="#e58139"] ;
682 -> 683 ;
684 [label=<gini = 0.0<br/>samples = 1<br/>value = [0, 1]<br/>class = satisfied>, fillcolor="#399de5"] ;
682 -> 684 ;
685 [label=<gini = 0.0<br/>samples = 3<br/>value = [0, 3]<br/>class = satisfied>, fillcolor="#399de5"] ;
681 -> 685 ;
686 [label=<Inflight service &le; 3.5<br/>gini = 0.035<br/>samples = 1703<br/>value = [30.0, 1673.0]<br/>class = satisfied>, fillcolor="#3d9fe5"] ;
680 -> 686 ;
687 [label=<Baggage handling &le; 4.5<br/>gini = 0.497<br/>samples = 41<br/>value = [22, 19]<br/>class = disatisfied>, fillcolor="#fbeee4"] ;
686 -> 687 ;
688 [label=<Age &le; 40.5<br/>gini = 0.391<br/>samples = 30<br/>value = [22, 8]<br/>class = disatisfied>, fillcolor="#eeaf81"] ;
687 -> 688 ;
689 [label=<Seat comfort &le; 3.5<br/>gini = 0.095<br/>samples = 20<br/>value = [19, 1]<br/>class = disatisfied>, fillcolor="#e68843"] ;
688 -> 689 ;
690 [label=<gini = 0.0<br/>samples = 18<br/>value = [18, 0]<br/>class = disatisfied>, fillcolor="#e58139"] ;
689 -> 690 ;
691 [label=<Departure/Arrival time convenient &le; 1.0<br/>gini = 0.5<br/>samples = 2<br/>value = [1, 1]<br/>class = disatisfied>, fillcolor="#ffffff"] ;
689 -> 691 ;
692 [label=<gini = 0.0<br/>samples = 1<br/>value = [1, 0]<br/>class = disatisfied>, fillcolor="#e58139"] ;
691 -> 692 ;
693 [label=<gini = 0.0<br/>samples = 1<br/>value = [0, 1]<br/>class = satisfied>, fillcolor="#399de5"] ;
691 -> 693 ;
694 [label=<Inflight service &le; 2.5<br/>gini = 0.42<br/>samples = 10<br/>value = [3, 7]<br/>class = satisfied>, fillcolor="#8ec7f0"] ;
688 -> 694 ;
695 [label=<gini = 0.0<br/>samples = 3<br/>value = [3, 0]<br/>class = disatisfied>, fillcolor="#e58139"] ;
694 -> 695 ;
696 [label=<gini = 0.0<br/>samples = 7<br/>value = [0, 7]<br/>class = satisfied>, fillcolor="#399de5"] ;
694 -> 696 ;
697 [label=<gini = 0.0<br/>samples = 11<br/>value = [0, 11]<br/>class = satisfied>, fillcolor="#399de5"] ;
687 -> 697 ;
698 [label=<Baggage handling &le; 3.5<br/>gini = 0.01<br/>samples = 1662<br/>value = [8, 1654]<br/>class = satisfied>, fillcolor="#3a9de5"] ;
686 -> 698 ;
699 [label=<Inflight wifi service &le; 2.5<br/>gini = 0.193<br/>samples = 74<br/>value = [8, 66]<br/>class = satisfied>, fillcolor="#51a9e8"] ;
698 -> 699 ;
700 [label=<Departure Delay in Minutes &le; 104.0<br/>gini = 0.04<br/>samples = 49<br/>value = [1.0, 48.0]<br/>class = satisfied>, fillcolor="#3d9fe6"] ;
699 -> 700 ;
701 [label=<gini = 0.0<br/>samples = 48<br/>value = [0, 48]<br/>class = satisfied>, fillcolor="#399de5"] ;
700 -> 701 ;
702 [label=<gini = 0.0<br/>samples = 1<br/>value = [1, 0]<br/>class = disatisfied>, fillcolor="#e58139"] ;
700 -> 702 ;
703 [label=<Gate location &le; 2.5<br/>gini = 0.403<br/>samples = 25<br/>value = [7.0, 18.0]<br/>class = satisfied>, fillcolor="#86c3ef"] ;
699 -> 703 ;
704 [label=<gini = 0.0<br/>samples = 5<br/>value = [5, 0]<br/>class = disatisfied>, fillcolor="#e58139"] ;
703 -> 704 ;
705 [label=<Flight Distance &le; 3610.5<br/>gini = 0.18<br/>samples = 20<br/>value = [2, 18]<br/>class = satisfied>, fillcolor="#4fa8e8"] ;
703 -> 705 ;
706 [label=<Food and drink &le; 4.5<br/>gini = 0.1<br/>samples = 19<br/>value = [1, 18]<br/>class = satisfied>, fillcolor="#44a2e6"] ;
705 -> 706 ;
707 [label=<gini = 0.0<br/>samples = 15<br/>value = [0, 15]<br/>class = satisfied>, fillcolor="#399de5"] ;
706 -> 707 ;
708 [label=<Checkin service &le; 1.5<br/>gini = 0.375<br/>samples = 4<br/>value = [1, 3]<br/>class = satisfied>, fillcolor="#7bbeee"] ;
706 -> 708 ;
709 [label=<gini = 0.0<br/>samples = 1<br/>value = [1, 0]<br/>class = disatisfied>, fillcolor="#e58139"] ;
708 -> 709 ;
710 [label=<gini = 0.0<br/>samples = 3<br/>value = [0, 3]<br/>class = satisfied>, fillcolor="#399de5"] ;
708 -> 710 ;
711 [label=<gini = 0.0<br/>samples = 1<br/>value = [1, 0]<br/>class = disatisfied>, fillcolor="#e58139"] ;
705 -> 711 ;
712 [label=<gini = 0.0<br/>samples = 1588<br/>value = [0, 1588]<br/>class = satisfied>, fillcolor="#399de5"] ;
698 -> 712 ;
713 [label=<gini = 0.0<br/>samples = 38<br/>value = [38, 0]<br/>class = disatisfied>, fillcolor="#e58139"] ;
679 -> 713 ;
714 [label=<gini = 0.0<br/>samples = 377<br/>value = [377, 0]<br/>class = disatisfied>, fillcolor="#e58139"] ;
644 -> 714 ;
715 [label=<Age &le; 36.5<br/>gini = 0.075<br/>samples = 1556<br/>value = [1495, 61]<br/>class = disatisfied>, fillcolor="#e68641"] ;
643 -> 715 ;
716 [label=<gini = 0.0<br/>samples = 870<br/>value = [870, 0]<br/>class = disatisfied>, fillcolor="#e58139"] ;
715 -> 716 ;
717 [label=<Inflight wifi service &le; 1.5<br/>gini = 0.162<br/>samples = 686<br/>value = [625, 61]<br/>class = disatisfied>, fillcolor="#e88d4c"] ;
715 -> 717 ;
718 [label=<gini = 0.0<br/>samples = 142<br/>value = [142, 0]<br/>class = disatisfied>, fillcolor="#e58139"] ;
717 -> 718 ;
719 [label=<Flight Distance &le; 1560.0<br/>gini = 0.199<br/>samples = 544<br/>value = [483, 61]<br/>class = disatisfied>, fillcolor="#e89152"] ;
717 -> 719 ;
720 [label=<Leg room service &le; 2.5<br/>gini = 0.216<br/>samples = 494<br/>value = [433, 61]<br/>class = disatisfied>, fillcolor="#e99355"] ;
719 -> 720 ;
721 [label=<Departure Delay in Minutes &le; 115.5<br/>gini = 0.121<br/>samples = 155<br/>value = [145, 10]<br/>class = disatisfied>, fillcolor="#e78a47"] ;
720 -> 721 ;
722 [label=<Age &le; 64.5<br/>gini = 0.11<br/>samples = 154<br/>value = [145, 9]<br/>class = disatisfied>, fillcolor="#e78945"] ;
721 -> 722 ;
723 [label=<Flight Distance &le; 245.0<br/>gini = 0.1<br/>samples = 152<br/>value = [144, 8]<br/>class = disatisfied>, fillcolor="#e68844"] ;
722 -> 723 ;
724 [label=<gini = 0.0<br/>samples = 36<br/>value = [36, 0]<br/>class = disatisfied>, fillcolor="#e58139"] ;
723 -> 724 ;
725 [label=<Flight Distance &le; 254.5<br/>gini = 0.128<br/>samples = 116<br/>value = [108, 8]<br/>class = disatisfied>, fillcolor="#e78a48"] ;
723 -> 725 ;
726 [label=<gini = 0.0<br/>samples = 1<br/>value = [0, 1]<br/>class = satisfied>, fillcolor="#399de5"] ;
725 -> 726 ;
727 [label=<Arrival Delay in Minutes &le; 3.5<br/>gini = 0.114<br/>samples = 115<br/>value = [108, 7]<br/>class = disatisfied>, fillcolor="#e78946"] ;
725 -> 727 ;
728 [label=<Gate location &le; 2.5<br/>gini = 0.058<br/>samples = 67<br/>value = [65, 2]<br/>class = disatisfied>, fillcolor="#e6853f"] ;
727 -> 728 ;
